digraph Tree {
node [shape=box, style="filled", color="black"] ;
0 [label=<horse_weight &le; 519.0<br/>gini = 0.281<br/>samples = 145<br/>value = [192, 39]>, fillcolor="#e58139cb"] ;
1 [label=<win2 &le; 0.5<br/>gini = 0.256<br/>samples = 133<br/>value = [180, 32]>, fillcolor="#e58139d2"] ;
0 -> 1 [labeldistance=2.5, labelangle=45, headlabel="True"] ;
2 [label=<horse_weight &le; 487.0<br/>gini = 0.064<br/>samples = 18<br/>value = [29, 1]>, fillcolor="#e58139f6"] ;
1 -> 2 ;
3 [label=<gini = 0.0<br/>samples = 14<br/>value = [24, 0]>, fillcolor="#e58139ff"] ;
2 -> 3 ;
4 [label=<win1 &le; 3.0<br/>gini = 0.278<br/>samples = 4<br/>value = [5, 1]>, fillcolor="#e58139cc"] ;
2 -> 4 ;
5 [label=<gini = 0.0<br/>samples = 2<br/>value = [4, 0]>, fillcolor="#e58139ff"] ;
4 -> 5 ;
6 [label=<jockey &le; 0.351<br/>gini = 0.5<br/>samples = 2<br/>value = [1, 1]>, fillcolor="#e5813900"] ;
4 -> 6 ;
7 [label=<gini = 0.0<br/>samples = 1<br/>value = [0, 1]>, fillcolor="#399de5ff"] ;
6 -> 7 ;
8 [label=<gini = 0.0<br/>samples = 1<br/>value = [1, 0]>, fillcolor="#e58139ff"] ;
6 -> 8 ;
9 [label=<jockey &le; 0.414<br/>gini = 0.283<br/>samples = 115<br/>value = [151, 31]>, fillcolor="#e58139cb"] ;
1 -> 9 ;
10 [label=<horse_weight &le; 438.0<br/>gini = 0.178<br/>samples = 91<br/>value = [128, 14]>, fillcolor="#e58139e3"] ;
9 -> 10 ;
11 [label=<zougen &le; -1.0<br/>gini = 0.391<br/>samples = 7<br/>value = [11, 4]>, fillcolor="#e58139a2"] ;
10 -> 11 ;
12 [label=<gini = 0.0<br/>samples = 4<br/>value = [10, 0]>, fillcolor="#e58139ff"] ;
11 -> 12 ;
13 [label=<win1 &le; 2.5<br/>gini = 0.32<br/>samples = 3<br/>value = [1, 4]>, fillcolor="#399de5bf"] ;
11 -> 13 ;
14 [label=<weight &le; 54.0<br/>gini = 0.5<br/>samples = 2<br/>value = [1, 1]>, fillcolor="#e5813900"] ;
13 -> 14 ;
15 [label=<gini = 0.0<br/>samples = 1<br/>value = [0, 1]>, fillcolor="#399de5ff"] ;
14 -> 15 ;
16 [label=<gini = 0.0<br/>samples = 1<br/>value = [1, 0]>, fillcolor="#e58139ff"] ;
14 -> 16 ;
17 [label=<gini = 0.0<br/>samples = 1<br/>value = [0, 3]>, fillcolor="#399de5ff"] ;
13 -> 17 ;
18 [label=<win1 &le; 1.5<br/>gini = 0.145<br/>samples = 84<br/>value = [117, 10]>, fillcolor="#e58139e9"] ;
10 -> 18 ;
19 [label=<weight &le; 56.0<br/>gini = 0.48<br/>samples = 4<br/>value = [2, 3]>, fillcolor="#399de555"] ;
18 -> 19 ;
20 [label=<gini = 0.0<br/>samples = 2<br/>value = [2, 0]>, fillcolor="#e58139ff"] ;
19 -> 20 ;
21 [label=<gini = 0.0<br/>samples = 2<br/>value = [0, 3]>, fillcolor="#399de5ff"] ;
19 -> 21 ;
22 [label=<umaban &le; 14.5<br/>gini = 0.108<br/>samples = 80<br/>value = [115, 7]>, fillcolor="#e58139ef"] ;
18 -> 22 ;
23 [label=<distance &le; 3100.0<br/>gini = 0.071<br/>samples = 70<br/>value = [104, 4]>, fillcolor="#e58139f5"] ;
22 -> 23 ;
24 [label=<umaban &le; 4.5<br/>gini = 0.057<br/>samples = 66<br/>value = [100, 3]>, fillcolor="#e58139f7"] ;
23 -> 24 ;
25 [label=<gini = 0.0<br/>samples = 24<br/>value = [39, 0]>, fillcolor="#e58139ff"] ;
24 -> 25 ;
26 [label=<horse_weight &le; 511.0<br/>gini = 0.089<br/>samples = 42<br/>value = [61, 3]>, fillcolor="#e58139f2"] ;
24 -> 26 ;
27 [label=<jockey &le; 0.288<br/>gini = 0.062<br/>samples = 40<br/>value = [60, 2]>, fillcolor="#e58139f6"] ;
26 -> 27 ;
28 [label=<gini = 0.0<br/>samples = 24<br/>value = [38, 0]>, fillcolor="#e58139ff"] ;
27 -> 28 ;
29 [label=<umaban &le; 5.5<br/>gini = 0.153<br/>samples = 16<br/>value = [22, 2]>, fillcolor="#e58139e8"] ;
27 -> 29 ;
30 [label=<gini = 0.0<br/>samples = 1<br/>value = [0, 1]>, fillcolor="#399de5ff"] ;
29 -> 30 ;
31 [label=<win2 &le; 5.5<br/>gini = 0.083<br/>samples = 15<br/>value = [22, 1]>, fillcolor="#e58139f3"] ;
29 -> 31 ;
32 [label=<gini = 0.0<br/>samples = 11<br/>value = [18, 0]>, fillcolor="#e58139ff"] ;
31 -> 32 ;
33 [label=<umaban &le; 9.0<br/>gini = 0.32<br/>samples = 4<br/>value = [4, 1]>, fillcolor="#e58139bf"] ;
31 -> 33 ;
34 [label=<gini = 0.0<br/>samples = 1<br/>value = [0, 1]>, fillcolor="#399de5ff"] ;
33 -> 34 ;
35 [label=<gini = 0.0<br/>samples = 3<br/>value = [4, 0]>, fillcolor="#e58139ff"] ;
33 -> 35 ;
36 [label=<past2_result &le; 2.5<br/>gini = 0.5<br/>samples = 2<br/>value = [1, 1]>, fillcolor="#e5813900"] ;
26 -> 36 ;
37 [label=<gini = 0.0<br/>samples = 1<br/>value = [0, 1]>, fillcolor="#399de5ff"] ;
36 -> 37 ;
38 [label=<gini = 0.0<br/>samples = 1<br/>value = [1, 0]>, fillcolor="#e58139ff"] ;
36 -> 38 ;
39 [label=<zougen &le; -1.0<br/>gini = 0.32<br/>samples = 4<br/>value = [4, 1]>, fillcolor="#e58139bf"] ;
23 -> 39 ;
40 [label=<gini = 0.0<br/>samples = 1<br/>value = [0, 1]>, fillcolor="#399de5ff"] ;
39 -> 40 ;
41 [label=<gini = 0.0<br/>samples = 3<br/>value = [4, 0]>, fillcolor="#e58139ff"] ;
39 -> 41 ;
42 [label=<past3_result &le; 4.0<br/>gini = 0.337<br/>samples = 10<br/>value = [11, 3]>, fillcolor="#e58139b9"] ;
22 -> 42 ;
43 [label=<win3 &le; 5.0<br/>gini = 0.444<br/>samples = 7<br/>value = [6, 3]>, fillcolor="#e581397f"] ;
42 -> 43 ;
44 [label=<horse_weight &le; 454.0<br/>gini = 0.245<br/>samples = 6<br/>value = [6, 1]>, fillcolor="#e58139d4"] ;
43 -> 44 ;
45 [label=<zougen &le; 3.0<br/>gini = 0.5<br/>samples = 2<br/>value = [1, 1]>, fillcolor="#e5813900"] ;
44 -> 45 ;
46 [label=<gini = 0.0<br/>samples = 1<br/>value = [0, 1]>, fillcolor="#399de5ff"] ;
45 -> 46 ;
47 [label=<gini = 0.0<br/>samples = 1<br/>value = [1, 0]>, fillcolor="#e58139ff"] ;
45 -> 47 ;
48 [label=<gini = 0.0<br/>samples = 4<br/>value = [5, 0]>, fillcolor="#e58139ff"] ;
44 -> 48 ;
49 [label=<gini = 0.0<br/>samples = 1<br/>value = [0, 2]>, fillcolor="#399de5ff"] ;
43 -> 49 ;
50 [label=<gini = 0.0<br/>samples = 3<br/>value = [5, 0]>, fillcolor="#e58139ff"] ;
42 -> 50 ;
51 [label=<win3 &le; 1.5<br/>gini = 0.489<br/>samples = 24<br/>value = [23, 17]>, fillcolor="#e5813943"] ;
9 -> 51 ;
52 [label=<umaban &le; 14.0<br/>gini = 0.469<br/>samples = 17<br/>value = [9, 15]>, fillcolor="#399de566"] ;
51 -> 52 ;
53 [label=<age &le; 3.5<br/>gini = 0.291<br/>samples = 13<br/>value = [3, 14]>, fillcolor="#399de5c8"] ;
52 -> 53 ;
54 [label=<gini = 0.0<br/>samples = 6<br/>value = [0, 10]>, fillcolor="#399de5ff"] ;
53 -> 54 ;
55 [label=<total_game &le; 15.5<br/>gini = 0.49<br/>samples = 7<br/>value = [3, 4]>, fillcolor="#399de540"] ;
53 -> 55 ;
56 [label=<distance &le; 2200.0<br/>gini = 0.444<br/>samples = 6<br/>value = [2, 4]>, fillcolor="#399de57f"] ;
55 -> 56 ;
57 [label=<umaban &le; 3.5<br/>gini = 0.5<br/>samples = 4<br/>value = [2, 2]>, fillcolor="#e5813900"] ;
56 -> 57 ;
58 [label=<gini = 0.0<br/>samples = 2<br/>value = [0, 2]>, fillcolor="#399de5ff"] ;
57 -> 58 ;
59 [label=<gini = 0.0<br/>samples = 2<br/>value = [2, 0]>, fillcolor="#e58139ff"] ;
57 -> 59 ;
60 [label=<gini = 0.0<br/>samples = 2<br/>value = [0, 2]>, fillcolor="#399de5ff"] ;
56 -> 60 ;
61 [label=<gini = 0.0<br/>samples = 1<br/>value = [1, 0]>, fillcolor="#e58139ff"] ;
55 -> 61 ;
62 [label=<jockey &le; 0.539<br/>gini = 0.245<br/>samples = 4<br/>value = [6, 1]>, fillcolor="#e58139d4"] ;
52 -> 62 ;
63 [label=<past2_result &le; 3.0<br/>gini = 0.444<br/>samples = 2<br/>value = [2, 1]>, fillcolor="#e581397f"] ;
62 -> 63 ;
64 [label=<gini = 0.0<br/>samples = 1<br/>value = [2, 0]>, fillcolor="#e58139ff"] ;
63 -> 64 ;
65 [label=<gini = 0.0<br/>samples = 1<br/>value = [0, 1]>, fillcolor="#399de5ff"] ;
63 -> 65 ;
66 [label=<gini = 0.0<br/>samples = 2<br/>value = [4, 0]>, fillcolor="#e58139ff"] ;
62 -> 66 ;
67 [label=<umaban &le; 12.0<br/>gini = 0.219<br/>samples = 7<br/>value = [14, 2]>, fillcolor="#e58139db"] ;
51 -> 67 ;
68 [label=<jockey &le; 0.564<br/>gini = 0.408<br/>samples = 4<br/>value = [5, 2]>, fillcolor="#e5813999"] ;
67 -> 68 ;
69 [label=<gini = 0.0<br/>samples = 3<br/>value = [5, 0]>, fillcolor="#e58139ff"] ;
68 -> 69 ;
70 [label=<gini = 0.0<br/>samples = 1<br/>value = [0, 2]>, fillcolor="#399de5ff"] ;
68 -> 70 ;
71 [label=<gini = 0.0<br/>samples = 3<br/>value = [9, 0]>, fillcolor="#e58139ff"] ;
67 -> 71 ;
72 [label=<win1 &le; 3.5<br/>gini = 0.465<br/>samples = 12<br/>value = [12, 7]>, fillcolor="#e581396a"] ;
0 -> 72 [labeldistance=2.5, labelangle=-45, headlabel="False"] ;
73 [label=<gini = 0.0<br/>samples = 3<br/>value = [5, 0]>, fillcolor="#e58139ff"] ;
72 -> 73 ;
74 [label=<jockey &le; 0.231<br/>gini = 0.5<br/>samples = 9<br/>value = [7, 7]>, fillcolor="#e5813900"] ;
72 -> 74 ;
75 [label=<gini = 0.0<br/>samples = 2<br/>value = [3, 0]>, fillcolor="#e58139ff"] ;
74 -> 75 ;
76 [label=<frame_num &le; 5.0<br/>gini = 0.463<br/>samples = 7<br/>value = [4, 7]>, fillcolor="#399de56d"] ;
74 -> 76 ;
77 [label=<distance &le; 1400.0<br/>gini = 0.245<br/>samples = 4<br/>value = [1, 6]>, fillcolor="#399de5d4"] ;
76 -> 77 ;
78 [label=<gini = 0.0<br/>samples = 1<br/>value = [0, 4]>, fillcolor="#399de5ff"] ;
77 -> 78 ;
79 [label=<weight &le; 57.5<br/>gini = 0.444<br/>samples = 3<br/>value = [1, 2]>, fillcolor="#399de57f"] ;
77 -> 79 ;
80 [label=<gini = 0.0<br/>samples = 2<br/>value = [0, 2]>, fillcolor="#399de5ff"] ;
79 -> 80 ;
81 [label=<gini = 0.0<br/>samples = 1<br/>value = [1, 0]>, fillcolor="#e58139ff"] ;
79 -> 81 ;
82 [label=<past3_result &le; 5.0<br/>gini = 0.375<br/>samples = 3<br/>value = [3, 1]>, fillcolor="#e58139aa"] ;
76 -> 82 ;
83 [label=<gini = 0.0<br/>samples = 2<br/>value = [3, 0]>, fillcolor="#e58139ff"] ;
82 -> 83 ;
84 [label=<gini = 0.0<br/>samples = 1<br/>value = [0, 1]>, fillcolor="#399de5ff"] ;
82 -> 84 ;
}