digraph Tree {
node [shape=box, style="filled", color="black"] ;
0 [label=<jockey &le; 0.414<br/>gini = 0.38<br/>samples = 144<br/>value = [172, 59]>, fillcolor="#e58139a8"] ;
1 [label=<zougen &le; -2.5<br/>gini = 0.268<br/>samples = 104<br/>value = [137, 26]>, fillcolor="#e58139cf"] ;
0 -> 1 [labeldistance=2.5, labelangle=45, headlabel="True"] ;
2 [label=<past2_result &le; 8.5<br/>gini = 0.081<br/>samples = 30<br/>value = [45, 2]>, fillcolor="#e58139f4"] ;
1 -> 2 ;
3 [label=<total_game &le; 4.5<br/>gini = 0.048<br/>samples = 26<br/>value = [40, 1]>, fillcolor="#e58139f9"] ;
2 -> 3 ;
4 [label=<frame_num &le; 1.5<br/>gini = 0.198<br/>samples = 5<br/>value = [8, 1]>, fillcolor="#e58139df"] ;
3 -> 4 ;
5 [label=<gini = 0.0<br/>samples = 1<br/>value = [0, 1]>, fillcolor="#399de5ff"] ;
4 -> 5 ;
6 [label=<gini = 0.0<br/>samples = 4<br/>value = [8, 0]>, fillcolor="#e58139ff"] ;
4 -> 6 ;
7 [label=<gini = 0.0<br/>samples = 21<br/>value = [32, 0]>, fillcolor="#e58139ff"] ;
3 -> 7 ;
8 [label=<past2_result &le; 11.5<br/>gini = 0.278<br/>samples = 4<br/>value = [5, 1]>, fillcolor="#e58139cc"] ;
2 -> 8 ;
9 [label=<gini = 0.0<br/>samples = 1<br/>value = [0, 1]>, fillcolor="#399de5ff"] ;
8 -> 9 ;
10 [label=<gini = 0.0<br/>samples = 3<br/>value = [5, 0]>, fillcolor="#e58139ff"] ;
8 -> 10 ;
11 [label=<jockey &le; 0.234<br/>gini = 0.328<br/>samples = 74<br/>value = [92, 24]>, fillcolor="#e58139bc"] ;
1 -> 11 ;
12 [label=<win3 &le; 6.0<br/>gini = 0.05<br/>samples = 25<br/>value = [38, 1]>, fillcolor="#e58139f8"] ;
11 -> 12 ;
13 [label=<gini = 0.0<br/>samples = 24<br/>value = [38, 0]>, fillcolor="#e58139ff"] ;
12 -> 13 ;
14 [label=<gini = 0.0<br/>samples = 1<br/>value = [0, 1]>, fillcolor="#399de5ff"] ;
12 -> 14 ;
15 [label=<male &le; 0.5<br/>gini = 0.419<br/>samples = 49<br/>value = [54, 23]>, fillcolor="#e5813992"] ;
11 -> 15 ;
16 [label=<win1 &le; 2.5<br/>gini = 0.284<br/>samples = 23<br/>value = [29, 6]>, fillcolor="#e58139ca"] ;
15 -> 16 ;
17 [label=<condition &le; 1.5<br/>gini = 0.105<br/>samples = 10<br/>value = [17, 1]>, fillcolor="#e58139f0"] ;
16 -> 17 ;
18 [label=<gini = 0.0<br/>samples = 9<br/>value = [17, 0]>, fillcolor="#e58139ff"] ;
17 -> 18 ;
19 [label=<gini = 0.0<br/>samples = 1<br/>value = [0, 1]>, fillcolor="#399de5ff"] ;
17 -> 19 ;
20 [label=<umaban &le; 2.5<br/>gini = 0.415<br/>samples = 13<br/>value = [12, 5]>, fillcolor="#e5813995"] ;
16 -> 20 ;
21 [label=<gini = 0.0<br/>samples = 2<br/>value = [0, 3]>, fillcolor="#399de5ff"] ;
20 -> 21 ;
22 [label=<past1_result &le; 4.5<br/>gini = 0.245<br/>samples = 11<br/>value = [12, 2]>, fillcolor="#e58139d4"] ;
20 -> 22 ;
23 [label=<gini = 0.0<br/>samples = 6<br/>value = [8, 0]>, fillcolor="#e58139ff"] ;
22 -> 23 ;
24 [label=<zougen &le; 3.0<br/>gini = 0.444<br/>samples = 5<br/>value = [4, 2]>, fillcolor="#e581397f"] ;
22 -> 24 ;
25 [label=<gini = 0.0<br/>samples = 2<br/>value = [3, 0]>, fillcolor="#e58139ff"] ;
24 -> 25 ;
26 [label=<horse_weight &le; 507.0<br/>gini = 0.444<br/>samples = 3<br/>value = [1, 2]>, fillcolor="#399de57f"] ;
24 -> 26 ;
27 [label=<gini = 0.0<br/>samples = 2<br/>value = [0, 2]>, fillcolor="#399de5ff"] ;
26 -> 27 ;
28 [label=<gini = 0.0<br/>samples = 1<br/>value = [1, 0]>, fillcolor="#e58139ff"] ;
26 -> 28 ;
29 [label=<total_game &le; 11.0<br/>gini = 0.482<br/>samples = 26<br/>value = [25, 17]>, fillcolor="#e5813952"] ;
15 -> 29 ;
30 [label=<jockey &le; 0.382<br/>gini = 0.298<br/>samples = 7<br/>value = [2, 9]>, fillcolor="#399de5c6"] ;
29 -> 30 ;
31 [label=<win3 &le; 0.5<br/>gini = 0.18<br/>samples = 6<br/>value = [1, 9]>, fillcolor="#399de5e3"] ;
30 -> 31 ;
32 [label=<zougen &le; 1.0<br/>gini = 0.444<br/>samples = 2<br/>value = [1, 2]>, fillcolor="#399de57f"] ;
31 -> 32 ;
33 [label=<gini = 0.0<br/>samples = 1<br/>value = [0, 2]>, fillcolor="#399de5ff"] ;
32 -> 33 ;
34 [label=<gini = 0.0<br/>samples = 1<br/>value = [1, 0]>, fillcolor="#e58139ff"] ;
32 -> 34 ;
35 [label=<gini = 0.0<br/>samples = 4<br/>value = [0, 7]>, fillcolor="#399de5ff"] ;
31 -> 35 ;
36 [label=<gini = 0.0<br/>samples = 1<br/>value = [1, 0]>, fillcolor="#e58139ff"] ;
30 -> 36 ;
37 [label=<past1_result &le; 4.5<br/>gini = 0.383<br/>samples = 19<br/>value = [23, 8]>, fillcolor="#e58139a6"] ;
29 -> 37 ;
38 [label=<horse_weight &le; 476.0<br/>gini = 0.469<br/>samples = 5<br/>value = [3, 5]>, fillcolor="#399de566"] ;
37 -> 38 ;
39 [label=<gini = 0.0<br/>samples = 2<br/>value = [0, 5]>, fillcolor="#399de5ff"] ;
38 -> 39 ;
40 [label=<gini = 0.0<br/>samples = 3<br/>value = [3, 0]>, fillcolor="#e58139ff"] ;
38 -> 40 ;
41 [label=<distance &le; 2850.0<br/>gini = 0.227<br/>samples = 14<br/>value = [20, 3]>, fillcolor="#e58139d9"] ;
37 -> 41 ;
42 [label=<distance &le; 1900.0<br/>gini = 0.091<br/>samples = 13<br/>value = [20, 1]>, fillcolor="#e58139f2"] ;
41 -> 42 ;
43 [label=<age &le; 7.5<br/>gini = 0.278<br/>samples = 4<br/>value = [5, 1]>, fillcolor="#e58139cc"] ;
42 -> 43 ;
44 [label=<gini = 0.0<br/>samples = 3<br/>value = [5, 0]>, fillcolor="#e58139ff"] ;
43 -> 44 ;
45 [label=<gini = 0.0<br/>samples = 1<br/>value = [0, 1]>, fillcolor="#399de5ff"] ;
43 -> 45 ;
46 [label=<gini = 0.0<br/>samples = 9<br/>value = [15, 0]>, fillcolor="#e58139ff"] ;
42 -> 46 ;
47 [label=<gini = 0.0<br/>samples = 1<br/>value = [0, 2]>, fillcolor="#399de5ff"] ;
41 -> 47 ;
48 [label=<umaban &le; 13.5<br/>gini = 0.5<br/>samples = 40<br/>value = [35, 33]>, fillcolor="#e581390f"] ;
0 -> 48 [labeldistance=2.5, labelangle=-45, headlabel="False"] ;
49 [label=<past2_result &le; 8.5<br/>gini = 0.488<br/>samples = 30<br/>value = [22, 30]>, fillcolor="#399de544"] ;
48 -> 49 ;
50 [label=<horse_weight &le; 483.0<br/>gini = 0.469<br/>samples = 27<br/>value = [18, 30]>, fillcolor="#399de566"] ;
49 -> 50 ;
51 [label=<past1_result &le; 2.5<br/>gini = 0.291<br/>samples = 10<br/>value = [3, 14]>, fillcolor="#399de5c8"] ;
50 -> 51 ;
52 [label=<jockey &le; 0.488<br/>gini = 0.124<br/>samples = 8<br/>value = [1, 14]>, fillcolor="#399de5ed"] ;
51 -> 52 ;
53 [label=<gini = 0.0<br/>samples = 3<br/>value = [0, 7]>, fillcolor="#399de5ff"] ;
52 -> 53 ;
54 [label=<zougen &le; 5.0<br/>gini = 0.219<br/>samples = 5<br/>value = [1, 7]>, fillcolor="#399de5db"] ;
52 -> 54 ;
55 [label=<gini = 0.0<br/>samples = 4<br/>value = [0, 7]>, fillcolor="#399de5ff"] ;
54 -> 55 ;
56 [label=<gini = 0.0<br/>samples = 1<br/>value = [1, 0]>, fillcolor="#e58139ff"] ;
54 -> 56 ;
57 [label=<gini = 0.0<br/>samples = 2<br/>value = [2, 0]>, fillcolor="#e58139ff"] ;
51 -> 57 ;
58 [label=<win2 &le; 0.5<br/>gini = 0.499<br/>samples = 17<br/>value = [15, 16]>, fillcolor="#399de510"] ;
50 -> 58 ;
59 [label=<gini = 0.0<br/>samples = 4<br/>value = [8, 0]>, fillcolor="#e58139ff"] ;
58 -> 59 ;
60 [label=<total_game &le; 10.5<br/>gini = 0.423<br/>samples = 13<br/>value = [7, 16]>, fillcolor="#399de58f"] ;
58 -> 60 ;
61 [label=<weight &le; 57.5<br/>gini = 0.165<br/>samples = 5<br/>value = [1, 10]>, fillcolor="#399de5e6"] ;
60 -> 61 ;
62 [label=<frame_num &le; 3.5<br/>gini = 0.245<br/>samples = 3<br/>value = [1, 6]>, fillcolor="#399de5d4"] ;
61 -> 62 ;
63 [label=<gini = 0.0<br/>samples = 1<br/>value = [1, 0]>, fillcolor="#e58139ff"] ;
62 -> 63 ;
64 [label=<gini = 0.0<br/>samples = 2<br/>value = [0, 6]>, fillcolor="#399de5ff"] ;
62 -> 64 ;
65 [label=<gini = 0.0<br/>samples = 2<br/>value = [0, 4]>, fillcolor="#399de5ff"] ;
61 -> 65 ;
66 [label=<past2_result &le; 5.5<br/>gini = 0.5<br/>samples = 8<br/>value = [6, 6]>, fillcolor="#e5813900"] ;
60 -> 66 ;
67 [label=<past1_result &le; 3.0<br/>gini = 0.444<br/>samples = 6<br/>value = [6, 3]>, fillcolor="#e581397f"] ;
66 -> 67 ;
68 [label=<distance &le; 2050.0<br/>gini = 0.245<br/>samples = 4<br/>value = [6, 1]>, fillcolor="#e58139d4"] ;
67 -> 68 ;
69 [label=<gini = 0.0<br/>samples = 3<br/>value = [6, 0]>, fillcolor="#e58139ff"] ;
68 -> 69 ;
70 [label=<gini = 0.0<br/>samples = 1<br/>value = [0, 1]>, fillcolor="#399de5ff"] ;
68 -> 70 ;
71 [label=<gini = 0.0<br/>samples = 2<br/>value = [0, 2]>, fillcolor="#399de5ff"] ;
67 -> 71 ;
72 [label=<gini = 0.0<br/>samples = 2<br/>value = [0, 3]>, fillcolor="#399de5ff"] ;
66 -> 72 ;
73 [label=<gini = 0.0<br/>samples = 3<br/>value = [4, 0]>, fillcolor="#e58139ff"] ;
49 -> 73 ;
74 [label=<win3 &le; 1.5<br/>gini = 0.305<br/>samples = 10<br/>value = [13, 3]>, fillcolor="#e58139c4"] ;
48 -> 74 ;
75 [label=<win1 &le; 3.5<br/>gini = 0.469<br/>samples = 6<br/>value = [5, 3]>, fillcolor="#e5813966"] ;
74 -> 75 ;
76 [label=<gini = 0.0<br/>samples = 3<br/>value = [4, 0]>, fillcolor="#e58139ff"] ;
75 -> 76 ;
77 [label=<win1 &le; 5.0<br/>gini = 0.375<br/>samples = 3<br/>value = [1, 3]>, fillcolor="#399de5aa"] ;
75 -> 77 ;
78 [label=<gini = 0.0<br/>samples = 1<br/>value = [0, 2]>, fillcolor="#399de5ff"] ;
77 -> 78 ;
79 [label=<jockey &le; 0.552<br/>gini = 0.5<br/>samples = 2<br/>value = [1, 1]>, fillcolor="#e5813900"] ;
77 -> 79 ;
80 [label=<gini = 0.0<br/>samples = 1<br/>value = [1, 0]>, fillcolor="#e58139ff"] ;
79 -> 80 ;
81 [label=<gini = 0.0<br/>samples = 1<br/>value = [0, 1]>, fillcolor="#399de5ff"] ;
79 -> 81 ;
82 [label=<gini = 0.0<br/>samples = 4<br/>value = [8, 0]>, fillcolor="#e58139ff"] ;
74 -> 82 ;
}