digraph Tree {
node [shape=box, style="filled", color="black"] ;
0 [label=<past3_result &le; 9.5<br/>gini = 0.281<br/>samples = 147<br/>value = [192, 39]>, fillcolor="#e58139cb"] ;
1 [label=<weight &le; 54.0<br/>gini = 0.31<br/>samples = 128<br/>value = [164, 39]>, fillcolor="#e58139c2"] ;
0 -> 1 [labeldistance=2.5, labelangle=45, headlabel="True"] ;
2 [label=<gini = 0.0<br/>samples = 1<br/>value = [0, 2]>, fillcolor="#399de5ff"] ;
1 -> 2 ;
3 [label=<age &le; 6.5<br/>gini = 0.3<br/>samples = 127<br/>value = [164, 37]>, fillcolor="#e58139c5"] ;
1 -> 3 ;
4 [label=<horse_weight &le; 469.0<br/>gini = 0.321<br/>samples = 115<br/>value = [147, 37]>, fillcolor="#e58139bf"] ;
3 -> 4 ;
5 [label=<umaban &le; 16.5<br/>gini = 0.135<br/>samples = 33<br/>value = [51, 4]>, fillcolor="#e58139eb"] ;
4 -> 5 ;
6 [label=<female &le; 0.5<br/>gini = 0.075<br/>samples = 31<br/>value = [49, 2]>, fillcolor="#e58139f5"] ;
5 -> 6 ;
7 [label=<gini = 0.0<br/>samples = 10<br/>value = [20, 0]>, fillcolor="#e58139ff"] ;
6 -> 7 ;
8 [label=<umaban &le; 2.5<br/>gini = 0.121<br/>samples = 21<br/>value = [29, 2]>, fillcolor="#e58139ed"] ;
6 -> 8 ;
9 [label=<horse_weight &le; 426.0<br/>gini = 0.5<br/>samples = 2<br/>value = [1, 1]>, fillcolor="#e5813900"] ;
8 -> 9 ;
10 [label=<gini = 0.0<br/>samples = 1<br/>value = [1, 0]>, fillcolor="#e58139ff"] ;
9 -> 10 ;
11 [label=<gini = 0.0<br/>samples = 1<br/>value = [0, 1]>, fillcolor="#399de5ff"] ;
9 -> 11 ;
12 [label=<zougen &le; 3.0<br/>gini = 0.067<br/>samples = 19<br/>value = [28, 1]>, fillcolor="#e58139f6"] ;
8 -> 12 ;
13 [label=<gini = 0.0<br/>samples = 16<br/>value = [26, 0]>, fillcolor="#e58139ff"] ;
12 -> 13 ;
14 [label=<win3 &le; 2.0<br/>gini = 0.444<br/>samples = 3<br/>value = [2, 1]>, fillcolor="#e581397f"] ;
12 -> 14 ;
15 [label=<gini = 0.0<br/>samples = 2<br/>value = [2, 0]>, fillcolor="#e58139ff"] ;
14 -> 15 ;
16 [label=<gini = 0.0<br/>samples = 1<br/>value = [0, 1]>, fillcolor="#399de5ff"] ;
14 -> 16 ;
17 [label=<past1_result &le; 4.0<br/>gini = 0.5<br/>samples = 2<br/>value = [2, 2]>, fillcolor="#e5813900"] ;
5 -> 17 ;
18 [label=<gini = 0.0<br/>samples = 1<br/>value = [2, 0]>, fillcolor="#e58139ff"] ;
17 -> 18 ;
19 [label=<gini = 0.0<br/>samples = 1<br/>value = [0, 2]>, fillcolor="#399de5ff"] ;
17 -> 19 ;
20 [label=<horse_weight &le; 479.0<br/>gini = 0.381<br/>samples = 82<br/>value = [96, 33]>, fillcolor="#e58139a7"] ;
4 -> 20 ;
21 [label=<umaban &le; 1.5<br/>gini = 0.5<br/>samples = 16<br/>value = [12, 12]>, fillcolor="#e5813900"] ;
20 -> 21 ;
22 [label=<gini = 0.0<br/>samples = 1<br/>value = [0, 4]>, fillcolor="#399de5ff"] ;
21 -> 22 ;
23 [label=<past1_result &le; 4.5<br/>gini = 0.48<br/>samples = 15<br/>value = [12, 8]>, fillcolor="#e5813955"] ;
21 -> 23 ;
24 [label=<past3_result &le; 4.5<br/>gini = 0.463<br/>samples = 8<br/>value = [4, 7]>, fillcolor="#399de56d"] ;
23 -> 24 ;
25 [label=<frame_num &le; 3.0<br/>gini = 0.346<br/>samples = 7<br/>value = [2, 7]>, fillcolor="#399de5b6"] ;
24 -> 25 ;
26 [label=<gini = 0.0<br/>samples = 2<br/>value = [2, 0]>, fillcolor="#e58139ff"] ;
25 -> 26 ;
27 [label=<gini = 0.0<br/>samples = 5<br/>value = [0, 7]>, fillcolor="#399de5ff"] ;
25 -> 27 ;
28 [label=<gini = 0.0<br/>samples = 1<br/>value = [2, 0]>, fillcolor="#e58139ff"] ;
24 -> 28 ;
29 [label=<win3 &le; 4.0<br/>gini = 0.198<br/>samples = 7<br/>value = [8, 1]>, fillcolor="#e58139df"] ;
23 -> 29 ;
30 [label=<gini = 0.0<br/>samples = 6<br/>value = [8, 0]>, fillcolor="#e58139ff"] ;
29 -> 30 ;
31 [label=<gini = 0.0<br/>samples = 1<br/>value = [0, 1]>, fillcolor="#399de5ff"] ;
29 -> 31 ;
32 [label=<win2 &le; 7.5<br/>gini = 0.32<br/>samples = 66<br/>value = [84, 21]>, fillcolor="#e58139bf"] ;
20 -> 32 ;
33 [label=<zougen &le; -1.0<br/>gini = 0.301<br/>samples = 65<br/>value = [84, 19]>, fillcolor="#e58139c5"] ;
32 -> 33 ;
34 [label=<past1_result &le; 1.5<br/>gini = 0.404<br/>samples = 24<br/>value = [23, 9]>, fillcolor="#e581399b"] ;
33 -> 34 ;
35 [label=<age &le; 5.5<br/>gini = 0.469<br/>samples = 5<br/>value = [3, 5]>, fillcolor="#399de566"] ;
34 -> 35 ;
36 [label=<gini = 0.0<br/>samples = 4<br/>value = [0, 5]>, fillcolor="#399de5ff"] ;
35 -> 36 ;
37 [label=<gini = 0.0<br/>samples = 1<br/>value = [3, 0]>, fillcolor="#e58139ff"] ;
35 -> 37 ;
38 [label=<horse_weight &le; 495.0<br/>gini = 0.278<br/>samples = 19<br/>value = [20, 4]>, fillcolor="#e58139cc"] ;
34 -> 38 ;
39 [label=<gini = 0.0<br/>samples = 11<br/>value = [12, 0]>, fillcolor="#e58139ff"] ;
38 -> 39 ;
40 [label=<zougen &le; -3.0<br/>gini = 0.444<br/>samples = 8<br/>value = [8, 4]>, fillcolor="#e581397f"] ;
38 -> 40 ;
41 [label=<jockey &le; 0.372<br/>gini = 0.198<br/>samples = 6<br/>value = [8, 1]>, fillcolor="#e58139df"] ;
40 -> 41 ;
42 [label=<gini = 0.0<br/>samples = 5<br/>value = [8, 0]>, fillcolor="#e58139ff"] ;
41 -> 42 ;
43 [label=<gini = 0.0<br/>samples = 1<br/>value = [0, 1]>, fillcolor="#399de5ff"] ;
41 -> 43 ;
44 [label=<gini = 0.0<br/>samples = 2<br/>value = [0, 3]>, fillcolor="#399de5ff"] ;
40 -> 44 ;
45 [label=<win2 &le; 5.5<br/>gini = 0.242<br/>samples = 41<br/>value = [61, 10]>, fillcolor="#e58139d5"] ;
33 -> 45 ;
46 [label=<past3_result &le; 2.5<br/>gini = 0.192<br/>samples = 38<br/>value = [58, 7]>, fillcolor="#e58139e0"] ;
45 -> 46 ;
47 [label=<weight &le; 56.5<br/>gini = 0.291<br/>samples = 22<br/>value = [28, 6]>, fillcolor="#e58139c8"] ;
46 -> 47 ;
48 [label=<gini = 0.0<br/>samples = 4<br/>value = [8, 0]>, fillcolor="#e58139ff"] ;
47 -> 48 ;
49 [label=<jockey &le; 0.308<br/>gini = 0.355<br/>samples = 18<br/>value = [20, 6]>, fillcolor="#e58139b3"] ;
47 -> 49 ;
50 [label=<gini = 0.0<br/>samples = 6<br/>value = [10, 0]>, fillcolor="#e58139ff"] ;
49 -> 50 ;
51 [label=<weight &le; 57.5<br/>gini = 0.469<br/>samples = 12<br/>value = [10, 6]>, fillcolor="#e5813966"] ;
49 -> 51 ;
52 [label=<win1 &le; 2.5<br/>gini = 0.496<br/>samples = 8<br/>value = [5, 6]>, fillcolor="#399de52a"] ;
51 -> 52 ;
53 [label=<gini = 0.0<br/>samples = 3<br/>value = [0, 4]>, fillcolor="#399de5ff"] ;
52 -> 53 ;
54 [label=<past1_result &le; 4.5<br/>gini = 0.408<br/>samples = 5<br/>value = [5, 2]>, fillcolor="#e5813999"] ;
52 -> 54 ;
55 [label=<gini = 0.0<br/>samples = 3<br/>value = [5, 0]>, fillcolor="#e58139ff"] ;
54 -> 55 ;
56 [label=<gini = 0.0<br/>samples = 2<br/>value = [0, 2]>, fillcolor="#399de5ff"] ;
54 -> 56 ;
57 [label=<gini = 0.0<br/>samples = 4<br/>value = [5, 0]>, fillcolor="#e58139ff"] ;
51 -> 57 ;
58 [label=<total_game &le; 6.5<br/>gini = 0.062<br/>samples = 16<br/>value = [30, 1]>, fillcolor="#e58139f6"] ;
46 -> 58 ;
59 [label=<weight &le; 56.0<br/>gini = 0.5<br/>samples = 2<br/>value = [1, 1]>, fillcolor="#e5813900"] ;
58 -> 59 ;
60 [label=<gini = 0.0<br/>samples = 1<br/>value = [0, 1]>, fillcolor="#399de5ff"] ;
59 -> 60 ;
61 [label=<gini = 0.0<br/>samples = 1<br/>value = [1, 0]>, fillcolor="#e58139ff"] ;
59 -> 61 ;
62 [label=<gini = 0.0<br/>samples = 14<br/>value = [29, 0]>, fillcolor="#e58139ff"] ;
58 -> 62 ;
63 [label=<horse_weight &le; 508.0<br/>gini = 0.5<br/>samples = 3<br/>value = [3, 3]>, fillcolor="#e5813900"] ;
45 -> 63 ;
64 [label=<gini = 0.0<br/>samples = 2<br/>value = [0, 3]>, fillcolor="#399de5ff"] ;
63 -> 64 ;
65 [label=<gini = 0.0<br/>samples = 1<br/>value = [3, 0]>, fillcolor="#e58139ff"] ;
63 -> 65 ;
66 [label=<gini = 0.0<br/>samples = 1<br/>value = [0, 2]>, fillcolor="#399de5ff"] ;
32 -> 66 ;
67 [label=<gini = 0.0<br/>samples = 12<br/>value = [17, 0]>, fillcolor="#e58139ff"] ;
3 -> 67 ;
68 [label=<gini = 0.0<br/>samples = 19<br/>value = [28, 0]>, fillcolor="#e58139ff"] ;
0 -> 68 [labeldistance=2.5, labelangle=-45, headlabel="False"] ;
}