digraph Tree {
node [shape=box, style="filled", color="black"] ;
0 [label=<horse_weight &le; 473.0<br/>gini = 0.275<br/>samples = 144<br/>value = [193, 38]>, fillcolor="#e58139cd"] ;
1 [label=<win1 &le; 6.5<br/>gini = 0.107<br/>samples = 55<br/>value = [83, 5]>, fillcolor="#e58139f0"] ;
0 -> 1 [labeldistance=2.5, labelangle=45, headlabel="True"] ;
2 [label=<past1_result &le; 1.5<br/>gini = 0.07<br/>samples = 51<br/>value = [80, 3]>, fillcolor="#e58139f5"] ;
1 -> 2 ;
3 [label=<jockey &le; 0.382<br/>gini = 0.266<br/>samples = 13<br/>value = [16, 3]>, fillcolor="#e58139cf"] ;
2 -> 3 ;
4 [label=<gini = 0.0<br/>samples = 7<br/>value = [12, 0]>, fillcolor="#e58139ff"] ;
3 -> 4 ;
5 [label=<total_game &le; 5.5<br/>gini = 0.49<br/>samples = 6<br/>value = [4, 3]>, fillcolor="#e5813940"] ;
3 -> 5 ;
6 [label=<win2 &le; 0.5<br/>gini = 0.32<br/>samples = 4<br/>value = [4, 1]>, fillcolor="#e58139bf"] ;
5 -> 6 ;
7 [label=<gini = 0.0<br/>samples = 3<br/>value = [4, 0]>, fillcolor="#e58139ff"] ;
6 -> 7 ;
8 [label=<gini = 0.0<br/>samples = 1<br/>value = [0, 1]>, fillcolor="#399de5ff"] ;
6 -> 8 ;
9 [label=<gini = 0.0<br/>samples = 2<br/>value = [0, 2]>, fillcolor="#399de5ff"] ;
5 -> 9 ;
10 [label=<gini = 0.0<br/>samples = 38<br/>value = [64, 0]>, fillcolor="#e58139ff"] ;
2 -> 10 ;
11 [label=<frame_num &le; 6.5<br/>gini = 0.48<br/>samples = 4<br/>value = [3, 2]>, fillcolor="#e5813955"] ;
1 -> 11 ;
12 [label=<gini = 0.0<br/>samples = 2<br/>value = [0, 2]>, fillcolor="#399de5ff"] ;
11 -> 12 ;
13 [label=<gini = 0.0<br/>samples = 2<br/>value = [3, 0]>, fillcolor="#e58139ff"] ;
11 -> 13 ;
14 [label=<past2_result &le; 3.5<br/>gini = 0.355<br/>samples = 89<br/>value = [110, 33]>, fillcolor="#e58139b3"] ;
0 -> 14 [labeldistance=2.5, labelangle=-45, headlabel="False"] ;
15 [label=<total_game &le; 6.5<br/>gini = 0.453<br/>samples = 48<br/>value = [47, 25]>, fillcolor="#e5813977"] ;
14 -> 15 ;
16 [label=<horse_weight &le; 497.0<br/>gini = 0.497<br/>samples = 16<br/>value = [11, 13]>, fillcolor="#399de527"] ;
15 -> 16 ;
17 [label=<female &le; 0.5<br/>gini = 0.415<br/>samples = 10<br/>value = [5, 12]>, fillcolor="#399de595"] ;
16 -> 17 ;
18 [label=<past1_result &le; 4.0<br/>gini = 0.5<br/>samples = 6<br/>value = [5, 5]>, fillcolor="#e5813900"] ;
17 -> 18 ;
19 [label=<past1_result &le; 1.5<br/>gini = 0.278<br/>samples = 4<br/>value = [1, 5]>, fillcolor="#399de5cc"] ;
18 -> 19 ;
20 [label=<gini = 0.0<br/>samples = 1<br/>value = [1, 0]>, fillcolor="#e58139ff"] ;
19 -> 20 ;
21 [label=<gini = 0.0<br/>samples = 3<br/>value = [0, 5]>, fillcolor="#399de5ff"] ;
19 -> 21 ;
22 [label=<gini = 0.0<br/>samples = 2<br/>value = [4, 0]>, fillcolor="#e58139ff"] ;
18 -> 22 ;
23 [label=<gini = 0.0<br/>samples = 4<br/>value = [0, 7]>, fillcolor="#399de5ff"] ;
17 -> 23 ;
24 [label=<win1 &le; 3.5<br/>gini = 0.245<br/>samples = 6<br/>value = [6, 1]>, fillcolor="#e58139d4"] ;
16 -> 24 ;
25 [label=<gini = 0.0<br/>samples = 3<br/>value = [3, 0]>, fillcolor="#e58139ff"] ;
24 -> 25 ;
26 [label=<umaban &le; 7.5<br/>gini = 0.375<br/>samples = 3<br/>value = [3, 1]>, fillcolor="#e58139aa"] ;
24 -> 26 ;
27 [label=<gini = 0.0<br/>samples = 2<br/>value = [3, 0]>, fillcolor="#e58139ff"] ;
26 -> 27 ;
28 [label=<gini = 0.0<br/>samples = 1<br/>value = [0, 1]>, fillcolor="#399de5ff"] ;
26 -> 28 ;
29 [label=<total_game &le; 27.5<br/>gini = 0.375<br/>samples = 32<br/>value = [36, 12]>, fillcolor="#e58139aa"] ;
15 -> 29 ;
30 [label=<age &le; 4.5<br/>gini = 0.314<br/>samples = 28<br/>value = [33, 8]>, fillcolor="#e58139c1"] ;
29 -> 30 ;
31 [label=<zougen &le; 1.0<br/>gini = 0.465<br/>samples = 15<br/>value = [12, 7]>, fillcolor="#e581396a"] ;
30 -> 31 ;
32 [label=<condition &le; 1.5<br/>gini = 0.444<br/>samples = 8<br/>value = [3, 6]>, fillcolor="#399de57f"] ;
31 -> 32 ;
33 [label=<win2 &le; 1.5<br/>gini = 0.245<br/>samples = 6<br/>value = [1, 6]>, fillcolor="#399de5d4"] ;
32 -> 33 ;
34 [label=<gini = 0.0<br/>samples = 1<br/>value = [1, 0]>, fillcolor="#e58139ff"] ;
33 -> 34 ;
35 [label=<gini = 0.0<br/>samples = 5<br/>value = [0, 6]>, fillcolor="#399de5ff"] ;
33 -> 35 ;
36 [label=<gini = 0.0<br/>samples = 2<br/>value = [2, 0]>, fillcolor="#e58139ff"] ;
32 -> 36 ;
37 [label=<past1_result &le; 2.0<br/>gini = 0.18<br/>samples = 7<br/>value = [9, 1]>, fillcolor="#e58139e3"] ;
31 -> 37 ;
38 [label=<total_game &le; 11.5<br/>gini = 0.444<br/>samples = 2<br/>value = [2, 1]>, fillcolor="#e581397f"] ;
37 -> 38 ;
39 [label=<gini = 0.0<br/>samples = 1<br/>value = [0, 1]>, fillcolor="#399de5ff"] ;
38 -> 39 ;
40 [label=<gini = 0.0<br/>samples = 1<br/>value = [2, 0]>, fillcolor="#e58139ff"] ;
38 -> 40 ;
41 [label=<gini = 0.0<br/>samples = 5<br/>value = [7, 0]>, fillcolor="#e58139ff"] ;
37 -> 41 ;
42 [label=<zougen &le; 3.0<br/>gini = 0.087<br/>samples = 13<br/>value = [21, 1]>, fillcolor="#e58139f3"] ;
30 -> 42 ;
43 [label=<gini = 0.0<br/>samples = 10<br/>value = [18, 0]>, fillcolor="#e58139ff"] ;
42 -> 43 ;
44 [label=<win2 &le; 4.0<br/>gini = 0.375<br/>samples = 3<br/>value = [3, 1]>, fillcolor="#e58139aa"] ;
42 -> 44 ;
45 [label=<gini = 0.0<br/>samples = 2<br/>value = [3, 0]>, fillcolor="#e58139ff"] ;
44 -> 45 ;
46 [label=<gini = 0.0<br/>samples = 1<br/>value = [0, 1]>, fillcolor="#399de5ff"] ;
44 -> 46 ;
47 [label=<umaban &le; 9.0<br/>gini = 0.49<br/>samples = 4<br/>value = [3, 4]>, fillcolor="#399de540"] ;
29 -> 47 ;
48 [label=<male &le; 0.5<br/>gini = 0.32<br/>samples = 3<br/>value = [1, 4]>, fillcolor="#399de5bf"] ;
47 -> 48 ;
49 [label=<gini = 0.0<br/>samples = 1<br/>value = [1, 0]>, fillcolor="#e58139ff"] ;
48 -> 49 ;
50 [label=<gini = 0.0<br/>samples = 2<br/>value = [0, 4]>, fillcolor="#399de5ff"] ;
48 -> 50 ;
51 [label=<gini = 0.0<br/>samples = 1<br/>value = [2, 0]>, fillcolor="#e58139ff"] ;
47 -> 51 ;
52 [label=<total_game &le; 15.5<br/>gini = 0.2<br/>samples = 41<br/>value = [63, 8]>, fillcolor="#e58139df"] ;
14 -> 52 ;
53 [label=<distance &le; 2100.0<br/>gini = 0.326<br/>samples = 23<br/>value = [31, 8]>, fillcolor="#e58139bd"] ;
52 -> 53 ;
54 [label=<past1_result &le; 1.5<br/>gini = 0.444<br/>samples = 14<br/>value = [16, 8]>, fillcolor="#e581397f"] ;
53 -> 54 ;
55 [label=<gini = 0.0<br/>samples = 3<br/>value = [0, 4]>, fillcolor="#399de5ff"] ;
54 -> 55 ;
56 [label=<frame_num &le; 2.5<br/>gini = 0.32<br/>samples = 11<br/>value = [16, 4]>, fillcolor="#e58139bf"] ;
54 -> 56 ;
57 [label=<umaban &le; 3.0<br/>gini = 0.5<br/>samples = 5<br/>value = [4, 4]>, fillcolor="#e5813900"] ;
56 -> 57 ;
58 [label=<jockey &le; 0.36<br/>gini = 0.444<br/>samples = 4<br/>value = [4, 2]>, fillcolor="#e581397f"] ;
57 -> 58 ;
59 [label=<gini = 0.0<br/>samples = 2<br/>value = [4, 0]>, fillcolor="#e58139ff"] ;
58 -> 59 ;
60 [label=<gini = 0.0<br/>samples = 2<br/>value = [0, 2]>, fillcolor="#399de5ff"] ;
58 -> 60 ;
61 [label=<gini = 0.0<br/>samples = 1<br/>value = [0, 2]>, fillcolor="#399de5ff"] ;
57 -> 61 ;
62 [label=<gini = 0.0<br/>samples = 6<br/>value = [12, 0]>, fillcolor="#e58139ff"] ;
56 -> 62 ;
63 [label=<gini = 0.0<br/>samples = 9<br/>value = [15, 0]>, fillcolor="#e58139ff"] ;
53 -> 63 ;
64 [label=<gini = 0.0<br/>samples = 18<br/>value = [32, 0]>, fillcolor="#e58139ff"] ;
52 -> 64 ;
}