digraph Tree {
node [shape=box, style="filled", color="black"] ;
0 [label=<horse_weight &le; 469.0<br/>gini = 0.226<br/>samples = 155<br/>value = [201, 30]>, fillcolor="#e58139d9"] ;
1 [label=<weight &le; 57.5<br/>gini = 0.056<br/>samples = 47<br/>value = [68, 2]>, fillcolor="#e58139f8"] ;
0 -> 1 [labeldistance=2.5, labelangle=45, headlabel="True"] ;
2 [label=<win1 &le; 6.5<br/>gini = 0.031<br/>samples = 43<br/>value = [63, 1]>, fillcolor="#e58139fb"] ;
1 -> 2 ;
3 [label=<gini = 0.0<br/>samples = 38<br/>value = [58, 0]>, fillcolor="#e58139ff"] ;
2 -> 3 ;
4 [label=<win3 &le; 1.5<br/>gini = 0.278<br/>samples = 5<br/>value = [5, 1]>, fillcolor="#e58139cc"] ;
2 -> 4 ;
5 [label=<total_game &le; 20.5<br/>gini = 0.5<br/>samples = 2<br/>value = [1, 1]>, fillcolor="#e5813900"] ;
4 -> 5 ;
6 [label=<gini = 0.0<br/>samples = 1<br/>value = [0, 1]>, fillcolor="#399de5ff"] ;
5 -> 6 ;
7 [label=<gini = 0.0<br/>samples = 1<br/>value = [1, 0]>, fillcolor="#e58139ff"] ;
5 -> 7 ;
8 [label=<gini = 0.0<br/>samples = 3<br/>value = [4, 0]>, fillcolor="#e58139ff"] ;
4 -> 8 ;
9 [label=<past1_result &le; 2.5<br/>gini = 0.278<br/>samples = 4<br/>value = [5, 1]>, fillcolor="#e58139cc"] ;
1 -> 9 ;
10 [label=<gini = 0.0<br/>samples = 1<br/>value = [0, 1]>, fillcolor="#399de5ff"] ;
9 -> 10 ;
11 [label=<gini = 0.0<br/>samples = 3<br/>value = [5, 0]>, fillcolor="#e58139ff"] ;
9 -> 11 ;
12 [label=<total_game &le; 13.5<br/>gini = 0.287<br/>samples = 108<br/>value = [133, 28]>, fillcolor="#e58139c9"] ;
0 -> 12 [labeldistance=2.5, labelangle=-45, headlabel="False"] ;
13 [label=<past1_result &le; 5.5<br/>gini = 0.41<br/>samples = 56<br/>value = [57, 23]>, fillcolor="#e5813998"] ;
12 -> 13 ;
14 [label=<win1 &le; 1.5<br/>gini = 0.464<br/>samples = 46<br/>value = [40, 23]>, fillcolor="#e581396c"] ;
13 -> 14 ;
15 [label=<gini = 0.0<br/>samples = 2<br/>value = [0, 3]>, fillcolor="#399de5ff"] ;
14 -> 15 ;
16 [label=<total_game &le; 9.5<br/>gini = 0.444<br/>samples = 44<br/>value = [40, 20]>, fillcolor="#e581397f"] ;
14 -> 16 ;
17 [label=<past2_result &le; 1.5<br/>gini = 0.381<br/>samples = 31<br/>value = [32, 11]>, fillcolor="#e58139a7"] ;
16 -> 17 ;
18 [label=<horse_weight &le; 476.0<br/>gini = 0.49<br/>samples = 16<br/>value = [12, 9]>, fillcolor="#e5813940"] ;
17 -> 18 ;
19 [label=<gini = 0.0<br/>samples = 2<br/>value = [3, 0]>, fillcolor="#e58139ff"] ;
18 -> 19 ;
20 [label=<frame_num &le; 3.5<br/>gini = 0.5<br/>samples = 14<br/>value = [9, 9]>, fillcolor="#e5813900"] ;
18 -> 20 ;
21 [label=<jockey &le; 0.271<br/>gini = 0.219<br/>samples = 6<br/>value = [7, 1]>, fillcolor="#e58139db"] ;
20 -> 21 ;
22 [label=<horse_weight &le; 496.0<br/>gini = 0.5<br/>samples = 2<br/>value = [1, 1]>, fillcolor="#e5813900"] ;
21 -> 22 ;
23 [label=<gini = 0.0<br/>samples = 1<br/>value = [0, 1]>, fillcolor="#399de5ff"] ;
22 -> 23 ;
24 [label=<gini = 0.0<br/>samples = 1<br/>value = [1, 0]>, fillcolor="#e58139ff"] ;
22 -> 24 ;
25 [label=<gini = 0.0<br/>samples = 4<br/>value = [6, 0]>, fillcolor="#e58139ff"] ;
21 -> 25 ;
26 [label=<umaban &le; 14.0<br/>gini = 0.32<br/>samples = 8<br/>value = [2, 8]>, fillcolor="#399de5bf"] ;
20 -> 26 ;
27 [label=<frame_num &le; 4.5<br/>gini = 0.198<br/>samples = 7<br/>value = [1, 8]>, fillcolor="#399de5df"] ;
26 -> 27 ;
28 [label=<total_game &le; 3.5<br/>gini = 0.444<br/>samples = 3<br/>value = [1, 2]>, fillcolor="#399de57f"] ;
27 -> 28 ;
29 [label=<gini = 0.0<br/>samples = 1<br/>value = [1, 0]>, fillcolor="#e58139ff"] ;
28 -> 29 ;
30 [label=<gini = 0.0<br/>samples = 2<br/>value = [0, 2]>, fillcolor="#399de5ff"] ;
28 -> 30 ;
31 [label=<gini = 0.0<br/>samples = 4<br/>value = [0, 6]>, fillcolor="#399de5ff"] ;
27 -> 31 ;
32 [label=<gini = 0.0<br/>samples = 1<br/>value = [1, 0]>, fillcolor="#e58139ff"] ;
26 -> 32 ;
33 [label=<zougen &le; -1.0<br/>gini = 0.165<br/>samples = 15<br/>value = [20, 2]>, fillcolor="#e58139e6"] ;
17 -> 33 ;
34 [label=<age &le; 3.5<br/>gini = 0.48<br/>samples = 4<br/>value = [3, 2]>, fillcolor="#e5813955"] ;
33 -> 34 ;
35 [label=<zougen &le; -3.0<br/>gini = 0.444<br/>samples = 3<br/>value = [1, 2]>, fillcolor="#399de57f"] ;
34 -> 35 ;
36 [label=<gini = 0.0<br/>samples = 1<br/>value = [1, 0]>, fillcolor="#e58139ff"] ;
35 -> 36 ;
37 [label=<gini = 0.0<br/>samples = 2<br/>value = [0, 2]>, fillcolor="#399de5ff"] ;
35 -> 37 ;
38 [label=<gini = 0.0<br/>samples = 1<br/>value = [2, 0]>, fillcolor="#e58139ff"] ;
34 -> 38 ;
39 [label=<gini = 0.0<br/>samples = 11<br/>value = [17, 0]>, fillcolor="#e58139ff"] ;
33 -> 39 ;
40 [label=<past1_result &le; 3.5<br/>gini = 0.498<br/>samples = 13<br/>value = [8, 9]>, fillcolor="#399de51c"] ;
16 -> 40 ;
41 [label=<zougen &le; -6.0<br/>gini = 0.444<br/>samples = 10<br/>value = [8, 4]>, fillcolor="#e581397f"] ;
40 -> 41 ;
42 [label=<gini = 0.0<br/>samples = 2<br/>value = [0, 3]>, fillcolor="#399de5ff"] ;
41 -> 42 ;
43 [label=<frame_num &le; 5.5<br/>gini = 0.198<br/>samples = 8<br/>value = [8, 1]>, fillcolor="#e58139df"] ;
41 -> 43 ;
44 [label=<gini = 0.0<br/>samples = 6<br/>value = [7, 0]>, fillcolor="#e58139ff"] ;
43 -> 44 ;
45 [label=<frame_num &le; 6.5<br/>gini = 0.5<br/>samples = 2<br/>value = [1, 1]>, fillcolor="#e5813900"] ;
43 -> 45 ;
46 [label=<gini = 0.0<br/>samples = 1<br/>value = [0, 1]>, fillcolor="#399de5ff"] ;
45 -> 46 ;
47 [label=<gini = 0.0<br/>samples = 1<br/>value = [1, 0]>, fillcolor="#e58139ff"] ;
45 -> 47 ;
48 [label=<gini = 0.0<br/>samples = 3<br/>value = [0, 5]>, fillcolor="#399de5ff"] ;
40 -> 48 ;
49 [label=<gini = 0.0<br/>samples = 10<br/>value = [17, 0]>, fillcolor="#e58139ff"] ;
13 -> 49 ;
50 [label=<weight &le; 55.5<br/>gini = 0.116<br/>samples = 52<br/>value = [76, 5]>, fillcolor="#e58139ee"] ;
12 -> 50 ;
51 [label=<frame_num &le; 4.5<br/>gini = 0.444<br/>samples = 5<br/>value = [4, 2]>, fillcolor="#e581397f"] ;
50 -> 51 ;
52 [label=<umaban &le; 6.5<br/>gini = 0.444<br/>samples = 3<br/>value = [1, 2]>, fillcolor="#399de57f"] ;
51 -> 52 ;
53 [label=<gini = 0.0<br/>samples = 1<br/>value = [1, 0]>, fillcolor="#e58139ff"] ;
52 -> 53 ;
54 [label=<gini = 0.0<br/>samples = 2<br/>value = [0, 2]>, fillcolor="#399de5ff"] ;
52 -> 54 ;
55 [label=<gini = 0.0<br/>samples = 2<br/>value = [3, 0]>, fillcolor="#e58139ff"] ;
51 -> 55 ;
56 [label=<past1_result &le; 4.5<br/>gini = 0.077<br/>samples = 47<br/>value = [72, 3]>, fillcolor="#e58139f4"] ;
50 -> 56 ;
57 [label=<condition &le; 1.5<br/>gini = 0.185<br/>samples = 20<br/>value = [26, 3]>, fillcolor="#e58139e2"] ;
56 -> 57 ;
58 [label=<distance &le; 2100.0<br/>gini = 0.074<br/>samples = 17<br/>value = [25, 1]>, fillcolor="#e58139f5"] ;
57 -> 58 ;
59 [label=<gini = 0.0<br/>samples = 13<br/>value = [22, 0]>, fillcolor="#e58139ff"] ;
58 -> 59 ;
60 [label=<win3 &le; 5.5<br/>gini = 0.375<br/>samples = 4<br/>value = [3, 1]>, fillcolor="#e58139aa"] ;
58 -> 60 ;
61 [label=<gini = 0.0<br/>samples = 3<br/>value = [3, 0]>, fillcolor="#e58139ff"] ;
60 -> 61 ;
62 [label=<gini = 0.0<br/>samples = 1<br/>value = [0, 1]>, fillcolor="#399de5ff"] ;
60 -> 62 ;
63 [label=<past2_result &le; 2.5<br/>gini = 0.444<br/>samples = 3<br/>value = [1, 2]>, fillcolor="#399de57f"] ;
57 -> 63 ;
64 [label=<gini = 0.0<br/>samples = 1<br/>value = [1, 0]>, fillcolor="#e58139ff"] ;
63 -> 64 ;
65 [label=<gini = 0.0<br/>samples = 2<br/>value = [0, 2]>, fillcolor="#399de5ff"] ;
63 -> 65 ;
66 [label=<gini = 0.0<br/>samples = 27<br/>value = [46, 0]>, fillcolor="#e58139ff"] ;
56 -> 66 ;
}