digraph Tree {
node [shape=box, style="filled", color="black"] ;
0 [label=<age &le; 4.5<br/>gini = 0.324<br/>samples = 151<br/>value = [184, 47]>, fillcolor="#e58139be"] ;
1 [label=<weight &le; 57.5<br/>gini = 0.4<br/>samples = 88<br/>value = [97, 37]>, fillcolor="#e581399e"] ;
0 -> 1 [labeldistance=2.5, labelangle=45, headlabel="True"] ;
2 [label=<jockey &le; 0.288<br/>gini = 0.377<br/>samples = 82<br/>value = [95, 32]>, fillcolor="#e58139a9"] ;
1 -> 2 ;
3 [label=<distance &le; 2450.0<br/>gini = 0.035<br/>samples = 34<br/>value = [55, 1]>, fillcolor="#e58139fa"] ;
2 -> 3 ;
4 [label=<gini = 0.0<br/>samples = 30<br/>value = [46, 0]>, fillcolor="#e58139ff"] ;
3 -> 4 ;
5 [label=<distance &le; 2750.0<br/>gini = 0.18<br/>samples = 4<br/>value = [9, 1]>, fillcolor="#e58139e3"] ;
3 -> 5 ;
6 [label=<gini = 0.0<br/>samples = 1<br/>value = [0, 1]>, fillcolor="#399de5ff"] ;
5 -> 6 ;
7 [label=<gini = 0.0<br/>samples = 3<br/>value = [9, 0]>, fillcolor="#e58139ff"] ;
5 -> 7 ;
8 [label=<past3_result &le; 2.5<br/>gini = 0.492<br/>samples = 48<br/>value = [40, 31]>, fillcolor="#e5813939"] ;
2 -> 8 ;
9 [label=<umaban &le; 8.5<br/>gini = 0.495<br/>samples = 31<br/>value = [22, 27]>, fillcolor="#399de52f"] ;
8 -> 9 ;
10 [label=<past2_result &le; 2.5<br/>gini = 0.472<br/>samples = 13<br/>value = [13, 8]>, fillcolor="#e5813962"] ;
9 -> 10 ;
11 [label=<gini = 0.0<br/>samples = 9<br/>value = [12, 0]>, fillcolor="#e58139ff"] ;
10 -> 11 ;
12 [label=<zougen &le; 2.0<br/>gini = 0.198<br/>samples = 4<br/>value = [1, 8]>, fillcolor="#399de5df"] ;
10 -> 12 ;
13 [label=<total_game &le; 6.5<br/>gini = 0.32<br/>samples = 3<br/>value = [1, 4]>, fillcolor="#399de5bf"] ;
12 -> 13 ;
14 [label=<gini = 0.0<br/>samples = 2<br/>value = [0, 4]>, fillcolor="#399de5ff"] ;
13 -> 14 ;
15 [label=<gini = 0.0<br/>samples = 1<br/>value = [1, 0]>, fillcolor="#e58139ff"] ;
13 -> 15 ;
16 [label=<gini = 0.0<br/>samples = 1<br/>value = [0, 4]>, fillcolor="#399de5ff"] ;
12 -> 16 ;
17 [label=<frame_num &le; 5.5<br/>gini = 0.436<br/>samples = 18<br/>value = [9, 19]>, fillcolor="#399de586"] ;
9 -> 17 ;
18 [label=<zougen &le; -2.0<br/>gini = 0.219<br/>samples = 4<br/>value = [1, 7]>, fillcolor="#399de5db"] ;
17 -> 18 ;
19 [label=<gini = 0.0<br/>samples = 1<br/>value = [1, 0]>, fillcolor="#e58139ff"] ;
18 -> 19 ;
20 [label=<gini = 0.0<br/>samples = 3<br/>value = [0, 7]>, fillcolor="#399de5ff"] ;
18 -> 20 ;
21 [label=<past3_result &le; 1.5<br/>gini = 0.48<br/>samples = 14<br/>value = [8, 12]>, fillcolor="#399de555"] ;
17 -> 21 ;
22 [label=<distance &le; 1800.0<br/>gini = 0.375<br/>samples = 9<br/>value = [3, 9]>, fillcolor="#399de5aa"] ;
21 -> 22 ;
23 [label=<gini = 0.0<br/>samples = 2<br/>value = [2, 0]>, fillcolor="#e58139ff"] ;
22 -> 23 ;
24 [label=<jockey &le; 0.34<br/>gini = 0.18<br/>samples = 7<br/>value = [1, 9]>, fillcolor="#399de5e3"] ;
22 -> 24 ;
25 [label=<gini = 0.0<br/>samples = 1<br/>value = [1, 0]>, fillcolor="#e58139ff"] ;
24 -> 25 ;
26 [label=<gini = 0.0<br/>samples = 6<br/>value = [0, 9]>, fillcolor="#399de5ff"] ;
24 -> 26 ;
27 [label=<distance &le; 1800.0<br/>gini = 0.469<br/>samples = 5<br/>value = [5, 3]>, fillcolor="#e5813966"] ;
21 -> 27 ;
28 [label=<gini = 0.0<br/>samples = 2<br/>value = [0, 3]>, fillcolor="#399de5ff"] ;
27 -> 28 ;
29 [label=<gini = 0.0<br/>samples = 3<br/>value = [5, 0]>, fillcolor="#e58139ff"] ;
27 -> 29 ;
30 [label=<female &le; 0.5<br/>gini = 0.298<br/>samples = 17<br/>value = [18, 4]>, fillcolor="#e58139c6"] ;
8 -> 30 ;
31 [label=<total_game &le; 7.5<br/>gini = 0.48<br/>samples = 9<br/>value = [6, 4]>, fillcolor="#e5813955"] ;
30 -> 31 ;
32 [label=<gini = 0.0<br/>samples = 3<br/>value = [4, 0]>, fillcolor="#e58139ff"] ;
31 -> 32 ;
33 [label=<win1 &le; 3.5<br/>gini = 0.444<br/>samples = 6<br/>value = [2, 4]>, fillcolor="#399de57f"] ;
31 -> 33 ;
34 [label=<umaban &le; 1.5<br/>gini = 0.444<br/>samples = 3<br/>value = [2, 1]>, fillcolor="#e581397f"] ;
33 -> 34 ;
35 [label=<gini = 0.0<br/>samples = 1<br/>value = [0, 1]>, fillcolor="#399de5ff"] ;
34 -> 35 ;
36 [label=<gini = 0.0<br/>samples = 2<br/>value = [2, 0]>, fillcolor="#e58139ff"] ;
34 -> 36 ;
37 [label=<gini = 0.0<br/>samples = 3<br/>value = [0, 3]>, fillcolor="#399de5ff"] ;
33 -> 37 ;
38 [label=<gini = 0.0<br/>samples = 8<br/>value = [12, 0]>, fillcolor="#e58139ff"] ;
30 -> 38 ;
39 [label=<zougen &le; -4.0<br/>gini = 0.408<br/>samples = 6<br/>value = [2, 5]>, fillcolor="#399de599"] ;
1 -> 39 ;
40 [label=<gini = 0.0<br/>samples = 3<br/>value = [0, 4]>, fillcolor="#399de5ff"] ;
39 -> 40 ;
41 [label=<past2_result &le; 4.0<br/>gini = 0.444<br/>samples = 3<br/>value = [2, 1]>, fillcolor="#e581397f"] ;
39 -> 41 ;
42 [label=<gini = 0.0<br/>samples = 1<br/>value = [0, 1]>, fillcolor="#399de5ff"] ;
41 -> 42 ;
43 [label=<gini = 0.0<br/>samples = 2<br/>value = [2, 0]>, fillcolor="#e58139ff"] ;
41 -> 43 ;
44 [label=<past3_result &le; 1.5<br/>gini = 0.185<br/>samples = 63<br/>value = [87, 10]>, fillcolor="#e58139e2"] ;
0 -> 44 [labeldistance=2.5, labelangle=-45, headlabel="False"] ;
45 [label=<win1 &le; 8.0<br/>gini = 0.444<br/>samples = 8<br/>value = [8, 4]>, fillcolor="#e581397f"] ;
44 -> 45 ;
46 [label=<gini = 0.0<br/>samples = 4<br/>value = [6, 0]>, fillcolor="#e58139ff"] ;
45 -> 46 ;
47 [label=<frame_num &le; 2.0<br/>gini = 0.444<br/>samples = 4<br/>value = [2, 4]>, fillcolor="#399de57f"] ;
45 -> 47 ;
48 [label=<gini = 0.0<br/>samples = 1<br/>value = [1, 0]>, fillcolor="#e58139ff"] ;
47 -> 48 ;
49 [label=<weight &le; 57.5<br/>gini = 0.32<br/>samples = 3<br/>value = [1, 4]>, fillcolor="#399de5bf"] ;
47 -> 49 ;
50 [label=<gini = 0.0<br/>samples = 2<br/>value = [0, 4]>, fillcolor="#399de5ff"] ;
49 -> 50 ;
51 [label=<gini = 0.0<br/>samples = 1<br/>value = [1, 0]>, fillcolor="#e58139ff"] ;
49 -> 51 ;
52 [label=<umaban &le; 8.5<br/>gini = 0.131<br/>samples = 55<br/>value = [79, 6]>, fillcolor="#e58139ec"] ;
44 -> 52 ;
53 [label=<horse_weight &le; 450.0<br/>gini = 0.038<br/>samples = 32<br/>value = [51, 1]>, fillcolor="#e58139fa"] ;
52 -> 53 ;
54 [label=<win2 &le; 4.5<br/>gini = 0.32<br/>samples = 3<br/>value = [4, 1]>, fillcolor="#e58139bf"] ;
53 -> 54 ;
55 [label=<gini = 0.0<br/>samples = 2<br/>value = [4, 0]>, fillcolor="#e58139ff"] ;
54 -> 55 ;
56 [label=<gini = 0.0<br/>samples = 1<br/>value = [0, 1]>, fillcolor="#399de5ff"] ;
54 -> 56 ;
57 [label=<gini = 0.0<br/>samples = 29<br/>value = [47, 0]>, fillcolor="#e58139ff"] ;
53 -> 57 ;
58 [label=<horse_weight &le; 452.0<br/>gini = 0.257<br/>samples = 23<br/>value = [28, 5]>, fillcolor="#e58139d1"] ;
52 -> 58 ;
59 [label=<jockey &le; 0.34<br/>gini = 0.444<br/>samples = 4<br/>value = [2, 4]>, fillcolor="#399de57f"] ;
58 -> 59 ;
60 [label=<gini = 0.0<br/>samples = 2<br/>value = [0, 4]>, fillcolor="#399de5ff"] ;
59 -> 60 ;
61 [label=<gini = 0.0<br/>samples = 2<br/>value = [2, 0]>, fillcolor="#e58139ff"] ;
59 -> 61 ;
62 [label=<total_game &le; 15.5<br/>gini = 0.071<br/>samples = 19<br/>value = [26, 1]>, fillcolor="#e58139f5"] ;
58 -> 62 ;
63 [label=<win2 &le; 1.5<br/>gini = 0.5<br/>samples = 2<br/>value = [1, 1]>, fillcolor="#e5813900"] ;
62 -> 63 ;
64 [label=<gini = 0.0<br/>samples = 1<br/>value = [1, 0]>, fillcolor="#e58139ff"] ;
63 -> 64 ;
65 [label=<gini = 0.0<br/>samples = 1<br/>value = [0, 1]>, fillcolor="#399de5ff"] ;
63 -> 65 ;
66 [label=<gini = 0.0<br/>samples = 17<br/>value = [25, 0]>, fillcolor="#e58139ff"] ;
62 -> 66 ;
}