digraph Tree {
node [shape=box, style="filled", color="black"] ;
0 [label=<total_game &le; 13.5<br/>gini = 0.314<br/>samples = 151<br/>value = [186, 45]>, fillcolor="#e58139c1"] ;
1 [label=<jockey &le; 0.312<br/>gini = 0.426<br/>samples = 90<br/>value = [92, 41]>, fillcolor="#e581398d"] ;
0 -> 1 [labeldistance=2.5, labelangle=45, headlabel="True"] ;
2 [label=<horse_weight &le; 533.0<br/>gini = 0.121<br/>samples = 42<br/>value = [58, 4]>, fillcolor="#e58139ed"] ;
1 -> 2 ;
3 [label=<win2 &le; 2.5<br/>gini = 0.094<br/>samples = 41<br/>value = [58, 3]>, fillcolor="#e58139f2"] ;
2 -> 3 ;
4 [label=<frame_num &le; 1.5<br/>gini = 0.034<br/>samples = 39<br/>value = [56, 1]>, fillcolor="#e58139fa"] ;
3 -> 4 ;
5 [label=<past1_result &le; 2.5<br/>gini = 0.245<br/>samples = 6<br/>value = [6, 1]>, fillcolor="#e58139d4"] ;
4 -> 5 ;
6 [label=<gini = 0.0<br/>samples = 1<br/>value = [0, 1]>, fillcolor="#399de5ff"] ;
5 -> 6 ;
7 [label=<gini = 0.0<br/>samples = 5<br/>value = [6, 0]>, fillcolor="#e58139ff"] ;
5 -> 7 ;
8 [label=<gini = 0.0<br/>samples = 33<br/>value = [50, 0]>, fillcolor="#e58139ff"] ;
4 -> 8 ;
9 [label=<age &le; 4.0<br/>gini = 0.5<br/>samples = 2<br/>value = [2, 2]>, fillcolor="#e5813900"] ;
3 -> 9 ;
10 [label=<gini = 0.0<br/>samples = 1<br/>value = [0, 2]>, fillcolor="#399de5ff"] ;
9 -> 10 ;
11 [label=<gini = 0.0<br/>samples = 1<br/>value = [2, 0]>, fillcolor="#e58139ff"] ;
9 -> 11 ;
12 [label=<gini = 0.0<br/>samples = 1<br/>value = [0, 1]>, fillcolor="#399de5ff"] ;
2 -> 12 ;
13 [label=<horse_weight &le; 461.0<br/>gini = 0.499<br/>samples = 48<br/>value = [34, 37]>, fillcolor="#399de515"] ;
1 -> 13 ;
14 [label=<past1_result &le; 6.0<br/>gini = 0.32<br/>samples = 11<br/>value = [12, 3]>, fillcolor="#e58139bf"] ;
13 -> 14 ;
15 [label=<past3_result &le; 1.5<br/>gini = 0.245<br/>samples = 10<br/>value = [12, 2]>, fillcolor="#e58139d4"] ;
14 -> 15 ;
16 [label=<frame_num &le; 7.5<br/>gini = 0.5<br/>samples = 3<br/>value = [2, 2]>, fillcolor="#e5813900"] ;
15 -> 16 ;
17 [label=<gini = 0.0<br/>samples = 2<br/>value = [0, 2]>, fillcolor="#399de5ff"] ;
16 -> 17 ;
18 [label=<gini = 0.0<br/>samples = 1<br/>value = [2, 0]>, fillcolor="#e58139ff"] ;
16 -> 18 ;
19 [label=<gini = 0.0<br/>samples = 7<br/>value = [10, 0]>, fillcolor="#e58139ff"] ;
15 -> 19 ;
20 [label=<gini = 0.0<br/>samples = 1<br/>value = [0, 1]>, fillcolor="#399de5ff"] ;
14 -> 20 ;
21 [label=<past1_result &le; 6.0<br/>gini = 0.477<br/>samples = 37<br/>value = [22, 34]>, fillcolor="#399de55a"] ;
13 -> 21 ;
22 [label=<zougen &le; 1.0<br/>gini = 0.44<br/>samples = 31<br/>value = [16, 33]>, fillcolor="#399de583"] ;
21 -> 22 ;
23 [label=<total_game &le; 4.5<br/>gini = 0.252<br/>samples = 15<br/>value = [4, 23]>, fillcolor="#399de5d3"] ;
22 -> 23 ;
24 [label=<win1 &le; 3.5<br/>gini = 0.48<br/>samples = 6<br/>value = [4, 6]>, fillcolor="#399de555"] ;
23 -> 24 ;
25 [label=<umaban &le; 13.5<br/>gini = 0.375<br/>samples = 5<br/>value = [2, 6]>, fillcolor="#399de5aa"] ;
24 -> 25 ;
26 [label=<gini = 0.0<br/>samples = 3<br/>value = [0, 6]>, fillcolor="#399de5ff"] ;
25 -> 26 ;
27 [label=<gini = 0.0<br/>samples = 2<br/>value = [2, 0]>, fillcolor="#e58139ff"] ;
25 -> 27 ;
28 [label=<gini = 0.0<br/>samples = 1<br/>value = [2, 0]>, fillcolor="#e58139ff"] ;
24 -> 28 ;
29 [label=<gini = 0.0<br/>samples = 9<br/>value = [0, 17]>, fillcolor="#399de5ff"] ;
23 -> 29 ;
30 [label=<past2_result &le; 5.5<br/>gini = 0.496<br/>samples = 16<br/>value = [12, 10]>, fillcolor="#e581392a"] ;
22 -> 30 ;
31 [label=<frame_num &le; 5.5<br/>gini = 0.444<br/>samples = 14<br/>value = [12, 6]>, fillcolor="#e581397f"] ;
30 -> 31 ;
32 [label=<umaban &le; 4.0<br/>gini = 0.298<br/>samples = 8<br/>value = [9, 2]>, fillcolor="#e58139c6"] ;
31 -> 32 ;
33 [label=<age &le; 3.5<br/>gini = 0.5<br/>samples = 2<br/>value = [1, 1]>, fillcolor="#e5813900"] ;
32 -> 33 ;
34 [label=<gini = 0.0<br/>samples = 1<br/>value = [1, 0]>, fillcolor="#e58139ff"] ;
33 -> 34 ;
35 [label=<gini = 0.0<br/>samples = 1<br/>value = [0, 1]>, fillcolor="#399de5ff"] ;
33 -> 35 ;
36 [label=<age &le; 3.5<br/>gini = 0.198<br/>samples = 6<br/>value = [8, 1]>, fillcolor="#e58139df"] ;
32 -> 36 ;
37 [label=<umaban &le; 7.0<br/>gini = 0.32<br/>samples = 3<br/>value = [4, 1]>, fillcolor="#e58139bf"] ;
36 -> 37 ;
38 [label=<gini = 0.0<br/>samples = 2<br/>value = [4, 0]>, fillcolor="#e58139ff"] ;
37 -> 38 ;
39 [label=<gini = 0.0<br/>samples = 1<br/>value = [0, 1]>, fillcolor="#399de5ff"] ;
37 -> 39 ;
40 [label=<gini = 0.0<br/>samples = 3<br/>value = [4, 0]>, fillcolor="#e58139ff"] ;
36 -> 40 ;
41 [label=<win2 &le; 1.5<br/>gini = 0.49<br/>samples = 6<br/>value = [3, 4]>, fillcolor="#399de540"] ;
31 -> 41 ;
42 [label=<jockey &le; 0.433<br/>gini = 0.32<br/>samples = 4<br/>value = [1, 4]>, fillcolor="#399de5bf"] ;
41 -> 42 ;
43 [label=<gini = 0.0<br/>samples = 1<br/>value = [1, 0]>, fillcolor="#e58139ff"] ;
42 -> 43 ;
44 [label=<gini = 0.0<br/>samples = 3<br/>value = [0, 4]>, fillcolor="#399de5ff"] ;
42 -> 44 ;
45 [label=<gini = 0.0<br/>samples = 2<br/>value = [2, 0]>, fillcolor="#e58139ff"] ;
41 -> 45 ;
46 [label=<gini = 0.0<br/>samples = 2<br/>value = [0, 4]>, fillcolor="#399de5ff"] ;
30 -> 46 ;
47 [label=<past3_result &le; 1.5<br/>gini = 0.245<br/>samples = 6<br/>value = [6, 1]>, fillcolor="#e58139d4"] ;
21 -> 47 ;
48 [label=<horse_weight &le; 491.0<br/>gini = 0.5<br/>samples = 2<br/>value = [1, 1]>, fillcolor="#e5813900"] ;
47 -> 48 ;
49 [label=<gini = 0.0<br/>samples = 1<br/>value = [1, 0]>, fillcolor="#e58139ff"] ;
48 -> 49 ;
50 [label=<gini = 0.0<br/>samples = 1<br/>value = [0, 1]>, fillcolor="#399de5ff"] ;
48 -> 50 ;
51 [label=<gini = 0.0<br/>samples = 4<br/>value = [5, 0]>, fillcolor="#e58139ff"] ;
47 -> 51 ;
52 [label=<horse_weight &le; 475.0<br/>gini = 0.078<br/>samples = 61<br/>value = [94, 4]>, fillcolor="#e58139f4"] ;
0 -> 52 [labeldistance=2.5, labelangle=-45, headlabel="False"] ;
53 [label=<female &le; 0.5<br/>gini = 0.184<br/>samples = 23<br/>value = [35, 4]>, fillcolor="#e58139e2"] ;
52 -> 53 ;
54 [label=<distance &le; 2850.0<br/>gini = 0.298<br/>samples = 15<br/>value = [18, 4]>, fillcolor="#e58139c6"] ;
53 -> 54 ;
55 [label=<gini = 0.0<br/>samples = 11<br/>value = [16, 0]>, fillcolor="#e58139ff"] ;
54 -> 55 ;
56 [label=<win1 &le; 8.0<br/>gini = 0.444<br/>samples = 4<br/>value = [2, 4]>, fillcolor="#399de57f"] ;
54 -> 56 ;
57 [label=<past2_result &le; 11.5<br/>gini = 0.32<br/>samples = 3<br/>value = [1, 4]>, fillcolor="#399de5bf"] ;
56 -> 57 ;
58 [label=<gini = 0.0<br/>samples = 2<br/>value = [0, 4]>, fillcolor="#399de5ff"] ;
57 -> 58 ;
59 [label=<gini = 0.0<br/>samples = 1<br/>value = [1, 0]>, fillcolor="#e58139ff"] ;
57 -> 59 ;
60 [label=<gini = 0.0<br/>samples = 1<br/>value = [1, 0]>, fillcolor="#e58139ff"] ;
56 -> 60 ;
61 [label=<gini = 0.0<br/>samples = 8<br/>value = [17, 0]>, fillcolor="#e58139ff"] ;
53 -> 61 ;
62 [label=<gini = 0.0<br/>samples = 38<br/>value = [59, 0]>, fillcolor="#e58139ff"] ;
52 -> 62 ;
}