digraph Tree {
node [shape=box, style="filled", color="black"] ;
0 [label=<win1 &le; 4.5<br/>gini = 0.344<br/>samples = 148<br/>value = [180, 51]>, fillcolor="#e58139b7"] ;
1 [label=<weight &le; 57.5<br/>gini = 0.415<br/>samples = 91<br/>value = [106, 44]>, fillcolor="#e5813995"] ;
0 -> 1 [labeldistance=2.5, labelangle=45, headlabel="True"] ;
2 [label=<jockey &le; 0.43<br/>gini = 0.379<br/>samples = 85<br/>value = [103, 35]>, fillcolor="#e58139a8"] ;
1 -> 2 ;
3 [label=<past1_result &le; 5.5<br/>gini = 0.261<br/>samples = 66<br/>value = [93, 17]>, fillcolor="#e58139d0"] ;
2 -> 3 ;
4 [label=<win1 &le; 3.5<br/>gini = 0.379<br/>samples = 43<br/>value = [50, 17]>, fillcolor="#e58139a8"] ;
3 -> 4 ;
5 [label=<jockey &le; 0.271<br/>gini = 0.278<br/>samples = 32<br/>value = [40, 8]>, fillcolor="#e58139cc"] ;
4 -> 5 ;
6 [label=<gini = 0.0<br/>samples = 12<br/>value = [14, 0]>, fillcolor="#e58139ff"] ;
5 -> 6 ;
7 [label=<distance &le; 1400.0<br/>gini = 0.36<br/>samples = 20<br/>value = [26, 8]>, fillcolor="#e58139b1"] ;
5 -> 7 ;
8 [label=<gini = 0.0<br/>samples = 2<br/>value = [0, 3]>, fillcolor="#399de5ff"] ;
7 -> 8 ;
9 [label=<jockey &le; 0.329<br/>gini = 0.271<br/>samples = 18<br/>value = [26, 5]>, fillcolor="#e58139ce"] ;
7 -> 9 ;
10 [label=<gini = 0.0<br/>samples = 10<br/>value = [14, 0]>, fillcolor="#e58139ff"] ;
9 -> 10 ;
11 [label=<zougen &le; 1.0<br/>gini = 0.415<br/>samples = 8<br/>value = [12, 5]>, fillcolor="#e5813995"] ;
9 -> 11 ;
12 [label=<male &le; 0.5<br/>gini = 0.408<br/>samples = 5<br/>value = [2, 5]>, fillcolor="#399de599"] ;
11 -> 12 ;
13 [label=<distance &le; 1800.0<br/>gini = 0.444<br/>samples = 3<br/>value = [2, 1]>, fillcolor="#e581397f"] ;
12 -> 13 ;
14 [label=<gini = 0.0<br/>samples = 2<br/>value = [2, 0]>, fillcolor="#e58139ff"] ;
13 -> 14 ;
15 [label=<gini = 0.0<br/>samples = 1<br/>value = [0, 1]>, fillcolor="#399de5ff"] ;
13 -> 15 ;
16 [label=<gini = 0.0<br/>samples = 2<br/>value = [0, 4]>, fillcolor="#399de5ff"] ;
12 -> 16 ;
17 [label=<gini = 0.0<br/>samples = 3<br/>value = [10, 0]>, fillcolor="#e58139ff"] ;
11 -> 17 ;
18 [label=<umaban &le; 2.5<br/>gini = 0.499<br/>samples = 11<br/>value = [10, 9]>, fillcolor="#e5813919"] ;
4 -> 18 ;
19 [label=<gini = 0.0<br/>samples = 2<br/>value = [0, 5]>, fillcolor="#399de5ff"] ;
18 -> 19 ;
20 [label=<frame_num &le; 5.5<br/>gini = 0.408<br/>samples = 9<br/>value = [10, 4]>, fillcolor="#e5813999"] ;
18 -> 20 ;
21 [label=<umaban &le; 4.5<br/>gini = 0.494<br/>samples = 6<br/>value = [5, 4]>, fillcolor="#e5813933"] ;
20 -> 21 ;
22 [label=<gini = 0.0<br/>samples = 2<br/>value = [4, 0]>, fillcolor="#e58139ff"] ;
21 -> 22 ;
23 [label=<past3_result &le; 3.0<br/>gini = 0.32<br/>samples = 4<br/>value = [1, 4]>, fillcolor="#399de5bf"] ;
21 -> 23 ;
24 [label=<gini = 0.0<br/>samples = 1<br/>value = [1, 0]>, fillcolor="#e58139ff"] ;
23 -> 24 ;
25 [label=<gini = 0.0<br/>samples = 3<br/>value = [0, 4]>, fillcolor="#399de5ff"] ;
23 -> 25 ;
26 [label=<gini = 0.0<br/>samples = 3<br/>value = [5, 0]>, fillcolor="#e58139ff"] ;
20 -> 26 ;
27 [label=<gini = 0.0<br/>samples = 23<br/>value = [43, 0]>, fillcolor="#e58139ff"] ;
3 -> 27 ;
28 [label=<umaban &le; 13.5<br/>gini = 0.459<br/>samples = 19<br/>value = [10, 18]>, fillcolor="#399de571"] ;
2 -> 28 ;
29 [label=<condition &le; 1.5<br/>gini = 0.363<br/>samples = 15<br/>value = [5, 16]>, fillcolor="#399de5af"] ;
28 -> 29 ;
30 [label=<win2 &le; 0.5<br/>gini = 0.266<br/>samples = 13<br/>value = [3, 16]>, fillcolor="#399de5cf"] ;
29 -> 30 ;
31 [label=<gini = 0.0<br/>samples = 3<br/>value = [3, 0]>, fillcolor="#e58139ff"] ;
30 -> 31 ;
32 [label=<gini = 0.0<br/>samples = 10<br/>value = [0, 16]>, fillcolor="#399de5ff"] ;
30 -> 32 ;
33 [label=<gini = 0.0<br/>samples = 2<br/>value = [2, 0]>, fillcolor="#e58139ff"] ;
29 -> 33 ;
34 [label=<jockey &le; 0.529<br/>gini = 0.408<br/>samples = 4<br/>value = [5, 2]>, fillcolor="#e5813999"] ;
28 -> 34 ;
35 [label=<gini = 0.0<br/>samples = 2<br/>value = [4, 0]>, fillcolor="#e58139ff"] ;
34 -> 35 ;
36 [label=<zougen &le; -3.0<br/>gini = 0.444<br/>samples = 2<br/>value = [1, 2]>, fillcolor="#399de57f"] ;
34 -> 36 ;
37 [label=<gini = 0.0<br/>samples = 1<br/>value = [0, 2]>, fillcolor="#399de5ff"] ;
36 -> 37 ;
38 [label=<gini = 0.0<br/>samples = 1<br/>value = [1, 0]>, fillcolor="#e58139ff"] ;
36 -> 38 ;
39 [label=<zougen &le; -1.0<br/>gini = 0.375<br/>samples = 6<br/>value = [3, 9]>, fillcolor="#399de5aa"] ;
1 -> 39 ;
40 [label=<gini = 0.0<br/>samples = 3<br/>value = [0, 9]>, fillcolor="#399de5ff"] ;
39 -> 40 ;
41 [label=<gini = 0.0<br/>samples = 3<br/>value = [3, 0]>, fillcolor="#e58139ff"] ;
39 -> 41 ;
42 [label=<jockey &le; 0.552<br/>gini = 0.158<br/>samples = 57<br/>value = [74, 7]>, fillcolor="#e58139e7"] ;
0 -> 42 [labeldistance=2.5, labelangle=-45, headlabel="False"] ;
43 [label=<win1 &le; 10.5<br/>gini = 0.097<br/>samples = 55<br/>value = [74, 4]>, fillcolor="#e58139f1"] ;
42 -> 43 ;
44 [label=<win3 &le; 5.5<br/>gini = 0.077<br/>samples = 52<br/>value = [72, 3]>, fillcolor="#e58139f4"] ;
43 -> 44 ;
45 [label=<win1 &le; 8.5<br/>gini = 0.032<br/>samples = 44<br/>value = [61, 1]>, fillcolor="#e58139fb"] ;
44 -> 45 ;
46 [label=<gini = 0.0<br/>samples = 37<br/>value = [53, 0]>, fillcolor="#e58139ff"] ;
45 -> 46 ;
47 [label=<jockey &le; 0.43<br/>gini = 0.198<br/>samples = 7<br/>value = [8, 1]>, fillcolor="#e58139df"] ;
45 -> 47 ;
48 [label=<gini = 0.0<br/>samples = 5<br/>value = [7, 0]>, fillcolor="#e58139ff"] ;
47 -> 48 ;
49 [label=<win3 &le; 3.0<br/>gini = 0.5<br/>samples = 2<br/>value = [1, 1]>, fillcolor="#e5813900"] ;
47 -> 49 ;
50 [label=<gini = 0.0<br/>samples = 1<br/>value = [0, 1]>, fillcolor="#399de5ff"] ;
49 -> 50 ;
51 [label=<gini = 0.0<br/>samples = 1<br/>value = [1, 0]>, fillcolor="#e58139ff"] ;
49 -> 51 ;
52 [label=<umaban &le; 3.0<br/>gini = 0.26<br/>samples = 8<br/>value = [11, 2]>, fillcolor="#e58139d1"] ;
44 -> 52 ;
53 [label=<gini = 0.0<br/>samples = 1<br/>value = [0, 1]>, fillcolor="#399de5ff"] ;
52 -> 53 ;
54 [label=<distance &le; 2800.0<br/>gini = 0.153<br/>samples = 7<br/>value = [11, 1]>, fillcolor="#e58139e8"] ;
52 -> 54 ;
55 [label=<gini = 0.0<br/>samples = 6<br/>value = [11, 0]>, fillcolor="#e58139ff"] ;
54 -> 55 ;
56 [label=<gini = 0.0<br/>samples = 1<br/>value = [0, 1]>, fillcolor="#399de5ff"] ;
54 -> 56 ;
57 [label=<win1 &le; 11.5<br/>gini = 0.444<br/>samples = 3<br/>value = [2, 1]>, fillcolor="#e581397f"] ;
43 -> 57 ;
58 [label=<gini = 0.0<br/>samples = 1<br/>value = [0, 1]>, fillcolor="#399de5ff"] ;
57 -> 58 ;
59 [label=<gini = 0.0<br/>samples = 2<br/>value = [2, 0]>, fillcolor="#e58139ff"] ;
57 -> 59 ;
60 [label=<gini = 0.0<br/>samples = 2<br/>value = [0, 3]>, fillcolor="#399de5ff"] ;
42 -> 60 ;
}