digraph Tree {
node [shape=box, style="filled", color="black"] ;
0 [label=<jockey &le; 0.54<br/>gini = 0.232<br/>samples = 141<br/>value = [200, 31]>, fillcolor="#e58139d7"] ;
1 [label=<distance &le; 3100.0<br/>gini = 0.167<br/>samples = 128<br/>value = [188, 19]>, fillcolor="#e58139e5"] ;
0 -> 1 [labeldistance=2.5, labelangle=45, headlabel="True"] ;
2 [label=<umaban &le; 2.5<br/>gini = 0.147<br/>samples = 123<br/>value = [184, 16]>, fillcolor="#e58139e9"] ;
1 -> 2 ;
3 [label=<past1_result &le; 2.5<br/>gini = 0.42<br/>samples = 14<br/>value = [14, 6]>, fillcolor="#e5813992"] ;
2 -> 3 ;
4 [label=<jockey &le; 0.324<br/>gini = 0.375<br/>samples = 6<br/>value = [2, 6]>, fillcolor="#399de5aa"] ;
3 -> 4 ;
5 [label=<gini = 0.0<br/>samples = 3<br/>value = [0, 5]>, fillcolor="#399de5ff"] ;
4 -> 5 ;
6 [label=<weight &le; 57.5<br/>gini = 0.444<br/>samples = 3<br/>value = [2, 1]>, fillcolor="#e581397f"] ;
4 -> 6 ;
7 [label=<gini = 0.0<br/>samples = 2<br/>value = [2, 0]>, fillcolor="#e58139ff"] ;
6 -> 7 ;
8 [label=<gini = 0.0<br/>samples = 1<br/>value = [0, 1]>, fillcolor="#399de5ff"] ;
6 -> 8 ;
9 [label=<gini = 0.0<br/>samples = 8<br/>value = [12, 0]>, fillcolor="#e58139ff"] ;
3 -> 9 ;
10 [label=<past3_result &le; 1.5<br/>gini = 0.105<br/>samples = 109<br/>value = [170, 10]>, fillcolor="#e58139f0"] ;
2 -> 10 ;
11 [label=<win2 &le; 7.0<br/>gini = 0.183<br/>samples = 40<br/>value = [53, 6]>, fillcolor="#e58139e2"] ;
10 -> 11 ;
12 [label=<female &le; 0.5<br/>gini = 0.158<br/>samples = 39<br/>value = [53, 5]>, fillcolor="#e58139e7"] ;
11 -> 12 ;
13 [label=<weight &le; 57.5<br/>gini = 0.257<br/>samples = 23<br/>value = [28, 5]>, fillcolor="#e58139d1"] ;
12 -> 13 ;
14 [label=<horse_weight &le; 517.0<br/>gini = 0.311<br/>samples = 18<br/>value = [21, 5]>, fillcolor="#e58139c2"] ;
13 -> 14 ;
15 [label=<horse_weight &le; 507.0<br/>gini = 0.388<br/>samples = 15<br/>value = [14, 5]>, fillcolor="#e58139a4"] ;
14 -> 15 ;
16 [label=<win3 &le; 3.0<br/>gini = 0.346<br/>samples = 14<br/>value = [14, 4]>, fillcolor="#e58139b6"] ;
15 -> 16 ;
17 [label=<jockey &le; 0.308<br/>gini = 0.426<br/>samples = 11<br/>value = [9, 4]>, fillcolor="#e581398e"] ;
16 -> 17 ;
18 [label=<gini = 0.0<br/>samples = 4<br/>value = [6, 0]>, fillcolor="#e58139ff"] ;
17 -> 18 ;
19 [label=<zougen &le; -7.0<br/>gini = 0.49<br/>samples = 7<br/>value = [3, 4]>, fillcolor="#399de540"] ;
17 -> 19 ;
20 [label=<gini = 0.0<br/>samples = 1<br/>value = [1, 0]>, fillcolor="#e58139ff"] ;
19 -> 20 ;
21 [label=<total_game &le; 3.0<br/>gini = 0.444<br/>samples = 6<br/>value = [2, 4]>, fillcolor="#399de57f"] ;
19 -> 21 ;
22 [label=<gini = 0.0<br/>samples = 1<br/>value = [1, 0]>, fillcolor="#e58139ff"] ;
21 -> 22 ;
23 [label=<distance &le; 2700.0<br/>gini = 0.32<br/>samples = 5<br/>value = [1, 4]>, fillcolor="#399de5bf"] ;
21 -> 23 ;
24 [label=<gini = 0.0<br/>samples = 4<br/>value = [0, 4]>, fillcolor="#399de5ff"] ;
23 -> 24 ;
25 [label=<gini = 0.0<br/>samples = 1<br/>value = [1, 0]>, fillcolor="#e58139ff"] ;
23 -> 25 ;
26 [label=<gini = 0.0<br/>samples = 3<br/>value = [5, 0]>, fillcolor="#e58139ff"] ;
16 -> 26 ;
27 [label=<gini = 0.0<br/>samples = 1<br/>value = [0, 1]>, fillcolor="#399de5ff"] ;
15 -> 27 ;
28 [label=<gini = 0.0<br/>samples = 3<br/>value = [7, 0]>, fillcolor="#e58139ff"] ;
14 -> 28 ;
29 [label=<gini = 0.0<br/>samples = 5<br/>value = [7, 0]>, fillcolor="#e58139ff"] ;
13 -> 29 ;
30 [label=<gini = 0.0<br/>samples = 16<br/>value = [25, 0]>, fillcolor="#e58139ff"] ;
12 -> 30 ;
31 [label=<gini = 0.0<br/>samples = 1<br/>value = [0, 1]>, fillcolor="#399de5ff"] ;
11 -> 31 ;
32 [label=<zougen &le; -5.0<br/>gini = 0.064<br/>samples = 69<br/>value = [117, 4]>, fillcolor="#e58139f6"] ;
10 -> 32 ;
33 [label=<past2_result &le; 6.0<br/>gini = 0.227<br/>samples = 11<br/>value = [20, 3]>, fillcolor="#e58139d9"] ;
32 -> 33 ;
34 [label=<gini = 0.0<br/>samples = 7<br/>value = [15, 0]>, fillcolor="#e58139ff"] ;
33 -> 34 ;
35 [label=<past3_result &le; 10.5<br/>gini = 0.469<br/>samples = 4<br/>value = [5, 3]>, fillcolor="#e5813966"] ;
33 -> 35 ;
36 [label=<gini = 0.0<br/>samples = 2<br/>value = [0, 3]>, fillcolor="#399de5ff"] ;
35 -> 36 ;
37 [label=<gini = 0.0<br/>samples = 2<br/>value = [5, 0]>, fillcolor="#e58139ff"] ;
35 -> 37 ;
38 [label=<umaban &le; 3.5<br/>gini = 0.02<br/>samples = 58<br/>value = [97, 1]>, fillcolor="#e58139fc"] ;
32 -> 38 ;
39 [label=<zougen &le; 7.0<br/>gini = 0.124<br/>samples = 8<br/>value = [14, 1]>, fillcolor="#e58139ed"] ;
38 -> 39 ;
40 [label=<gini = 0.0<br/>samples = 7<br/>value = [14, 0]>, fillcolor="#e58139ff"] ;
39 -> 40 ;
41 [label=<gini = 0.0<br/>samples = 1<br/>value = [0, 1]>, fillcolor="#399de5ff"] ;
39 -> 41 ;
42 [label=<gini = 0.0<br/>samples = 50<br/>value = [83, 0]>, fillcolor="#e58139ff"] ;
38 -> 42 ;
43 [label=<total_game &le; 27.0<br/>gini = 0.49<br/>samples = 5<br/>value = [4, 3]>, fillcolor="#e5813940"] ;
1 -> 43 ;
44 [label=<gini = 0.0<br/>samples = 2<br/>value = [0, 3]>, fillcolor="#399de5ff"] ;
43 -> 44 ;
45 [label=<gini = 0.0<br/>samples = 3<br/>value = [4, 0]>, fillcolor="#e58139ff"] ;
43 -> 45 ;
46 [label=<past2_result &le; 1.5<br/>gini = 0.5<br/>samples = 13<br/>value = [12, 12]>, fillcolor="#e5813900"] ;
0 -> 46 [labeldistance=2.5, labelangle=-45, headlabel="False"] ;
47 [label=<umaban &le; 14.0<br/>gini = 0.245<br/>samples = 4<br/>value = [1, 6]>, fillcolor="#399de5d4"] ;
46 -> 47 ;
48 [label=<gini = 0.0<br/>samples = 3<br/>value = [0, 6]>, fillcolor="#399de5ff"] ;
47 -> 48 ;
49 [label=<gini = 0.0<br/>samples = 1<br/>value = [1, 0]>, fillcolor="#e58139ff"] ;
47 -> 49 ;
50 [label=<jockey &le; 0.552<br/>gini = 0.457<br/>samples = 9<br/>value = [11, 6]>, fillcolor="#e5813974"] ;
46 -> 50 ;
51 [label=<age &le; 3.5<br/>gini = 0.26<br/>samples = 7<br/>value = [11, 2]>, fillcolor="#e58139d1"] ;
50 -> 51 ;
52 [label=<gini = 0.0<br/>samples = 3<br/>value = [8, 0]>, fillcolor="#e58139ff"] ;
51 -> 52 ;
53 [label=<past1_result &le; 4.5<br/>gini = 0.48<br/>samples = 4<br/>value = [3, 2]>, fillcolor="#e5813955"] ;
51 -> 53 ;
54 [label=<gini = 0.0<br/>samples = 2<br/>value = [0, 2]>, fillcolor="#399de5ff"] ;
53 -> 54 ;
55 [label=<gini = 0.0<br/>samples = 2<br/>value = [3, 0]>, fillcolor="#e58139ff"] ;
53 -> 55 ;
56 [label=<gini = 0.0<br/>samples = 2<br/>value = [0, 4]>, fillcolor="#399de5ff"] ;
50 -> 56 ;
}