digraph Tree {
node [shape=box, style="filled", color="black"] ;
0 [label=<jockey &le; 0.288<br/>gini = 0.263<br/>samples = 152<br/>value = [195, 36]>, fillcolor="#e58139d0"] ;
1 [label=<jockey &le; 0.234<br/>gini = 0.07<br/>samples = 72<br/>value = [106, 4]>, fillcolor="#e58139f5"] ;
0 -> 1 [labeldistance=2.5, labelangle=45, headlabel="True"] ;
2 [label=<gini = 0.0<br/>samples = 42<br/>value = [60, 0]>, fillcolor="#e58139ff"] ;
1 -> 2 ;
3 [label=<male &le; 0.5<br/>gini = 0.147<br/>samples = 30<br/>value = [46, 4]>, fillcolor="#e58139e9"] ;
1 -> 3 ;
4 [label=<umaban &le; 6.5<br/>gini = 0.245<br/>samples = 13<br/>value = [18, 3]>, fillcolor="#e58139d4"] ;
3 -> 4 ;
5 [label=<gini = 0.0<br/>samples = 4<br/>value = [9, 0]>, fillcolor="#e58139ff"] ;
4 -> 5 ;
6 [label=<win3 &le; 0.5<br/>gini = 0.375<br/>samples = 9<br/>value = [9, 3]>, fillcolor="#e58139aa"] ;
4 -> 6 ;
7 [label=<gini = 0.0<br/>samples = 5<br/>value = [8, 0]>, fillcolor="#e58139ff"] ;
6 -> 7 ;
8 [label=<past3_result &le; 5.0<br/>gini = 0.375<br/>samples = 4<br/>value = [1, 3]>, fillcolor="#399de5aa"] ;
6 -> 8 ;
9 [label=<gini = 0.0<br/>samples = 3<br/>value = [0, 3]>, fillcolor="#399de5ff"] ;
8 -> 9 ;
10 [label=<gini = 0.0<br/>samples = 1<br/>value = [1, 0]>, fillcolor="#e58139ff"] ;
8 -> 10 ;
11 [label=<past2_result &le; 1.5<br/>gini = 0.067<br/>samples = 17<br/>value = [28, 1]>, fillcolor="#e58139f6"] ;
3 -> 11 ;
12 [label=<past1_result &le; 4.5<br/>gini = 0.278<br/>samples = 4<br/>value = [5, 1]>, fillcolor="#e58139cc"] ;
11 -> 12 ;
13 [label=<distance &le; 2450.0<br/>gini = 0.444<br/>samples = 2<br/>value = [2, 1]>, fillcolor="#e581397f"] ;
12 -> 13 ;
14 [label=<gini = 0.0<br/>samples = 1<br/>value = [2, 0]>, fillcolor="#e58139ff"] ;
13 -> 14 ;
15 [label=<gini = 0.0<br/>samples = 1<br/>value = [0, 1]>, fillcolor="#399de5ff"] ;
13 -> 15 ;
16 [label=<gini = 0.0<br/>samples = 2<br/>value = [3, 0]>, fillcolor="#e58139ff"] ;
12 -> 16 ;
17 [label=<gini = 0.0<br/>samples = 13<br/>value = [23, 0]>, fillcolor="#e58139ff"] ;
11 -> 17 ;
18 [label=<frame_num &le; 3.5<br/>gini = 0.389<br/>samples = 80<br/>value = [89, 32]>, fillcolor="#e58139a3"] ;
0 -> 18 [labeldistance=2.5, labelangle=-45, headlabel="False"] ;
19 [label=<total_game &le; 13.5<br/>gini = 0.263<br/>samples = 31<br/>value = [38, 7]>, fillcolor="#e58139d0"] ;
18 -> 19 ;
20 [label=<win2 &le; 1.5<br/>gini = 0.403<br/>samples = 20<br/>value = [18, 7]>, fillcolor="#e581399c"] ;
19 -> 20 ;
21 [label=<umaban &le; 1.5<br/>gini = 0.133<br/>samples = 11<br/>value = [13, 1]>, fillcolor="#e58139eb"] ;
20 -> 21 ;
22 [label=<horse_weight &le; 497.0<br/>gini = 0.5<br/>samples = 2<br/>value = [1, 1]>, fillcolor="#e5813900"] ;
21 -> 22 ;
23 [label=<gini = 0.0<br/>samples = 1<br/>value = [0, 1]>, fillcolor="#399de5ff"] ;
22 -> 23 ;
24 [label=<gini = 0.0<br/>samples = 1<br/>value = [1, 0]>, fillcolor="#e58139ff"] ;
22 -> 24 ;
25 [label=<gini = 0.0<br/>samples = 9<br/>value = [12, 0]>, fillcolor="#e58139ff"] ;
21 -> 25 ;
26 [label=<frame_num &le; 2.5<br/>gini = 0.496<br/>samples = 9<br/>value = [5, 6]>, fillcolor="#399de52a"] ;
20 -> 26 ;
27 [label=<gini = 0.0<br/>samples = 4<br/>value = [0, 4]>, fillcolor="#399de5ff"] ;
26 -> 27 ;
28 [label=<past2_result &le; 1.5<br/>gini = 0.408<br/>samples = 5<br/>value = [5, 2]>, fillcolor="#e5813999"] ;
26 -> 28 ;
29 [label=<distance &le; 2200.0<br/>gini = 0.444<br/>samples = 2<br/>value = [1, 2]>, fillcolor="#399de57f"] ;
28 -> 29 ;
30 [label=<gini = 0.0<br/>samples = 1<br/>value = [0, 2]>, fillcolor="#399de5ff"] ;
29 -> 30 ;
31 [label=<gini = 0.0<br/>samples = 1<br/>value = [1, 0]>, fillcolor="#e58139ff"] ;
29 -> 31 ;
32 [label=<gini = 0.0<br/>samples = 3<br/>value = [4, 0]>, fillcolor="#e58139ff"] ;
28 -> 32 ;
33 [label=<gini = 0.0<br/>samples = 11<br/>value = [20, 0]>, fillcolor="#e58139ff"] ;
19 -> 33 ;
34 [label=<distance &le; 1400.0<br/>gini = 0.441<br/>samples = 49<br/>value = [51, 25]>, fillcolor="#e5813982"] ;
18 -> 34 ;
35 [label=<gini = 0.0<br/>samples = 8<br/>value = [12, 0]>, fillcolor="#e58139ff"] ;
34 -> 35 ;
36 [label=<frame_num &le; 6.5<br/>gini = 0.476<br/>samples = 41<br/>value = [39, 25]>, fillcolor="#e581395c"] ;
34 -> 36 ;
37 [label=<win3 &le; 0.5<br/>gini = 0.498<br/>samples = 22<br/>value = [17, 19]>, fillcolor="#399de51b"] ;
36 -> 37 ;
38 [label=<jockey &le; 0.468<br/>gini = 0.278<br/>samples = 8<br/>value = [10, 2]>, fillcolor="#e58139cc"] ;
37 -> 38 ;
39 [label=<gini = 0.0<br/>samples = 5<br/>value = [7, 0]>, fillcolor="#e58139ff"] ;
38 -> 39 ;
40 [label=<frame_num &le; 4.5<br/>gini = 0.48<br/>samples = 3<br/>value = [3, 2]>, fillcolor="#e5813955"] ;
38 -> 40 ;
41 [label=<gini = 0.0<br/>samples = 1<br/>value = [3, 0]>, fillcolor="#e58139ff"] ;
40 -> 41 ;
42 [label=<gini = 0.0<br/>samples = 2<br/>value = [0, 2]>, fillcolor="#399de5ff"] ;
40 -> 42 ;
43 [label=<win1 &le; 5.5<br/>gini = 0.413<br/>samples = 14<br/>value = [7, 17]>, fillcolor="#399de596"] ;
37 -> 43 ;
44 [label=<past3_result &le; 6.5<br/>gini = 0.492<br/>samples = 11<br/>value = [7, 9]>, fillcolor="#399de539"] ;
43 -> 44 ;
45 [label=<male &le; 0.5<br/>gini = 0.497<br/>samples = 10<br/>value = [7, 6]>, fillcolor="#e5813924"] ;
44 -> 45 ;
46 [label=<gini = 0.0<br/>samples = 2<br/>value = [2, 0]>, fillcolor="#e58139ff"] ;
45 -> 46 ;
47 [label=<past1_result &le; 2.5<br/>gini = 0.496<br/>samples = 8<br/>value = [5, 6]>, fillcolor="#399de52a"] ;
45 -> 47 ;
48 [label=<gini = 0.0<br/>samples = 4<br/>value = [0, 6]>, fillcolor="#399de5ff"] ;
47 -> 48 ;
49 [label=<gini = 0.0<br/>samples = 4<br/>value = [5, 0]>, fillcolor="#e58139ff"] ;
47 -> 49 ;
50 [label=<gini = 0.0<br/>samples = 1<br/>value = [0, 3]>, fillcolor="#399de5ff"] ;
44 -> 50 ;
51 [label=<gini = 0.0<br/>samples = 3<br/>value = [0, 8]>, fillcolor="#399de5ff"] ;
43 -> 51 ;
52 [label=<past3_result &le; 6.0<br/>gini = 0.337<br/>samples = 19<br/>value = [22, 6]>, fillcolor="#e58139b9"] ;
36 -> 52 ;
53 [label=<win1 &le; 1.5<br/>gini = 0.26<br/>samples = 17<br/>value = [22, 4]>, fillcolor="#e58139d1"] ;
52 -> 53 ;
54 [label=<gini = 0.0<br/>samples = 1<br/>value = [0, 1]>, fillcolor="#399de5ff"] ;
53 -> 54 ;
55 [label=<zougen &le; -1.0<br/>gini = 0.211<br/>samples = 16<br/>value = [22, 3]>, fillcolor="#e58139dc"] ;
53 -> 55 ;
56 [label=<win3 &le; 0.5<br/>gini = 0.32<br/>samples = 10<br/>value = [12, 3]>, fillcolor="#e58139bf"] ;
55 -> 56 ;
57 [label=<age &le; 3.5<br/>gini = 0.48<br/>samples = 4<br/>value = [2, 3]>, fillcolor="#399de555"] ;
56 -> 57 ;
58 [label=<umaban &le; 16.0<br/>gini = 0.444<br/>samples = 3<br/>value = [2, 1]>, fillcolor="#e581397f"] ;
57 -> 58 ;
59 [label=<gini = 0.0<br/>samples = 2<br/>value = [2, 0]>, fillcolor="#e58139ff"] ;
58 -> 59 ;
60 [label=<gini = 0.0<br/>samples = 1<br/>value = [0, 1]>, fillcolor="#399de5ff"] ;
58 -> 60 ;
61 [label=<gini = 0.0<br/>samples = 1<br/>value = [0, 2]>, fillcolor="#399de5ff"] ;
57 -> 61 ;
62 [label=<gini = 0.0<br/>samples = 6<br/>value = [10, 0]>, fillcolor="#e58139ff"] ;
56 -> 62 ;
63 [label=<gini = 0.0<br/>samples = 6<br/>value = [10, 0]>, fillcolor="#e58139ff"] ;
55 -> 63 ;
64 [label=<gini = 0.0<br/>samples = 2<br/>value = [0, 2]>, fillcolor="#399de5ff"] ;
52 -> 64 ;
}