digraph Tree {
node [shape=box, style="filled", color="black"] ;
0 [label=<frame_num &le; 1.5<br/>gini = 0.275<br/>samples = 144<br/>value = [193, 38]>, fillcolor="#e58139cd"] ;
1 [label=<horse_weight &le; 507.0<br/>gini = 0.499<br/>samples = 14<br/>value = [11, 12]>, fillcolor="#399de515"] ;
0 -> 1 [labeldistance=2.5, labelangle=45, headlabel="True"] ;
2 [label=<jockey &le; 0.382<br/>gini = 0.444<br/>samples = 11<br/>value = [6, 12]>, fillcolor="#399de57f"] ;
1 -> 2 ;
3 [label=<total_game &le; 5.5<br/>gini = 0.245<br/>samples = 7<br/>value = [6, 1]>, fillcolor="#e58139d4"] ;
2 -> 3 ;
4 [label=<condition &le; 1.5<br/>gini = 0.5<br/>samples = 2<br/>value = [1, 1]>, fillcolor="#e5813900"] ;
3 -> 4 ;
5 [label=<gini = 0.0<br/>samples = 1<br/>value = [0, 1]>, fillcolor="#399de5ff"] ;
4 -> 5 ;
6 [label=<gini = 0.0<br/>samples = 1<br/>value = [1, 0]>, fillcolor="#e58139ff"] ;
4 -> 6 ;
7 [label=<gini = 0.0<br/>samples = 5<br/>value = [5, 0]>, fillcolor="#e58139ff"] ;
3 -> 7 ;
8 [label=<gini = 0.0<br/>samples = 4<br/>value = [0, 11]>, fillcolor="#399de5ff"] ;
2 -> 8 ;
9 [label=<gini = 0.0<br/>samples = 3<br/>value = [5, 0]>, fillcolor="#e58139ff"] ;
1 -> 9 ;
10 [label=<past1_result &le; 4.5<br/>gini = 0.219<br/>samples = 130<br/>value = [182, 26]>, fillcolor="#e58139db"] ;
0 -> 10 [labeldistance=2.5, labelangle=-45, headlabel="False"] ;
11 [label=<total_game &le; 20.5<br/>gini = 0.302<br/>samples = 77<br/>value = [101, 23]>, fillcolor="#e58139c5"] ;
10 -> 11 ;
12 [label=<jockey &le; 0.529<br/>gini = 0.359<br/>samples = 62<br/>value = [75, 23]>, fillcolor="#e58139b1"] ;
11 -> 12 ;
13 [label=<condition &le; 1.5<br/>gini = 0.272<br/>samples = 49<br/>value = [67, 13]>, fillcolor="#e58139ce"] ;
12 -> 13 ;
14 [label=<gelding &le; 0.5<br/>gini = 0.175<br/>samples = 39<br/>value = [56, 6]>, fillcolor="#e58139e4"] ;
13 -> 14 ;
15 [label=<past2_result &le; 2.5<br/>gini = 0.124<br/>samples = 38<br/>value = [56, 4]>, fillcolor="#e58139ed"] ;
14 -> 15 ;
16 [label=<umaban &le; 16.5<br/>gini = 0.238<br/>samples = 20<br/>value = [25, 4]>, fillcolor="#e58139d6"] ;
15 -> 16 ;
17 [label=<past3_result &le; 6.0<br/>gini = 0.191<br/>samples = 19<br/>value = [25, 3]>, fillcolor="#e58139e0"] ;
16 -> 17 ;
18 [label=<frame_num &le; 5.0<br/>gini = 0.142<br/>samples = 17<br/>value = [24, 2]>, fillcolor="#e58139ea"] ;
17 -> 18 ;
19 [label=<gini = 0.0<br/>samples = 11<br/>value = [17, 0]>, fillcolor="#e58139ff"] ;
18 -> 19 ;
20 [label=<umaban &le; 13.0<br/>gini = 0.346<br/>samples = 6<br/>value = [7, 2]>, fillcolor="#e58139b6"] ;
18 -> 20 ;
21 [label=<weight &le; 56.0<br/>gini = 0.444<br/>samples = 2<br/>value = [1, 2]>, fillcolor="#399de57f"] ;
20 -> 21 ;
22 [label=<gini = 0.0<br/>samples = 1<br/>value = [1, 0]>, fillcolor="#e58139ff"] ;
21 -> 22 ;
23 [label=<gini = 0.0<br/>samples = 1<br/>value = [0, 2]>, fillcolor="#399de5ff"] ;
21 -> 23 ;
24 [label=<gini = 0.0<br/>samples = 4<br/>value = [6, 0]>, fillcolor="#e58139ff"] ;
20 -> 24 ;
25 [label=<umaban &le; 6.0<br/>gini = 0.5<br/>samples = 2<br/>value = [1, 1]>, fillcolor="#e5813900"] ;
17 -> 25 ;
26 [label=<gini = 0.0<br/>samples = 1<br/>value = [0, 1]>, fillcolor="#399de5ff"] ;
25 -> 26 ;
27 [label=<gini = 0.0<br/>samples = 1<br/>value = [1, 0]>, fillcolor="#e58139ff"] ;
25 -> 27 ;
28 [label=<gini = 0.0<br/>samples = 1<br/>value = [0, 1]>, fillcolor="#399de5ff"] ;
16 -> 28 ;
29 [label=<gini = 0.0<br/>samples = 18<br/>value = [31, 0]>, fillcolor="#e58139ff"] ;
15 -> 29 ;
30 [label=<gini = 0.0<br/>samples = 1<br/>value = [0, 2]>, fillcolor="#399de5ff"] ;
14 -> 30 ;
31 [label=<past1_result &le; 3.5<br/>gini = 0.475<br/>samples = 10<br/>value = [11, 7]>, fillcolor="#e581395d"] ;
13 -> 31 ;
32 [label=<past3_result &le; 3.5<br/>gini = 0.391<br/>samples = 9<br/>value = [11, 4]>, fillcolor="#e58139a2"] ;
31 -> 32 ;
33 [label=<win3 &le; 2.5<br/>gini = 0.494<br/>samples = 6<br/>value = [5, 4]>, fillcolor="#e5813933"] ;
32 -> 33 ;
34 [label=<female &le; 0.5<br/>gini = 0.49<br/>samples = 5<br/>value = [3, 4]>, fillcolor="#399de540"] ;
33 -> 34 ;
35 [label=<horse_weight &le; 494.0<br/>gini = 0.5<br/>samples = 4<br/>value = [3, 3]>, fillcolor="#e5813900"] ;
34 -> 35 ;
36 [label=<win1 &le; 1.5<br/>gini = 0.375<br/>samples = 3<br/>value = [3, 1]>, fillcolor="#e58139aa"] ;
35 -> 36 ;
37 [label=<gini = 0.0<br/>samples = 1<br/>value = [0, 1]>, fillcolor="#399de5ff"] ;
36 -> 37 ;
38 [label=<gini = 0.0<br/>samples = 2<br/>value = [3, 0]>, fillcolor="#e58139ff"] ;
36 -> 38 ;
39 [label=<gini = 0.0<br/>samples = 1<br/>value = [0, 2]>, fillcolor="#399de5ff"] ;
35 -> 39 ;
40 [label=<gini = 0.0<br/>samples = 1<br/>value = [0, 1]>, fillcolor="#399de5ff"] ;
34 -> 40 ;
41 [label=<gini = 0.0<br/>samples = 1<br/>value = [2, 0]>, fillcolor="#e58139ff"] ;
33 -> 41 ;
42 [label=<gini = 0.0<br/>samples = 3<br/>value = [6, 0]>, fillcolor="#e58139ff"] ;
32 -> 42 ;
43 [label=<gini = 0.0<br/>samples = 1<br/>value = [0, 3]>, fillcolor="#399de5ff"] ;
31 -> 43 ;
44 [label=<horse_weight &le; 461.0<br/>gini = 0.494<br/>samples = 13<br/>value = [8, 10]>, fillcolor="#399de533"] ;
12 -> 44 ;
45 [label=<gini = 0.0<br/>samples = 3<br/>value = [3, 0]>, fillcolor="#e58139ff"] ;
44 -> 45 ;
46 [label=<female &le; 0.5<br/>gini = 0.444<br/>samples = 10<br/>value = [5, 10]>, fillcolor="#399de57f"] ;
44 -> 46 ;
47 [label=<win3 &le; 0.5<br/>gini = 0.245<br/>samples = 6<br/>value = [1, 6]>, fillcolor="#399de5d4"] ;
46 -> 47 ;
48 [label=<gini = 0.0<br/>samples = 4<br/>value = [0, 5]>, fillcolor="#399de5ff"] ;
47 -> 48 ;
49 [label=<jockey &le; 0.573<br/>gini = 0.5<br/>samples = 2<br/>value = [1, 1]>, fillcolor="#e5813900"] ;
47 -> 49 ;
50 [label=<gini = 0.0<br/>samples = 1<br/>value = [1, 0]>, fillcolor="#e58139ff"] ;
49 -> 50 ;
51 [label=<gini = 0.0<br/>samples = 1<br/>value = [0, 1]>, fillcolor="#399de5ff"] ;
49 -> 51 ;
52 [label=<win3 &le; 1.0<br/>gini = 0.5<br/>samples = 4<br/>value = [4, 4]>, fillcolor="#e5813900"] ;
46 -> 52 ;
53 [label=<gini = 0.0<br/>samples = 2<br/>value = [0, 4]>, fillcolor="#399de5ff"] ;
52 -> 53 ;
54 [label=<gini = 0.0<br/>samples = 2<br/>value = [4, 0]>, fillcolor="#e58139ff"] ;
52 -> 54 ;
55 [label=<gini = 0.0<br/>samples = 15<br/>value = [26, 0]>, fillcolor="#e58139ff"] ;
11 -> 55 ;
56 [label=<total_game &le; 23.5<br/>gini = 0.069<br/>samples = 53<br/>value = [81, 3]>, fillcolor="#e58139f6"] ;
10 -> 56 ;
57 [label=<gini = 0.0<br/>samples = 32<br/>value = [51, 0]>, fillcolor="#e58139ff"] ;
56 -> 57 ;
58 [label=<total_game &le; 24.5<br/>gini = 0.165<br/>samples = 21<br/>value = [30, 3]>, fillcolor="#e58139e6"] ;
56 -> 58 ;
59 [label=<gini = 0.0<br/>samples = 2<br/>value = [0, 2]>, fillcolor="#399de5ff"] ;
58 -> 59 ;
60 [label=<past3_result &le; 1.5<br/>gini = 0.062<br/>samples = 19<br/>value = [30, 1]>, fillcolor="#e58139f6"] ;
58 -> 60 ;
61 [label=<past2_result &le; 2.5<br/>gini = 0.5<br/>samples = 2<br/>value = [1, 1]>, fillcolor="#e5813900"] ;
60 -> 61 ;
62 [label=<gini = 0.0<br/>samples = 1<br/>value = [0, 1]>, fillcolor="#399de5ff"] ;
61 -> 62 ;
63 [label=<gini = 0.0<br/>samples = 1<br/>value = [1, 0]>, fillcolor="#e58139ff"] ;
61 -> 63 ;
64 [label=<gini = 0.0<br/>samples = 17<br/>value = [29, 0]>, fillcolor="#e58139ff"] ;
60 -> 64 ;
}