digraph Tree {
node [shape=box, style="filled", color="black"] ;
0 [label=<frame_num &le; 6.5<br/>gini = 0.363<br/>samples = 145<br/>value = [176, 55]>, fillcolor="#e58139af"] ;
1 [label=<win1 &le; 4.5<br/>gini = 0.407<br/>samples = 99<br/>value = [118, 47]>, fillcolor="#e5813999"] ;
0 -> 1 [labeldistance=2.5, labelangle=45, headlabel="True"] ;
2 [label=<distance &le; 1800.0<br/>gini = 0.471<br/>samples = 55<br/>value = [54, 33]>, fillcolor="#e5813963"] ;
1 -> 2 ;
3 [label=<win1 &le; 3.5<br/>gini = 0.498<br/>samples = 20<br/>value = [16, 18]>, fillcolor="#399de51c"] ;
2 -> 3 ;
4 [label=<frame_num &le; 4.5<br/>gini = 0.408<br/>samples = 14<br/>value = [15, 6]>, fillcolor="#e5813999"] ;
3 -> 4 ;
5 [label=<weight &le; 57.5<br/>gini = 0.231<br/>samples = 11<br/>value = [13, 2]>, fillcolor="#e58139d8"] ;
4 -> 5 ;
6 [label=<gini = 0.0<br/>samples = 10<br/>value = [13, 0]>, fillcolor="#e58139ff"] ;
5 -> 6 ;
7 [label=<gini = 0.0<br/>samples = 1<br/>value = [0, 2]>, fillcolor="#399de5ff"] ;
5 -> 7 ;
8 [label=<past2_result &le; 1.5<br/>gini = 0.444<br/>samples = 3<br/>value = [2, 4]>, fillcolor="#399de57f"] ;
4 -> 8 ;
9 [label=<gini = 0.0<br/>samples = 1<br/>value = [0, 2]>, fillcolor="#399de5ff"] ;
8 -> 9 ;
10 [label=<distance &le; 1400.0<br/>gini = 0.5<br/>samples = 2<br/>value = [2, 2]>, fillcolor="#e5813900"] ;
8 -> 10 ;
11 [label=<gini = 0.0<br/>samples = 1<br/>value = [0, 2]>, fillcolor="#399de5ff"] ;
10 -> 11 ;
12 [label=<gini = 0.0<br/>samples = 1<br/>value = [2, 0]>, fillcolor="#e58139ff"] ;
10 -> 12 ;
13 [label=<total_game &le; 14.5<br/>gini = 0.142<br/>samples = 6<br/>value = [1, 12]>, fillcolor="#399de5ea"] ;
3 -> 13 ;
14 [label=<gini = 0.0<br/>samples = 4<br/>value = [0, 11]>, fillcolor="#399de5ff"] ;
13 -> 14 ;
15 [label=<weight &le; 56.5<br/>gini = 0.5<br/>samples = 2<br/>value = [1, 1]>, fillcolor="#e5813900"] ;
13 -> 15 ;
16 [label=<gini = 0.0<br/>samples = 1<br/>value = [0, 1]>, fillcolor="#399de5ff"] ;
15 -> 16 ;
17 [label=<gini = 0.0<br/>samples = 1<br/>value = [1, 0]>, fillcolor="#e58139ff"] ;
15 -> 17 ;
18 [label=<horse_weight &le; 532.0<br/>gini = 0.406<br/>samples = 35<br/>value = [38, 15]>, fillcolor="#e581399a"] ;
2 -> 18 ;
19 [label=<past1_result &le; 3.5<br/>gini = 0.365<br/>samples = 34<br/>value = [38, 12]>, fillcolor="#e58139ae"] ;
18 -> 19 ;
20 [label=<jockey &le; 0.403<br/>gini = 0.444<br/>samples = 24<br/>value = [22, 11]>, fillcolor="#e581397f"] ;
19 -> 20 ;
21 [label=<zougen &le; 3.0<br/>gini = 0.219<br/>samples = 19<br/>value = [21, 3]>, fillcolor="#e58139db"] ;
20 -> 21 ;
22 [label=<gini = 0.0<br/>samples = 13<br/>value = [15, 0]>, fillcolor="#e58139ff"] ;
21 -> 22 ;
23 [label=<zougen &le; 5.0<br/>gini = 0.444<br/>samples = 6<br/>value = [6, 3]>, fillcolor="#e581397f"] ;
21 -> 23 ;
24 [label=<condition &le; 1.5<br/>gini = 0.375<br/>samples = 2<br/>value = [1, 3]>, fillcolor="#399de5aa"] ;
23 -> 24 ;
25 [label=<gini = 0.0<br/>samples = 1<br/>value = [1, 0]>, fillcolor="#e58139ff"] ;
24 -> 25 ;
26 [label=<gini = 0.0<br/>samples = 1<br/>value = [0, 3]>, fillcolor="#399de5ff"] ;
24 -> 26 ;
27 [label=<gini = 0.0<br/>samples = 4<br/>value = [5, 0]>, fillcolor="#e58139ff"] ;
23 -> 27 ;
28 [label=<past3_result &le; 4.0<br/>gini = 0.198<br/>samples = 5<br/>value = [1, 8]>, fillcolor="#399de5df"] ;
20 -> 28 ;
29 [label=<gini = 0.0<br/>samples = 4<br/>value = [0, 8]>, fillcolor="#399de5ff"] ;
28 -> 29 ;
30 [label=<gini = 0.0<br/>samples = 1<br/>value = [1, 0]>, fillcolor="#e58139ff"] ;
28 -> 30 ;
31 [label=<past3_result &le; 4.5<br/>gini = 0.111<br/>samples = 10<br/>value = [16, 1]>, fillcolor="#e58139ef"] ;
19 -> 31 ;
32 [label=<gini = 0.0<br/>samples = 7<br/>value = [11, 0]>, fillcolor="#e58139ff"] ;
31 -> 32 ;
33 [label=<total_game &le; 10.5<br/>gini = 0.278<br/>samples = 3<br/>value = [5, 1]>, fillcolor="#e58139cc"] ;
31 -> 33 ;
34 [label=<gini = 0.0<br/>samples = 1<br/>value = [0, 1]>, fillcolor="#399de5ff"] ;
33 -> 34 ;
35 [label=<gini = 0.0<br/>samples = 2<br/>value = [5, 0]>, fillcolor="#e58139ff"] ;
33 -> 35 ;
36 [label=<gini = 0.0<br/>samples = 1<br/>value = [0, 3]>, fillcolor="#399de5ff"] ;
18 -> 36 ;
37 [label=<past2_result &le; 9.5<br/>gini = 0.295<br/>samples = 44<br/>value = [64, 14]>, fillcolor="#e58139c7"] ;
1 -> 37 ;
38 [label=<frame_num &le; 5.5<br/>gini = 0.346<br/>samples = 37<br/>value = [49, 14]>, fillcolor="#e58139b6"] ;
37 -> 38 ;
39 [label=<condition &le; 1.5<br/>gini = 0.252<br/>samples = 32<br/>value = [46, 8]>, fillcolor="#e58139d3"] ;
38 -> 39 ;
40 [label=<weight &le; 57.5<br/>gini = 0.326<br/>samples = 23<br/>value = [31, 8]>, fillcolor="#e58139bd"] ;
39 -> 40 ;
41 [label=<horse_weight &le; 519.0<br/>gini = 0.245<br/>samples = 16<br/>value = [24, 4]>, fillcolor="#e58139d4"] ;
40 -> 41 ;
42 [label=<zougen &le; 3.0<br/>gini = 0.198<br/>samples = 15<br/>value = [24, 3]>, fillcolor="#e58139df"] ;
41 -> 42 ;
43 [label=<gini = 0.0<br/>samples = 11<br/>value = [22, 0]>, fillcolor="#e58139ff"] ;
42 -> 43 ;
44 [label=<win2 &le; 2.5<br/>gini = 0.48<br/>samples = 4<br/>value = [2, 3]>, fillcolor="#399de555"] ;
42 -> 44 ;
45 [label=<gini = 0.0<br/>samples = 1<br/>value = [0, 2]>, fillcolor="#399de5ff"] ;
44 -> 45 ;
46 [label=<zougen &le; 4.5<br/>gini = 0.444<br/>samples = 3<br/>value = [2, 1]>, fillcolor="#e581397f"] ;
44 -> 46 ;
47 [label=<gini = 0.0<br/>samples = 2<br/>value = [2, 0]>, fillcolor="#e58139ff"] ;
46 -> 47 ;
48 [label=<gini = 0.0<br/>samples = 1<br/>value = [0, 1]>, fillcolor="#399de5ff"] ;
46 -> 48 ;
49 [label=<gini = 0.0<br/>samples = 1<br/>value = [0, 1]>, fillcolor="#399de5ff"] ;
41 -> 49 ;
50 [label=<age &le; 5.5<br/>gini = 0.463<br/>samples = 7<br/>value = [7, 4]>, fillcolor="#e581396d"] ;
40 -> 50 ;
51 [label=<umaban &le; 4.5<br/>gini = 0.5<br/>samples = 5<br/>value = [4, 4]>, fillcolor="#e5813900"] ;
50 -> 51 ;
52 [label=<past1_result &le; 4.5<br/>gini = 0.32<br/>samples = 3<br/>value = [1, 4]>, fillcolor="#399de5bf"] ;
51 -> 52 ;
53 [label=<gini = 0.0<br/>samples = 2<br/>value = [0, 4]>, fillcolor="#399de5ff"] ;
52 -> 53 ;
54 [label=<gini = 0.0<br/>samples = 1<br/>value = [1, 0]>, fillcolor="#e58139ff"] ;
52 -> 54 ;
55 [label=<gini = 0.0<br/>samples = 2<br/>value = [3, 0]>, fillcolor="#e58139ff"] ;
51 -> 55 ;
56 [label=<gini = 0.0<br/>samples = 2<br/>value = [3, 0]>, fillcolor="#e58139ff"] ;
50 -> 56 ;
57 [label=<gini = 0.0<br/>samples = 9<br/>value = [15, 0]>, fillcolor="#e58139ff"] ;
39 -> 57 ;
58 [label=<past2_result &le; 2.0<br/>gini = 0.444<br/>samples = 5<br/>value = [3, 6]>, fillcolor="#399de57f"] ;
38 -> 58 ;
59 [label=<past1_result &le; 2.5<br/>gini = 0.375<br/>samples = 2<br/>value = [3, 1]>, fillcolor="#e58139aa"] ;
58 -> 59 ;
60 [label=<gini = 0.0<br/>samples = 1<br/>value = [0, 1]>, fillcolor="#399de5ff"] ;
59 -> 60 ;
61 [label=<gini = 0.0<br/>samples = 1<br/>value = [3, 0]>, fillcolor="#e58139ff"] ;
59 -> 61 ;
62 [label=<gini = 0.0<br/>samples = 3<br/>value = [0, 5]>, fillcolor="#399de5ff"] ;
58 -> 62 ;
63 [label=<gini = 0.0<br/>samples = 7<br/>value = [15, 0]>, fillcolor="#e58139ff"] ;
37 -> 63 ;
64 [label=<win3 &le; 1.5<br/>gini = 0.213<br/>samples = 46<br/>value = [58, 8]>, fillcolor="#e58139dc"] ;
0 -> 64 [labeldistance=2.5, labelangle=-45, headlabel="False"] ;
65 [label=<horse_weight &le; 515.0<br/>gini = 0.313<br/>samples = 25<br/>value = [29, 7]>, fillcolor="#e58139c1"] ;
64 -> 65 ;
66 [label=<total_game &le; 6.5<br/>gini = 0.245<br/>samples = 20<br/>value = [24, 4]>, fillcolor="#e58139d4"] ;
65 -> 66 ;
67 [label=<umaban &le; 13.5<br/>gini = 0.36<br/>samples = 11<br/>value = [13, 4]>, fillcolor="#e58139b1"] ;
66 -> 67 ;
68 [label=<gini = 0.0<br/>samples = 2<br/>value = [0, 3]>, fillcolor="#399de5ff"] ;
67 -> 68 ;
69 [label=<win2 &le; 2.5<br/>gini = 0.133<br/>samples = 9<br/>value = [13, 1]>, fillcolor="#e58139eb"] ;
67 -> 69 ;
70 [label=<gini = 0.0<br/>samples = 8<br/>value = [13, 0]>, fillcolor="#e58139ff"] ;
69 -> 70 ;
71 [label=<gini = 0.0<br/>samples = 1<br/>value = [0, 1]>, fillcolor="#399de5ff"] ;
69 -> 71 ;
72 [label=<gini = 0.0<br/>samples = 9<br/>value = [11, 0]>, fillcolor="#e58139ff"] ;
66 -> 72 ;
73 [label=<win2 &le; 1.5<br/>gini = 0.469<br/>samples = 5<br/>value = [5, 3]>, fillcolor="#e5813966"] ;
65 -> 73 ;
74 [label=<gini = 0.0<br/>samples = 2<br/>value = [4, 0]>, fillcolor="#e58139ff"] ;
73 -> 74 ;
75 [label=<weight &le; 56.0<br/>gini = 0.375<br/>samples = 3<br/>value = [1, 3]>, fillcolor="#399de5aa"] ;
73 -> 75 ;
76 [label=<gini = 0.0<br/>samples = 1<br/>value = [1, 0]>, fillcolor="#e58139ff"] ;
75 -> 76 ;
77 [label=<gini = 0.0<br/>samples = 2<br/>value = [0, 3]>, fillcolor="#399de5ff"] ;
75 -> 77 ;
78 [label=<weight &le; 57.5<br/>gini = 0.064<br/>samples = 21<br/>value = [29, 1]>, fillcolor="#e58139f6"] ;
64 -> 78 ;
79 [label=<gini = 0.0<br/>samples = 15<br/>value = [24, 0]>, fillcolor="#e58139ff"] ;
78 -> 79 ;
80 [label=<umaban &le; 11.0<br/>gini = 0.278<br/>samples = 6<br/>value = [5, 1]>, fillcolor="#e58139cc"] ;
78 -> 80 ;
81 [label=<gini = 0.0<br/>samples = 1<br/>value = [0, 1]>, fillcolor="#399de5ff"] ;
80 -> 81 ;
82 [label=<gini = 0.0<br/>samples = 5<br/>value = [5, 0]>, fillcolor="#e58139ff"] ;
80 -> 82 ;
}