digraph Tree {
node [shape=box, style="filled", color="black"] ;
0 [label=<win2 &le; 0.5<br/>gini = 0.275<br/>samples = 147<br/>value = [193, 38]>, fillcolor="#e58139cd"] ;
1 [label=<win1 &le; 3.5<br/>gini = 0.091<br/>samples = 27<br/>value = [40, 2]>, fillcolor="#e58139f2"] ;
0 -> 1 [labeldistance=2.5, labelangle=45, headlabel="True"] ;
2 [label=<gini = 0.0<br/>samples = 21<br/>value = [33, 0]>, fillcolor="#e58139ff"] ;
1 -> 2 ;
3 [label=<past2_result &le; 3.0<br/>gini = 0.346<br/>samples = 6<br/>value = [7, 2]>, fillcolor="#e58139b6"] ;
1 -> 3 ;
4 [label=<umaban &le; 12.0<br/>gini = 0.444<br/>samples = 2<br/>value = [1, 2]>, fillcolor="#399de57f"] ;
3 -> 4 ;
5 [label=<gini = 0.0<br/>samples = 1<br/>value = [0, 2]>, fillcolor="#399de5ff"] ;
4 -> 5 ;
6 [label=<gini = 0.0<br/>samples = 1<br/>value = [1, 0]>, fillcolor="#e58139ff"] ;
4 -> 6 ;
7 [label=<gini = 0.0<br/>samples = 4<br/>value = [6, 0]>, fillcolor="#e58139ff"] ;
3 -> 7 ;
8 [label=<past1_result &le; 3.5<br/>gini = 0.308<br/>samples = 120<br/>value = [153, 36]>, fillcolor="#e58139c3"] ;
0 -> 8 [labeldistance=2.5, labelangle=-45, headlabel="False"] ;
9 [label=<jockey &le; 0.403<br/>gini = 0.412<br/>samples = 59<br/>value = [71, 29]>, fillcolor="#e5813997"] ;
8 -> 9 ;
10 [label=<past2_result &le; 1.5<br/>gini = 0.155<br/>samples = 36<br/>value = [54, 5]>, fillcolor="#e58139e7"] ;
9 -> 10 ;
11 [label=<zougen &le; 3.0<br/>gini = 0.32<br/>samples = 14<br/>value = [16, 4]>, fillcolor="#e58139bf"] ;
10 -> 11 ;
12 [label=<gini = 0.0<br/>samples = 8<br/>value = [11, 0]>, fillcolor="#e58139ff"] ;
11 -> 12 ;
13 [label=<win2 &le; 4.0<br/>gini = 0.494<br/>samples = 6<br/>value = [5, 4]>, fillcolor="#e5813933"] ;
11 -> 13 ;
14 [label=<past3_result &le; 1.5<br/>gini = 0.408<br/>samples = 5<br/>value = [5, 2]>, fillcolor="#e5813999"] ;
13 -> 14 ;
15 [label=<gini = 0.0<br/>samples = 1<br/>value = [0, 1]>, fillcolor="#399de5ff"] ;
14 -> 15 ;
16 [label=<frame_num &le; 6.0<br/>gini = 0.278<br/>samples = 4<br/>value = [5, 1]>, fillcolor="#e58139cc"] ;
14 -> 16 ;
17 [label=<gini = 0.0<br/>samples = 3<br/>value = [5, 0]>, fillcolor="#e58139ff"] ;
16 -> 17 ;
18 [label=<gini = 0.0<br/>samples = 1<br/>value = [0, 1]>, fillcolor="#399de5ff"] ;
16 -> 18 ;
19 [label=<gini = 0.0<br/>samples = 1<br/>value = [0, 2]>, fillcolor="#399de5ff"] ;
13 -> 19 ;
20 [label=<umaban &le; 11.5<br/>gini = 0.05<br/>samples = 22<br/>value = [38, 1]>, fillcolor="#e58139f8"] ;
10 -> 20 ;
21 [label=<gini = 0.0<br/>samples = 17<br/>value = [32, 0]>, fillcolor="#e58139ff"] ;
20 -> 21 ;
22 [label=<frame_num &le; 6.5<br/>gini = 0.245<br/>samples = 5<br/>value = [6, 1]>, fillcolor="#e58139d4"] ;
20 -> 22 ;
23 [label=<gini = 0.0<br/>samples = 1<br/>value = [0, 1]>, fillcolor="#399de5ff"] ;
22 -> 23 ;
24 [label=<gini = 0.0<br/>samples = 4<br/>value = [6, 0]>, fillcolor="#e58139ff"] ;
22 -> 24 ;
25 [label=<win3 &le; 2.5<br/>gini = 0.485<br/>samples = 23<br/>value = [17, 24]>, fillcolor="#399de54a"] ;
9 -> 25 ;
26 [label=<past3_result &le; 5.5<br/>gini = 0.355<br/>samples = 15<br/>value = [6, 20]>, fillcolor="#399de5b3"] ;
25 -> 26 ;
27 [label=<umaban &le; 14.0<br/>gini = 0.32<br/>samples = 14<br/>value = [5, 20]>, fillcolor="#399de5bf"] ;
26 -> 27 ;
28 [label=<total_game &le; 10.5<br/>gini = 0.236<br/>samples = 11<br/>value = [3, 19]>, fillcolor="#399de5d7"] ;
27 -> 28 ;
29 [label=<horse_weight &le; 508.0<br/>gini = 0.105<br/>samples = 9<br/>value = [1, 17]>, fillcolor="#399de5f0"] ;
28 -> 29 ;
30 [label=<gini = 0.0<br/>samples = 8<br/>value = [0, 17]>, fillcolor="#399de5ff"] ;
29 -> 30 ;
31 [label=<gini = 0.0<br/>samples = 1<br/>value = [1, 0]>, fillcolor="#e58139ff"] ;
29 -> 31 ;
32 [label=<past2_result &le; 2.5<br/>gini = 0.5<br/>samples = 2<br/>value = [2, 2]>, fillcolor="#e5813900"] ;
28 -> 32 ;
33 [label=<gini = 0.0<br/>samples = 1<br/>value = [2, 0]>, fillcolor="#e58139ff"] ;
32 -> 33 ;
34 [label=<gini = 0.0<br/>samples = 1<br/>value = [0, 2]>, fillcolor="#399de5ff"] ;
32 -> 34 ;
35 [label=<past2_result &le; 3.0<br/>gini = 0.444<br/>samples = 3<br/>value = [2, 1]>, fillcolor="#e581397f"] ;
27 -> 35 ;
36 [label=<gini = 0.0<br/>samples = 2<br/>value = [2, 0]>, fillcolor="#e58139ff"] ;
35 -> 36 ;
37 [label=<gini = 0.0<br/>samples = 1<br/>value = [0, 1]>, fillcolor="#399de5ff"] ;
35 -> 37 ;
38 [label=<gini = 0.0<br/>samples = 1<br/>value = [1, 0]>, fillcolor="#e58139ff"] ;
26 -> 38 ;
39 [label=<past3_result &le; 7.5<br/>gini = 0.391<br/>samples = 8<br/>value = [11, 4]>, fillcolor="#e58139a2"] ;
25 -> 39 ;
40 [label=<past3_result &le; 2.0<br/>gini = 0.153<br/>samples = 7<br/>value = [11, 1]>, fillcolor="#e58139e8"] ;
39 -> 40 ;
41 [label=<horse_weight &le; 474.0<br/>gini = 0.444<br/>samples = 3<br/>value = [2, 1]>, fillcolor="#e581397f"] ;
40 -> 41 ;
42 [label=<gini = 0.0<br/>samples = 2<br/>value = [2, 0]>, fillcolor="#e58139ff"] ;
41 -> 42 ;
43 [label=<gini = 0.0<br/>samples = 1<br/>value = [0, 1]>, fillcolor="#399de5ff"] ;
41 -> 43 ;
44 [label=<gini = 0.0<br/>samples = 4<br/>value = [9, 0]>, fillcolor="#e58139ff"] ;
40 -> 44 ;
45 [label=<gini = 0.0<br/>samples = 1<br/>value = [0, 3]>, fillcolor="#399de5ff"] ;
39 -> 45 ;
46 [label=<past3_result &le; 1.5<br/>gini = 0.145<br/>samples = 61<br/>value = [82, 7]>, fillcolor="#e58139e9"] ;
8 -> 46 ;
47 [label=<zougen &le; 4.5<br/>gini = 0.32<br/>samples = 12<br/>value = [12, 3]>, fillcolor="#e58139bf"] ;
46 -> 47 ;
48 [label=<horse_weight &le; 452.0<br/>gini = 0.153<br/>samples = 10<br/>value = [11, 1]>, fillcolor="#e58139e8"] ;
47 -> 48 ;
49 [label=<horse_weight &le; 435.0<br/>gini = 0.375<br/>samples = 3<br/>value = [3, 1]>, fillcolor="#e58139aa"] ;
48 -> 49 ;
50 [label=<gini = 0.0<br/>samples = 1<br/>value = [2, 0]>, fillcolor="#e58139ff"] ;
49 -> 50 ;
51 [label=<frame_num &le; 4.5<br/>gini = 0.5<br/>samples = 2<br/>value = [1, 1]>, fillcolor="#e5813900"] ;
49 -> 51 ;
52 [label=<gini = 0.0<br/>samples = 1<br/>value = [1, 0]>, fillcolor="#e58139ff"] ;
51 -> 52 ;
53 [label=<gini = 0.0<br/>samples = 1<br/>value = [0, 1]>, fillcolor="#399de5ff"] ;
51 -> 53 ;
54 [label=<gini = 0.0<br/>samples = 7<br/>value = [8, 0]>, fillcolor="#e58139ff"] ;
48 -> 54 ;
55 [label=<past2_result &le; 3.5<br/>gini = 0.444<br/>samples = 2<br/>value = [1, 2]>, fillcolor="#399de57f"] ;
47 -> 55 ;
56 [label=<gini = 0.0<br/>samples = 1<br/>value = [0, 2]>, fillcolor="#399de5ff"] ;
55 -> 56 ;
57 [label=<gini = 0.0<br/>samples = 1<br/>value = [1, 0]>, fillcolor="#e58139ff"] ;
55 -> 57 ;
58 [label=<zougen &le; 1.0<br/>gini = 0.102<br/>samples = 49<br/>value = [70, 4]>, fillcolor="#e58139f0"] ;
46 -> 58 ;
59 [label=<gini = 0.0<br/>samples = 27<br/>value = [38, 0]>, fillcolor="#e58139ff"] ;
58 -> 59 ;
60 [label=<jockey &le; 0.342<br/>gini = 0.198<br/>samples = 22<br/>value = [32, 4]>, fillcolor="#e58139df"] ;
58 -> 60 ;
61 [label=<past3_result &le; 6.5<br/>gini = 0.069<br/>samples = 16<br/>value = [27, 1]>, fillcolor="#e58139f6"] ;
60 -> 61 ;
62 [label=<gini = 0.0<br/>samples = 10<br/>value = [19, 0]>, fillcolor="#e58139ff"] ;
61 -> 62 ;
63 [label=<weight &le; 56.5<br/>gini = 0.198<br/>samples = 6<br/>value = [8, 1]>, fillcolor="#e58139df"] ;
61 -> 63 ;
64 [label=<win3 &le; 1.5<br/>gini = 0.444<br/>samples = 2<br/>value = [2, 1]>, fillcolor="#e581397f"] ;
63 -> 64 ;
65 [label=<gini = 0.0<br/>samples = 1<br/>value = [2, 0]>, fillcolor="#e58139ff"] ;
64 -> 65 ;
66 [label=<gini = 0.0<br/>samples = 1<br/>value = [0, 1]>, fillcolor="#399de5ff"] ;
64 -> 66 ;
67 [label=<gini = 0.0<br/>samples = 4<br/>value = [6, 0]>, fillcolor="#e58139ff"] ;
63 -> 67 ;
68 [label=<past2_result &le; 1.5<br/>gini = 0.469<br/>samples = 6<br/>value = [5, 3]>, fillcolor="#e5813966"] ;
60 -> 68 ;
69 [label=<gini = 0.0<br/>samples = 3<br/>value = [5, 0]>, fillcolor="#e58139ff"] ;
68 -> 69 ;
70 [label=<gini = 0.0<br/>samples = 3<br/>value = [0, 3]>, fillcolor="#399de5ff"] ;
68 -> 70 ;
}