digraph Tree {
node [shape=box, style="filled", color="black"] ;
0 [label=<distance &le; 2450.0<br/>gini = 0.339<br/>samples = 145<br/>value = [181, 50]>, fillcolor="#e58139b9"] ;
1 [label=<age &le; 5.5<br/>gini = 0.306<br/>samples = 122<br/>value = [155, 36]>, fillcolor="#e58139c4"] ;
0 -> 1 [labeldistance=2.5, labelangle=45, headlabel="True"] ;
2 [label=<horse_weight &le; 469.0<br/>gini = 0.362<br/>samples = 90<br/>value = [103, 32]>, fillcolor="#e58139b0"] ;
1 -> 2 ;
3 [label=<win2 &le; 4.5<br/>gini = 0.163<br/>samples = 35<br/>value = [51, 5]>, fillcolor="#e58139e6"] ;
2 -> 3 ;
4 [label=<win3 &le; 2.5<br/>gini = 0.109<br/>samples = 32<br/>value = [49, 3]>, fillcolor="#e58139ef"] ;
3 -> 4 ;
5 [label=<past3_result &le; 1.5<br/>gini = 0.081<br/>samples = 30<br/>value = [45, 2]>, fillcolor="#e58139f4"] ;
4 -> 5 ;
6 [label=<jockey &le; 0.43<br/>gini = 0.298<br/>samples = 8<br/>value = [9, 2]>, fillcolor="#e58139c6"] ;
5 -> 6 ;
7 [label=<gini = 0.0<br/>samples = 6<br/>value = [9, 0]>, fillcolor="#e58139ff"] ;
6 -> 7 ;
8 [label=<gini = 0.0<br/>samples = 2<br/>value = [0, 2]>, fillcolor="#399de5ff"] ;
6 -> 8 ;
9 [label=<gini = 0.0<br/>samples = 22<br/>value = [36, 0]>, fillcolor="#e58139ff"] ;
5 -> 9 ;
10 [label=<condition &le; 1.5<br/>gini = 0.32<br/>samples = 2<br/>value = [4, 1]>, fillcolor="#e58139bf"] ;
4 -> 10 ;
11 [label=<gini = 0.0<br/>samples = 1<br/>value = [0, 1]>, fillcolor="#399de5ff"] ;
10 -> 11 ;
12 [label=<gini = 0.0<br/>samples = 1<br/>value = [4, 0]>, fillcolor="#e58139ff"] ;
10 -> 12 ;
13 [label=<total_game &le; 14.0<br/>gini = 0.5<br/>samples = 3<br/>value = [2, 2]>, fillcolor="#e5813900"] ;
3 -> 13 ;
14 [label=<gini = 0.0<br/>samples = 1<br/>value = [1, 0]>, fillcolor="#e58139ff"] ;
13 -> 14 ;
15 [label=<past1_result &le; 7.0<br/>gini = 0.444<br/>samples = 2<br/>value = [1, 2]>, fillcolor="#399de57f"] ;
13 -> 15 ;
16 [label=<gini = 0.0<br/>samples = 1<br/>value = [0, 2]>, fillcolor="#399de5ff"] ;
15 -> 16 ;
17 [label=<gini = 0.0<br/>samples = 1<br/>value = [1, 0]>, fillcolor="#e58139ff"] ;
15 -> 17 ;
18 [label=<win1 &le; 8.5<br/>gini = 0.45<br/>samples = 55<br/>value = [52, 27]>, fillcolor="#e581397b"] ;
2 -> 18 ;
19 [label=<jockey &le; 0.403<br/>gini = 0.432<br/>samples = 54<br/>value = [52, 24]>, fillcolor="#e5813989"] ;
18 -> 19 ;
20 [label=<umaban &le; 2.5<br/>gini = 0.237<br/>samples = 35<br/>value = [44, 7]>, fillcolor="#e58139d6"] ;
19 -> 20 ;
21 [label=<jockey &le; 0.166<br/>gini = 0.469<br/>samples = 6<br/>value = [5, 3]>, fillcolor="#e5813966"] ;
20 -> 21 ;
22 [label=<gini = 0.0<br/>samples = 1<br/>value = [0, 2]>, fillcolor="#399de5ff"] ;
21 -> 22 ;
23 [label=<past2_result &le; 1.5<br/>gini = 0.278<br/>samples = 5<br/>value = [5, 1]>, fillcolor="#e58139cc"] ;
21 -> 23 ;
24 [label=<gini = 0.0<br/>samples = 1<br/>value = [0, 1]>, fillcolor="#399de5ff"] ;
23 -> 24 ;
25 [label=<gini = 0.0<br/>samples = 4<br/>value = [5, 0]>, fillcolor="#e58139ff"] ;
23 -> 25 ;
26 [label=<jockey &le; 0.288<br/>gini = 0.169<br/>samples = 29<br/>value = [39, 4]>, fillcolor="#e58139e5"] ;
20 -> 26 ;
27 [label=<gini = 0.0<br/>samples = 20<br/>value = [31, 0]>, fillcolor="#e58139ff"] ;
26 -> 27 ;
28 [label=<umaban &le; 16.5<br/>gini = 0.444<br/>samples = 9<br/>value = [8, 4]>, fillcolor="#e581397f"] ;
26 -> 28 ;
29 [label=<umaban &le; 5.5<br/>gini = 0.32<br/>samples = 8<br/>value = [8, 2]>, fillcolor="#e58139bf"] ;
28 -> 29 ;
30 [label=<gini = 0.0<br/>samples = 1<br/>value = [0, 1]>, fillcolor="#399de5ff"] ;
29 -> 30 ;
31 [label=<frame_num &le; 5.5<br/>gini = 0.198<br/>samples = 7<br/>value = [8, 1]>, fillcolor="#e58139df"] ;
29 -> 31 ;
32 [label=<past3_result &le; 2.5<br/>gini = 0.444<br/>samples = 3<br/>value = [2, 1]>, fillcolor="#e581397f"] ;
31 -> 32 ;
33 [label=<gini = 0.0<br/>samples = 1<br/>value = [0, 1]>, fillcolor="#399de5ff"] ;
32 -> 33 ;
34 [label=<gini = 0.0<br/>samples = 2<br/>value = [2, 0]>, fillcolor="#e58139ff"] ;
32 -> 34 ;
35 [label=<gini = 0.0<br/>samples = 4<br/>value = [6, 0]>, fillcolor="#e58139ff"] ;
31 -> 35 ;
36 [label=<gini = 0.0<br/>samples = 1<br/>value = [0, 2]>, fillcolor="#399de5ff"] ;
28 -> 36 ;
37 [label=<win2 &le; 0.5<br/>gini = 0.435<br/>samples = 19<br/>value = [8, 17]>, fillcolor="#399de587"] ;
19 -> 37 ;
38 [label=<gini = 0.0<br/>samples = 1<br/>value = [2, 0]>, fillcolor="#e58139ff"] ;
37 -> 38 ;
39 [label=<age &le; 4.5<br/>gini = 0.386<br/>samples = 18<br/>value = [6, 17]>, fillcolor="#399de5a5"] ;
37 -> 39 ;
40 [label=<frame_num &le; 2.5<br/>gini = 0.32<br/>samples = 15<br/>value = [4, 16]>, fillcolor="#399de5bf"] ;
39 -> 40 ;
41 [label=<gini = 0.0<br/>samples = 5<br/>value = [0, 6]>, fillcolor="#399de5ff"] ;
40 -> 41 ;
42 [label=<frame_num &le; 3.5<br/>gini = 0.408<br/>samples = 10<br/>value = [4, 10]>, fillcolor="#399de599"] ;
40 -> 42 ;
43 [label=<gini = 0.0<br/>samples = 1<br/>value = [2, 0]>, fillcolor="#e58139ff"] ;
42 -> 43 ;
44 [label=<distance &le; 1800.0<br/>gini = 0.278<br/>samples = 9<br/>value = [2, 10]>, fillcolor="#399de5cc"] ;
42 -> 44 ;
45 [label=<gini = 0.0<br/>samples = 1<br/>value = [1, 0]>, fillcolor="#e58139ff"] ;
44 -> 45 ;
46 [label=<past2_result &le; 8.5<br/>gini = 0.165<br/>samples = 8<br/>value = [1, 10]>, fillcolor="#399de5e6"] ;
44 -> 46 ;
47 [label=<gini = 0.0<br/>samples = 7<br/>value = [0, 10]>, fillcolor="#399de5ff"] ;
46 -> 47 ;
48 [label=<gini = 0.0<br/>samples = 1<br/>value = [1, 0]>, fillcolor="#e58139ff"] ;
46 -> 48 ;
49 [label=<win2 &le; 1.5<br/>gini = 0.444<br/>samples = 3<br/>value = [2, 1]>, fillcolor="#e581397f"] ;
39 -> 49 ;
50 [label=<gini = 0.0<br/>samples = 2<br/>value = [2, 0]>, fillcolor="#e58139ff"] ;
49 -> 50 ;
51 [label=<gini = 0.0<br/>samples = 1<br/>value = [0, 1]>, fillcolor="#399de5ff"] ;
49 -> 51 ;
52 [label=<gini = 0.0<br/>samples = 1<br/>value = [0, 3]>, fillcolor="#399de5ff"] ;
18 -> 52 ;
53 [label=<past2_result &le; 8.5<br/>gini = 0.133<br/>samples = 32<br/>value = [52, 4]>, fillcolor="#e58139eb"] ;
1 -> 53 ;
54 [label=<jockey &le; 0.234<br/>gini = 0.078<br/>samples = 27<br/>value = [47, 2]>, fillcolor="#e58139f4"] ;
53 -> 54 ;
55 [label=<gini = 0.0<br/>samples = 16<br/>value = [31, 0]>, fillcolor="#e58139ff"] ;
54 -> 55 ;
56 [label=<past1_result &le; 4.5<br/>gini = 0.198<br/>samples = 11<br/>value = [16, 2]>, fillcolor="#e58139df"] ;
54 -> 56 ;
57 [label=<gini = 0.0<br/>samples = 6<br/>value = [11, 0]>, fillcolor="#e58139ff"] ;
56 -> 57 ;
58 [label=<jockey &le; 0.256<br/>gini = 0.408<br/>samples = 5<br/>value = [5, 2]>, fillcolor="#e5813999"] ;
56 -> 58 ;
59 [label=<gini = 0.0<br/>samples = 1<br/>value = [0, 1]>, fillcolor="#399de5ff"] ;
58 -> 59 ;
60 [label=<win3 &le; 4.5<br/>gini = 0.278<br/>samples = 4<br/>value = [5, 1]>, fillcolor="#e58139cc"] ;
58 -> 60 ;
61 [label=<gini = 0.0<br/>samples = 3<br/>value = [5, 0]>, fillcolor="#e58139ff"] ;
60 -> 61 ;
62 [label=<gini = 0.0<br/>samples = 1<br/>value = [0, 1]>, fillcolor="#399de5ff"] ;
60 -> 62 ;
63 [label=<gelding &le; 0.5<br/>gini = 0.408<br/>samples = 5<br/>value = [5, 2]>, fillcolor="#e5813999"] ;
53 -> 63 ;
64 [label=<gini = 0.0<br/>samples = 4<br/>value = [5, 0]>, fillcolor="#e58139ff"] ;
63 -> 64 ;
65 [label=<gini = 0.0<br/>samples = 1<br/>value = [0, 2]>, fillcolor="#399de5ff"] ;
63 -> 65 ;
66 [label=<umaban &le; 7.5<br/>gini = 0.455<br/>samples = 23<br/>value = [26, 14]>, fillcolor="#e5813976"] ;
0 -> 66 [labeldistance=2.5, labelangle=-45, headlabel="False"] ;
67 [label=<gini = 0.0<br/>samples = 10<br/>value = [14, 0]>, fillcolor="#e58139ff"] ;
66 -> 67 ;
68 [label=<age &le; 6.5<br/>gini = 0.497<br/>samples = 13<br/>value = [12, 14]>, fillcolor="#399de524"] ;
66 -> 68 ;
69 [label=<zougen &le; 1.0<br/>gini = 0.476<br/>samples = 12<br/>value = [9, 14]>, fillcolor="#399de55b"] ;
68 -> 69 ;
70 [label=<weight &le; 57.5<br/>gini = 0.42<br/>samples = 7<br/>value = [7, 3]>, fillcolor="#e5813992"] ;
69 -> 70 ;
71 [label=<gini = 0.0<br/>samples = 5<br/>value = [6, 0]>, fillcolor="#e58139ff"] ;
70 -> 71 ;
72 [label=<age &le; 5.5<br/>gini = 0.375<br/>samples = 2<br/>value = [1, 3]>, fillcolor="#399de5aa"] ;
70 -> 72 ;
73 [label=<gini = 0.0<br/>samples = 1<br/>value = [0, 3]>, fillcolor="#399de5ff"] ;
72 -> 73 ;
74 [label=<gini = 0.0<br/>samples = 1<br/>value = [1, 0]>, fillcolor="#e58139ff"] ;
72 -> 74 ;
75 [label=<win1 &le; 3.5<br/>gini = 0.26<br/>samples = 5<br/>value = [2, 11]>, fillcolor="#399de5d1"] ;
69 -> 75 ;
76 [label=<jockey &le; 0.381<br/>gini = 0.5<br/>samples = 2<br/>value = [2, 2]>, fillcolor="#e5813900"] ;
75 -> 76 ;
77 [label=<gini = 0.0<br/>samples = 1<br/>value = [2, 0]>, fillcolor="#e58139ff"] ;
76 -> 77 ;
78 [label=<gini = 0.0<br/>samples = 1<br/>value = [0, 2]>, fillcolor="#399de5ff"] ;
76 -> 78 ;
79 [label=<gini = 0.0<br/>samples = 3<br/>value = [0, 9]>, fillcolor="#399de5ff"] ;
75 -> 79 ;
80 [label=<gini = 0.0<br/>samples = 1<br/>value = [3, 0]>, fillcolor="#e58139ff"] ;
68 -> 80 ;
}