digraph Tree {
node [shape=box, style="filled", color="black"] ;
0 [label=<jockey &le; 0.403<br/>gini = 0.239<br/>samples = 144<br/>value = [199, 32]>, fillcolor="#e58139d6"] ;
1 [label=<past1_result &le; 5.5<br/>gini = 0.131<br/>samples = 107<br/>value = [159, 12]>, fillcolor="#e58139ec"] ;
0 -> 1 [labeldistance=2.5, labelangle=45, headlabel="True"] ;
2 [label=<past3_result &le; 3.5<br/>gini = 0.194<br/>samples = 67<br/>value = [98, 12]>, fillcolor="#e58139e0"] ;
1 -> 2 ;
3 [label=<horse_weight &le; 473.0<br/>gini = 0.271<br/>samples = 37<br/>value = [52, 10]>, fillcolor="#e58139ce"] ;
2 -> 3 ;
4 [label=<past2_result &le; 12.0<br/>gini = 0.061<br/>samples = 17<br/>value = [31, 1]>, fillcolor="#e58139f7"] ;
3 -> 4 ;
5 [label=<gini = 0.0<br/>samples = 15<br/>value = [28, 0]>, fillcolor="#e58139ff"] ;
4 -> 5 ;
6 [label=<past1_result &le; 3.0<br/>gini = 0.375<br/>samples = 2<br/>value = [3, 1]>, fillcolor="#e58139aa"] ;
4 -> 6 ;
7 [label=<gini = 0.0<br/>samples = 1<br/>value = [0, 1]>, fillcolor="#399de5ff"] ;
6 -> 7 ;
8 [label=<gini = 0.0<br/>samples = 1<br/>value = [3, 0]>, fillcolor="#e58139ff"] ;
6 -> 8 ;
9 [label=<jockey &le; 0.234<br/>gini = 0.42<br/>samples = 20<br/>value = [21, 9]>, fillcolor="#e5813992"] ;
3 -> 9 ;
10 [label=<gini = 0.0<br/>samples = 3<br/>value = [4, 0]>, fillcolor="#e58139ff"] ;
9 -> 10 ;
11 [label=<win1 &le; 1.5<br/>gini = 0.453<br/>samples = 17<br/>value = [17, 9]>, fillcolor="#e5813978"] ;
9 -> 11 ;
12 [label=<gini = 0.0<br/>samples = 2<br/>value = [0, 4]>, fillcolor="#399de5ff"] ;
11 -> 12 ;
13 [label=<distance &le; 1400.0<br/>gini = 0.351<br/>samples = 15<br/>value = [17, 5]>, fillcolor="#e58139b4"] ;
11 -> 13 ;
14 [label=<horse_weight &le; 495.0<br/>gini = 0.444<br/>samples = 3<br/>value = [1, 2]>, fillcolor="#399de57f"] ;
13 -> 14 ;
15 [label=<gini = 0.0<br/>samples = 1<br/>value = [1, 0]>, fillcolor="#e58139ff"] ;
14 -> 15 ;
16 [label=<gini = 0.0<br/>samples = 2<br/>value = [0, 2]>, fillcolor="#399de5ff"] ;
14 -> 16 ;
17 [label=<condition &le; 1.5<br/>gini = 0.266<br/>samples = 12<br/>value = [16, 3]>, fillcolor="#e58139cf"] ;
13 -> 17 ;
18 [label=<jockey &le; 0.269<br/>gini = 0.208<br/>samples = 10<br/>value = [15, 2]>, fillcolor="#e58139dd"] ;
17 -> 18 ;
19 [label=<gini = 0.0<br/>samples = 2<br/>value = [0, 2]>, fillcolor="#399de5ff"] ;
18 -> 19 ;
20 [label=<gini = 0.0<br/>samples = 8<br/>value = [15, 0]>, fillcolor="#e58139ff"] ;
18 -> 20 ;
21 [label=<distance &le; 2250.0<br/>gini = 0.5<br/>samples = 2<br/>value = [1, 1]>, fillcolor="#e5813900"] ;
17 -> 21 ;
22 [label=<gini = 0.0<br/>samples = 1<br/>value = [0, 1]>, fillcolor="#399de5ff"] ;
21 -> 22 ;
23 [label=<gini = 0.0<br/>samples = 1<br/>value = [1, 0]>, fillcolor="#e58139ff"] ;
21 -> 23 ;
24 [label=<win3 &le; 1.5<br/>gini = 0.08<br/>samples = 30<br/>value = [46, 2]>, fillcolor="#e58139f4"] ;
2 -> 24 ;
25 [label=<total_game &le; 10.5<br/>gini = 0.159<br/>samples = 18<br/>value = [21, 2]>, fillcolor="#e58139e7"] ;
24 -> 25 ;
26 [label=<condition &le; 1.5<br/>gini = 0.346<br/>samples = 8<br/>value = [7, 2]>, fillcolor="#e58139b6"] ;
25 -> 26 ;
27 [label=<past2_result &le; 1.5<br/>gini = 0.219<br/>samples = 7<br/>value = [7, 1]>, fillcolor="#e58139db"] ;
26 -> 27 ;
28 [label=<gini = 0.0<br/>samples = 1<br/>value = [0, 1]>, fillcolor="#399de5ff"] ;
27 -> 28 ;
29 [label=<gini = 0.0<br/>samples = 6<br/>value = [7, 0]>, fillcolor="#e58139ff"] ;
27 -> 29 ;
30 [label=<gini = 0.0<br/>samples = 1<br/>value = [0, 1]>, fillcolor="#399de5ff"] ;
26 -> 30 ;
31 [label=<gini = 0.0<br/>samples = 10<br/>value = [14, 0]>, fillcolor="#e58139ff"] ;
25 -> 31 ;
32 [label=<gini = 0.0<br/>samples = 12<br/>value = [25, 0]>, fillcolor="#e58139ff"] ;
24 -> 32 ;
33 [label=<gini = 0.0<br/>samples = 40<br/>value = [61, 0]>, fillcolor="#e58139ff"] ;
1 -> 33 ;
34 [label=<past3_result &le; 1.5<br/>gini = 0.444<br/>samples = 37<br/>value = [40, 20]>, fillcolor="#e581397f"] ;
0 -> 34 [labeldistance=2.5, labelangle=-45, headlabel="False"] ;
35 [label=<win2 &le; 1.5<br/>gini = 0.49<br/>samples = 16<br/>value = [12, 16]>, fillcolor="#399de540"] ;
34 -> 35 ;
36 [label=<frame_num &le; 3.5<br/>gini = 0.408<br/>samples = 11<br/>value = [6, 15]>, fillcolor="#399de599"] ;
35 -> 36 ;
37 [label=<gini = 0.0<br/>samples = 3<br/>value = [4, 0]>, fillcolor="#e58139ff"] ;
36 -> 37 ;
38 [label=<umaban &le; 14.5<br/>gini = 0.208<br/>samples = 8<br/>value = [2, 15]>, fillcolor="#399de5dd"] ;
36 -> 38 ;
39 [label=<weight &le; 56.0<br/>gini = 0.117<br/>samples = 7<br/>value = [1, 15]>, fillcolor="#399de5ee"] ;
38 -> 39 ;
40 [label=<gini = 0.0<br/>samples = 3<br/>value = [0, 6]>, fillcolor="#399de5ff"] ;
39 -> 40 ;
41 [label=<horse_weight &le; 501.0<br/>gini = 0.18<br/>samples = 4<br/>value = [1, 9]>, fillcolor="#399de5e3"] ;
39 -> 41 ;
42 [label=<gini = 0.0<br/>samples = 3<br/>value = [0, 9]>, fillcolor="#399de5ff"] ;
41 -> 42 ;
43 [label=<gini = 0.0<br/>samples = 1<br/>value = [1, 0]>, fillcolor="#e58139ff"] ;
41 -> 43 ;
44 [label=<gini = 0.0<br/>samples = 1<br/>value = [1, 0]>, fillcolor="#e58139ff"] ;
38 -> 44 ;
45 [label=<past1_result &le; 1.5<br/>gini = 0.245<br/>samples = 5<br/>value = [6, 1]>, fillcolor="#e58139d4"] ;
35 -> 45 ;
46 [label=<gini = 0.0<br/>samples = 1<br/>value = [0, 1]>, fillcolor="#399de5ff"] ;
45 -> 46 ;
47 [label=<gini = 0.0<br/>samples = 4<br/>value = [6, 0]>, fillcolor="#e58139ff"] ;
45 -> 47 ;
48 [label=<total_game &le; 3.5<br/>gini = 0.219<br/>samples = 21<br/>value = [28, 4]>, fillcolor="#e58139db"] ;
34 -> 48 ;
49 [label=<gini = 0.0<br/>samples = 1<br/>value = [0, 1]>, fillcolor="#399de5ff"] ;
48 -> 49 ;
50 [label=<zougen &le; -9.0<br/>gini = 0.175<br/>samples = 20<br/>value = [28, 3]>, fillcolor="#e58139e4"] ;
48 -> 50 ;
51 [label=<gini = 0.0<br/>samples = 1<br/>value = [0, 1]>, fillcolor="#399de5ff"] ;
50 -> 51 ;
52 [label=<horse_weight &le; 487.0<br/>gini = 0.124<br/>samples = 19<br/>value = [28, 2]>, fillcolor="#e58139ed"] ;
50 -> 52 ;
53 [label=<gini = 0.0<br/>samples = 9<br/>value = [17, 0]>, fillcolor="#e58139ff"] ;
52 -> 53 ;
54 [label=<zougen &le; -1.0<br/>gini = 0.26<br/>samples = 10<br/>value = [11, 2]>, fillcolor="#e58139d1"] ;
52 -> 54 ;
55 [label=<horse_weight &le; 516.0<br/>gini = 0.5<br/>samples = 2<br/>value = [1, 1]>, fillcolor="#e5813900"] ;
54 -> 55 ;
56 [label=<gini = 0.0<br/>samples = 1<br/>value = [0, 1]>, fillcolor="#399de5ff"] ;
55 -> 56 ;
57 [label=<gini = 0.0<br/>samples = 1<br/>value = [1, 0]>, fillcolor="#e58139ff"] ;
55 -> 57 ;
58 [label=<past3_result &le; 4.5<br/>gini = 0.165<br/>samples = 8<br/>value = [10, 1]>, fillcolor="#e58139e6"] ;
54 -> 58 ;
59 [label=<horse_weight &le; 492.0<br/>gini = 0.32<br/>samples = 5<br/>value = [4, 1]>, fillcolor="#e58139bf"] ;
58 -> 59 ;
60 [label=<gini = 0.0<br/>samples = 1<br/>value = [0, 1]>, fillcolor="#399de5ff"] ;
59 -> 60 ;
61 [label=<gini = 0.0<br/>samples = 4<br/>value = [4, 0]>, fillcolor="#e58139ff"] ;
59 -> 61 ;
62 [label=<gini = 0.0<br/>samples = 3<br/>value = [6, 0]>, fillcolor="#e58139ff"] ;
58 -> 62 ;
}