digraph Tree {
node [shape=box, style="filled", color="black"] ;
0 [label=<past3_result &le; 7.5<br/>gini = 0.358<br/>samples = 139<br/>value = [177, 54]>, fillcolor="#e58139b1"] ;
1 [label=<jockey &le; 0.289<br/>gini = 0.4<br/>samples = 117<br/>value = [141, 54]>, fillcolor="#e581399d"] ;
0 -> 1 [labeldistance=2.5, labelangle=45, headlabel="True"] ;
2 [label=<weight &le; 54.0<br/>gini = 0.172<br/>samples = 50<br/>value = [76, 8]>, fillcolor="#e58139e4"] ;
1 -> 2 ;
3 [label=<gini = 0.0<br/>samples = 1<br/>value = [0, 1]>, fillcolor="#399de5ff"] ;
2 -> 3 ;
4 [label=<past3_result &le; 6.5<br/>gini = 0.154<br/>samples = 49<br/>value = [76, 7]>, fillcolor="#e58139e8"] ;
2 -> 4 ;
5 [label=<weight &le; 55.5<br/>gini = 0.139<br/>samples = 47<br/>value = [74, 6]>, fillcolor="#e58139ea"] ;
4 -> 5 ;
6 [label=<jockey &le; 0.234<br/>gini = 0.32<br/>samples = 15<br/>value = [20, 5]>, fillcolor="#e58139bf"] ;
5 -> 6 ;
7 [label=<gini = 0.0<br/>samples = 5<br/>value = [11, 0]>, fillcolor="#e58139ff"] ;
6 -> 7 ;
8 [label=<frame_num &le; 5.0<br/>gini = 0.459<br/>samples = 10<br/>value = [9, 5]>, fillcolor="#e5813971"] ;
6 -> 8 ;
9 [label=<total_game &le; 5.5<br/>gini = 0.494<br/>samples = 7<br/>value = [4, 5]>, fillcolor="#399de533"] ;
8 -> 9 ;
10 [label=<gini = 0.0<br/>samples = 2<br/>value = [0, 3]>, fillcolor="#399de5ff"] ;
9 -> 10 ;
11 [label=<frame_num &le; 3.5<br/>gini = 0.444<br/>samples = 5<br/>value = [4, 2]>, fillcolor="#e581397f"] ;
9 -> 11 ;
12 [label=<gini = 0.0<br/>samples = 3<br/>value = [4, 0]>, fillcolor="#e58139ff"] ;
11 -> 12 ;
13 [label=<gini = 0.0<br/>samples = 2<br/>value = [0, 2]>, fillcolor="#399de5ff"] ;
11 -> 13 ;
14 [label=<gini = 0.0<br/>samples = 3<br/>value = [5, 0]>, fillcolor="#e58139ff"] ;
8 -> 14 ;
15 [label=<win2 &le; 3.5<br/>gini = 0.036<br/>samples = 32<br/>value = [54, 1]>, fillcolor="#e58139fa"] ;
5 -> 15 ;
16 [label=<gini = 0.0<br/>samples = 23<br/>value = [40, 0]>, fillcolor="#e58139ff"] ;
15 -> 16 ;
17 [label=<frame_num &le; 5.5<br/>gini = 0.124<br/>samples = 9<br/>value = [14, 1]>, fillcolor="#e58139ed"] ;
15 -> 17 ;
18 [label=<gini = 0.0<br/>samples = 5<br/>value = [10, 0]>, fillcolor="#e58139ff"] ;
17 -> 18 ;
19 [label=<zougen &le; -5.0<br/>gini = 0.32<br/>samples = 4<br/>value = [4, 1]>, fillcolor="#e58139bf"] ;
17 -> 19 ;
20 [label=<gini = 0.0<br/>samples = 1<br/>value = [0, 1]>, fillcolor="#399de5ff"] ;
19 -> 20 ;
21 [label=<gini = 0.0<br/>samples = 3<br/>value = [4, 0]>, fillcolor="#e58139ff"] ;
19 -> 21 ;
22 [label=<total_game &le; 19.5<br/>gini = 0.444<br/>samples = 2<br/>value = [2, 1]>, fillcolor="#e581397f"] ;
4 -> 22 ;
23 [label=<gini = 0.0<br/>samples = 1<br/>value = [2, 0]>, fillcolor="#e58139ff"] ;
22 -> 23 ;
24 [label=<gini = 0.0<br/>samples = 1<br/>value = [0, 1]>, fillcolor="#399de5ff"] ;
22 -> 24 ;
25 [label=<win2 &le; 0.5<br/>gini = 0.485<br/>samples = 67<br/>value = [65, 46]>, fillcolor="#e581394b"] ;
1 -> 25 ;
26 [label=<horse_weight &le; 493.0<br/>gini = 0.255<br/>samples = 11<br/>value = [17, 3]>, fillcolor="#e58139d2"] ;
25 -> 26 ;
27 [label=<gini = 0.0<br/>samples = 8<br/>value = [13, 0]>, fillcolor="#e58139ff"] ;
26 -> 27 ;
28 [label=<frame_num &le; 4.0<br/>gini = 0.49<br/>samples = 3<br/>value = [4, 3]>, fillcolor="#e5813940"] ;
26 -> 28 ;
29 [label=<gini = 0.0<br/>samples = 2<br/>value = [4, 0]>, fillcolor="#e58139ff"] ;
28 -> 29 ;
30 [label=<gini = 0.0<br/>samples = 1<br/>value = [0, 3]>, fillcolor="#399de5ff"] ;
28 -> 30 ;
31 [label=<umaban &le; 13.5<br/>gini = 0.498<br/>samples = 56<br/>value = [48, 43]>, fillcolor="#e581391b"] ;
25 -> 31 ;
32 [label=<weight &le; 57.5<br/>gini = 0.49<br/>samples = 44<br/>value = [30, 40]>, fillcolor="#399de540"] ;
31 -> 32 ;
33 [label=<past1_result &le; 13.5<br/>gini = 0.5<br/>samples = 33<br/>value = [23, 23]>, fillcolor="#e5813900"] ;
32 -> 33 ;
34 [label=<age &le; 4.5<br/>gini = 0.498<br/>samples = 32<br/>value = [20, 23]>, fillcolor="#399de521"] ;
33 -> 34 ;
35 [label=<umaban &le; 8.5<br/>gini = 0.459<br/>samples = 21<br/>value = [10, 18]>, fillcolor="#399de571"] ;
34 -> 35 ;
36 [label=<weight &le; 56.0<br/>gini = 0.499<br/>samples = 13<br/>value = [9, 10]>, fillcolor="#399de519"] ;
35 -> 36 ;
37 [label=<umaban &le; 2.0<br/>gini = 0.32<br/>samples = 5<br/>value = [4, 1]>, fillcolor="#e58139bf"] ;
36 -> 37 ;
38 [label=<gini = 0.0<br/>samples = 1<br/>value = [0, 1]>, fillcolor="#399de5ff"] ;
37 -> 38 ;
39 [label=<gini = 0.0<br/>samples = 4<br/>value = [4, 0]>, fillcolor="#e58139ff"] ;
37 -> 39 ;
40 [label=<win3 &le; 0.5<br/>gini = 0.459<br/>samples = 8<br/>value = [5, 9]>, fillcolor="#399de571"] ;
36 -> 40 ;
41 [label=<gini = 0.0<br/>samples = 2<br/>value = [4, 0]>, fillcolor="#e58139ff"] ;
40 -> 41 ;
42 [label=<distance &le; 2500.0<br/>gini = 0.18<br/>samples = 6<br/>value = [1, 9]>, fillcolor="#399de5e3"] ;
40 -> 42 ;
43 [label=<gini = 0.0<br/>samples = 5<br/>value = [0, 9]>, fillcolor="#399de5ff"] ;
42 -> 43 ;
44 [label=<gini = 0.0<br/>samples = 1<br/>value = [1, 0]>, fillcolor="#e58139ff"] ;
42 -> 44 ;
45 [label=<frame_num &le; 5.5<br/>gini = 0.198<br/>samples = 8<br/>value = [1, 8]>, fillcolor="#399de5df"] ;
35 -> 45 ;
46 [label=<win1 &le; 1.5<br/>gini = 0.375<br/>samples = 3<br/>value = [1, 3]>, fillcolor="#399de5aa"] ;
45 -> 46 ;
47 [label=<gini = 0.0<br/>samples = 1<br/>value = [0, 2]>, fillcolor="#399de5ff"] ;
46 -> 47 ;
48 [label=<zougen &le; 1.0<br/>gini = 0.5<br/>samples = 2<br/>value = [1, 1]>, fillcolor="#e5813900"] ;
46 -> 48 ;
49 [label=<gini = 0.0<br/>samples = 1<br/>value = [1, 0]>, fillcolor="#e58139ff"] ;
48 -> 49 ;
50 [label=<gini = 0.0<br/>samples = 1<br/>value = [0, 1]>, fillcolor="#399de5ff"] ;
48 -> 50 ;
51 [label=<gini = 0.0<br/>samples = 5<br/>value = [0, 5]>, fillcolor="#399de5ff"] ;
45 -> 51 ;
52 [label=<weight &le; 56.5<br/>gini = 0.444<br/>samples = 11<br/>value = [10, 5]>, fillcolor="#e581397f"] ;
34 -> 52 ;
53 [label=<jockey &le; 0.34<br/>gini = 0.444<br/>samples = 4<br/>value = [2, 4]>, fillcolor="#399de57f"] ;
52 -> 53 ;
54 [label=<gini = 0.0<br/>samples = 2<br/>value = [0, 4]>, fillcolor="#399de5ff"] ;
53 -> 54 ;
55 [label=<gini = 0.0<br/>samples = 2<br/>value = [2, 0]>, fillcolor="#e58139ff"] ;
53 -> 55 ;
56 [label=<past3_result &le; 1.5<br/>gini = 0.198<br/>samples = 7<br/>value = [8, 1]>, fillcolor="#e58139df"] ;
52 -> 56 ;
57 [label=<win3 &le; 3.0<br/>gini = 0.5<br/>samples = 2<br/>value = [1, 1]>, fillcolor="#e5813900"] ;
56 -> 57 ;
58 [label=<gini = 0.0<br/>samples = 1<br/>value = [0, 1]>, fillcolor="#399de5ff"] ;
57 -> 58 ;
59 [label=<gini = 0.0<br/>samples = 1<br/>value = [1, 0]>, fillcolor="#e58139ff"] ;
57 -> 59 ;
60 [label=<gini = 0.0<br/>samples = 5<br/>value = [7, 0]>, fillcolor="#e58139ff"] ;
56 -> 60 ;
61 [label=<gini = 0.0<br/>samples = 1<br/>value = [3, 0]>, fillcolor="#e58139ff"] ;
33 -> 61 ;
62 [label=<zougen &le; -1.0<br/>gini = 0.413<br/>samples = 11<br/>value = [7, 17]>, fillcolor="#399de596"] ;
32 -> 62 ;
63 [label=<frame_num &le; 7.0<br/>gini = 0.188<br/>samples = 7<br/>value = [2, 17]>, fillcolor="#399de5e1"] ;
62 -> 63 ;
64 [label=<gini = 0.0<br/>samples = 6<br/>value = [0, 17]>, fillcolor="#399de5ff"] ;
63 -> 64 ;
65 [label=<gini = 0.0<br/>samples = 1<br/>value = [2, 0]>, fillcolor="#e58139ff"] ;
63 -> 65 ;
66 [label=<gini = 0.0<br/>samples = 4<br/>value = [5, 0]>, fillcolor="#e58139ff"] ;
62 -> 66 ;
67 [label=<horse_weight &le; 520.0<br/>gini = 0.245<br/>samples = 12<br/>value = [18, 3]>, fillcolor="#e58139d4"] ;
31 -> 67 ;
68 [label=<distance &le; 1800.0<br/>gini = 0.1<br/>samples = 11<br/>value = [18, 1]>, fillcolor="#e58139f1"] ;
67 -> 68 ;
69 [label=<gini = 0.0<br/>samples = 6<br/>value = [11, 0]>, fillcolor="#e58139ff"] ;
68 -> 69 ;
70 [label=<past3_result &le; 1.5<br/>gini = 0.219<br/>samples = 5<br/>value = [7, 1]>, fillcolor="#e58139db"] ;
68 -> 70 ;
71 [label=<umaban &le; 15.5<br/>gini = 0.444<br/>samples = 2<br/>value = [2, 1]>, fillcolor="#e581397f"] ;
70 -> 71 ;
72 [label=<gini = 0.0<br/>samples = 1<br/>value = [0, 1]>, fillcolor="#399de5ff"] ;
71 -> 72 ;
73 [label=<gini = 0.0<br/>samples = 1<br/>value = [2, 0]>, fillcolor="#e58139ff"] ;
71 -> 73 ;
74 [label=<gini = 0.0<br/>samples = 3<br/>value = [5, 0]>, fillcolor="#e58139ff"] ;
70 -> 74 ;
75 [label=<gini = 0.0<br/>samples = 1<br/>value = [0, 2]>, fillcolor="#399de5ff"] ;
67 -> 75 ;
76 [label=<gini = 0.0<br/>samples = 22<br/>value = [36, 0]>, fillcolor="#e58139ff"] ;
0 -> 76 [labeldistance=2.5, labelangle=-45, headlabel="False"] ;
}