digraph Tree {
node [shape=box, style="filled", color="black"] ;
0 [label=<past2_result &le; 9.5<br/>gini = 0.22<br/>samples = 145<br/>value = [202, 29]>, fillcolor="#e58139da"] ;
1 [label=<age &le; 6.5<br/>gini = 0.244<br/>samples = 128<br/>value = [175, 29]>, fillcolor="#e58139d5"] ;
0 -> 1 [labeldistance=2.5, labelangle=45, headlabel="True"] ;
2 [label=<jockey &le; 0.261<br/>gini = 0.275<br/>samples = 112<br/>value = [142, 28]>, fillcolor="#e58139cd"] ;
1 -> 2 ;
3 [label=<total_game &le; 27.5<br/>gini = 0.033<br/>samples = 36<br/>value = [59, 1]>, fillcolor="#e58139fb"] ;
2 -> 3 ;
4 [label=<gini = 0.0<br/>samples = 32<br/>value = [54, 0]>, fillcolor="#e58139ff"] ;
3 -> 4 ;
5 [label=<past1_result &le; 5.5<br/>gini = 0.278<br/>samples = 4<br/>value = [5, 1]>, fillcolor="#e58139cc"] ;
3 -> 5 ;
6 [label=<gini = 0.0<br/>samples = 1<br/>value = [0, 1]>, fillcolor="#399de5ff"] ;
5 -> 6 ;
7 [label=<gini = 0.0<br/>samples = 3<br/>value = [5, 0]>, fillcolor="#e58139ff"] ;
5 -> 7 ;
8 [label=<distance &le; 3100.0<br/>gini = 0.37<br/>samples = 76<br/>value = [83, 27]>, fillcolor="#e58139ac"] ;
2 -> 8 ;
9 [label=<umaban &le; 13.5<br/>gini = 0.348<br/>samples = 75<br/>value = [83, 24]>, fillcolor="#e58139b5"] ;
8 -> 9 ;
10 [label=<jockey &le; 0.269<br/>gini = 0.408<br/>samples = 57<br/>value = [55, 22]>, fillcolor="#e5813999"] ;
9 -> 10 ;
11 [label=<gini = 0.0<br/>samples = 1<br/>value = [0, 2]>, fillcolor="#399de5ff"] ;
10 -> 11 ;
12 [label=<frame_num &le; 5.5<br/>gini = 0.391<br/>samples = 56<br/>value = [55, 20]>, fillcolor="#e58139a2"] ;
10 -> 12 ;
13 [label=<win2 &le; 2.5<br/>gini = 0.274<br/>samples = 41<br/>value = [46, 9]>, fillcolor="#e58139cd"] ;
12 -> 13 ;
14 [label=<frame_num &le; 3.5<br/>gini = 0.157<br/>samples = 24<br/>value = [32, 3]>, fillcolor="#e58139e7"] ;
13 -> 14 ;
15 [label=<gini = 0.0<br/>samples = 14<br/>value = [20, 0]>, fillcolor="#e58139ff"] ;
14 -> 15 ;
16 [label=<zougen &le; -1.0<br/>gini = 0.32<br/>samples = 10<br/>value = [12, 3]>, fillcolor="#e58139bf"] ;
14 -> 16 ;
17 [label=<gini = 0.0<br/>samples = 3<br/>value = [5, 0]>, fillcolor="#e58139ff"] ;
16 -> 17 ;
18 [label=<total_game &le; 17.0<br/>gini = 0.42<br/>samples = 7<br/>value = [7, 3]>, fillcolor="#e5813992"] ;
16 -> 18 ;
19 [label=<jockey &le; 0.478<br/>gini = 0.346<br/>samples = 6<br/>value = [7, 2]>, fillcolor="#e58139b6"] ;
18 -> 19 ;
20 [label=<jockey &le; 0.307<br/>gini = 0.444<br/>samples = 3<br/>value = [1, 2]>, fillcolor="#399de57f"] ;
19 -> 20 ;
21 [label=<gini = 0.0<br/>samples = 1<br/>value = [1, 0]>, fillcolor="#e58139ff"] ;
20 -> 21 ;
22 [label=<gini = 0.0<br/>samples = 2<br/>value = [0, 2]>, fillcolor="#399de5ff"] ;
20 -> 22 ;
23 [label=<gini = 0.0<br/>samples = 3<br/>value = [6, 0]>, fillcolor="#e58139ff"] ;
19 -> 23 ;
24 [label=<gini = 0.0<br/>samples = 1<br/>value = [0, 1]>, fillcolor="#399de5ff"] ;
18 -> 24 ;
25 [label=<weight &le; 57.5<br/>gini = 0.42<br/>samples = 17<br/>value = [14, 6]>, fillcolor="#e5813992"] ;
13 -> 25 ;
26 [label=<zougen &le; 7.0<br/>gini = 0.337<br/>samples = 12<br/>value = [11, 3]>, fillcolor="#e58139b9"] ;
25 -> 26 ;
27 [label=<win2 &le; 4.5<br/>gini = 0.153<br/>samples = 10<br/>value = [11, 1]>, fillcolor="#e58139e8"] ;
26 -> 27 ;
28 [label=<gini = 0.0<br/>samples = 6<br/>value = [7, 0]>, fillcolor="#e58139ff"] ;
27 -> 28 ;
29 [label=<past3_result &le; 4.5<br/>gini = 0.32<br/>samples = 4<br/>value = [4, 1]>, fillcolor="#e58139bf"] ;
27 -> 29 ;
30 [label=<gini = 0.0<br/>samples = 3<br/>value = [4, 0]>, fillcolor="#e58139ff"] ;
29 -> 30 ;
31 [label=<gini = 0.0<br/>samples = 1<br/>value = [0, 1]>, fillcolor="#399de5ff"] ;
29 -> 31 ;
32 [label=<gini = 0.0<br/>samples = 2<br/>value = [0, 2]>, fillcolor="#399de5ff"] ;
26 -> 32 ;
33 [label=<past2_result &le; 3.5<br/>gini = 0.5<br/>samples = 5<br/>value = [3, 3]>, fillcolor="#e5813900"] ;
25 -> 33 ;
34 [label=<gini = 0.0<br/>samples = 3<br/>value = [0, 3]>, fillcolor="#399de5ff"] ;
33 -> 34 ;
35 [label=<gini = 0.0<br/>samples = 2<br/>value = [3, 0]>, fillcolor="#e58139ff"] ;
33 -> 35 ;
36 [label=<jockey &le; 0.521<br/>gini = 0.495<br/>samples = 15<br/>value = [9, 11]>, fillcolor="#399de52e"] ;
12 -> 36 ;
37 [label=<past2_result &le; 8.0<br/>gini = 0.444<br/>samples = 8<br/>value = [8, 4]>, fillcolor="#e581397f"] ;
36 -> 37 ;
38 [label=<past3_result &le; 1.5<br/>gini = 0.198<br/>samples = 7<br/>value = [8, 1]>, fillcolor="#e58139df"] ;
37 -> 38 ;
39 [label=<horse_weight &le; 502.0<br/>gini = 0.444<br/>samples = 2<br/>value = [2, 1]>, fillcolor="#e581397f"] ;
38 -> 39 ;
40 [label=<gini = 0.0<br/>samples = 1<br/>value = [0, 1]>, fillcolor="#399de5ff"] ;
39 -> 40 ;
41 [label=<gini = 0.0<br/>samples = 1<br/>value = [2, 0]>, fillcolor="#e58139ff"] ;
39 -> 41 ;
42 [label=<gini = 0.0<br/>samples = 5<br/>value = [6, 0]>, fillcolor="#e58139ff"] ;
38 -> 42 ;
43 [label=<gini = 0.0<br/>samples = 1<br/>value = [0, 3]>, fillcolor="#399de5ff"] ;
37 -> 43 ;
44 [label=<past1_result &le; 1.5<br/>gini = 0.219<br/>samples = 7<br/>value = [1, 7]>, fillcolor="#399de5db"] ;
36 -> 44 ;
45 [label=<win3 &le; 1.5<br/>gini = 0.32<br/>samples = 5<br/>value = [1, 4]>, fillcolor="#399de5bf"] ;
44 -> 45 ;
46 [label=<gini = 0.0<br/>samples = 3<br/>value = [0, 3]>, fillcolor="#399de5ff"] ;
45 -> 46 ;
47 [label=<total_game &le; 10.0<br/>gini = 0.5<br/>samples = 2<br/>value = [1, 1]>, fillcolor="#e5813900"] ;
45 -> 47 ;
48 [label=<gini = 0.0<br/>samples = 1<br/>value = [1, 0]>, fillcolor="#e58139ff"] ;
47 -> 48 ;
49 [label=<gini = 0.0<br/>samples = 1<br/>value = [0, 1]>, fillcolor="#399de5ff"] ;
47 -> 49 ;
50 [label=<gini = 0.0<br/>samples = 2<br/>value = [0, 3]>, fillcolor="#399de5ff"] ;
44 -> 50 ;
51 [label=<horse_weight &le; 475.0<br/>gini = 0.124<br/>samples = 18<br/>value = [28, 2]>, fillcolor="#e58139ed"] ;
9 -> 51 ;
52 [label=<past1_result &le; 2.5<br/>gini = 0.32<br/>samples = 8<br/>value = [8, 2]>, fillcolor="#e58139bf"] ;
51 -> 52 ;
53 [label=<gini = 0.0<br/>samples = 6<br/>value = [8, 0]>, fillcolor="#e58139ff"] ;
52 -> 53 ;
54 [label=<gini = 0.0<br/>samples = 2<br/>value = [0, 2]>, fillcolor="#399de5ff"] ;
52 -> 54 ;
55 [label=<gini = 0.0<br/>samples = 10<br/>value = [20, 0]>, fillcolor="#e58139ff"] ;
51 -> 55 ;
56 [label=<gini = 0.0<br/>samples = 1<br/>value = [0, 3]>, fillcolor="#399de5ff"] ;
8 -> 56 ;
57 [label=<past3_result &le; 1.5<br/>gini = 0.057<br/>samples = 16<br/>value = [33, 1]>, fillcolor="#e58139f7"] ;
1 -> 57 ;
58 [label=<age &le; 7.5<br/>gini = 0.278<br/>samples = 3<br/>value = [5, 1]>, fillcolor="#e58139cc"] ;
57 -> 58 ;
59 [label=<gini = 0.0<br/>samples = 2<br/>value = [5, 0]>, fillcolor="#e58139ff"] ;
58 -> 59 ;
60 [label=<gini = 0.0<br/>samples = 1<br/>value = [0, 1]>, fillcolor="#399de5ff"] ;
58 -> 60 ;
61 [label=<gini = 0.0<br/>samples = 13<br/>value = [28, 0]>, fillcolor="#e58139ff"] ;
57 -> 61 ;
62 [label=<gini = 0.0<br/>samples = 17<br/>value = [27, 0]>, fillcolor="#e58139ff"] ;
0 -> 62 [labeldistance=2.5, labelangle=-45, headlabel="False"] ;
}