digraph Tree {
node [shape=box, style="filled", color="black"] ;
0 [label=<win2 &le; 0.5<br/>gini = 0.281<br/>samples = 146<br/>value = [192, 39]>, fillcolor="#e58139cb"] ;
1 [label=<gini = 0.0<br/>samples = 22<br/>value = [34, 0]>, fillcolor="#e58139ff"] ;
0 -> 1 [labeldistance=2.5, labelangle=45, headlabel="True"] ;
2 [label=<past3_result &le; 1.5<br/>gini = 0.318<br/>samples = 124<br/>value = [158, 39]>, fillcolor="#e58139c0"] ;
0 -> 2 [labeldistance=2.5, labelangle=-45, headlabel="False"] ;
3 [label=<past1_result &le; 3.5<br/>gini = 0.432<br/>samples = 36<br/>value = [39, 18]>, fillcolor="#e5813989"] ;
2 -> 3 ;
4 [label=<past3_result &le; 0.5<br/>gini = 0.489<br/>samples = 26<br/>value = [23, 17]>, fillcolor="#e5813943"] ;
3 -> 4 ;
5 [label=<gini = 0.0<br/>samples = 1<br/>value = [2, 0]>, fillcolor="#e58139ff"] ;
4 -> 5 ;
6 [label=<male &le; 0.5<br/>gini = 0.494<br/>samples = 25<br/>value = [21, 17]>, fillcolor="#e5813931"] ;
4 -> 6 ;
7 [label=<win1 &le; 2.5<br/>gini = 0.375<br/>samples = 11<br/>value = [12, 4]>, fillcolor="#e58139aa"] ;
6 -> 7 ;
8 [label=<gini = 0.0<br/>samples = 6<br/>value = [10, 0]>, fillcolor="#e58139ff"] ;
7 -> 8 ;
9 [label=<total_game &le; 16.5<br/>gini = 0.444<br/>samples = 5<br/>value = [2, 4]>, fillcolor="#399de57f"] ;
7 -> 9 ;
10 [label=<umaban &le; 10.0<br/>gini = 0.5<br/>samples = 4<br/>value = [2, 2]>, fillcolor="#e5813900"] ;
9 -> 10 ;
11 [label=<gini = 0.0<br/>samples = 2<br/>value = [2, 0]>, fillcolor="#e58139ff"] ;
10 -> 11 ;
12 [label=<gini = 0.0<br/>samples = 2<br/>value = [0, 2]>, fillcolor="#399de5ff"] ;
10 -> 12 ;
13 [label=<gini = 0.0<br/>samples = 1<br/>value = [0, 2]>, fillcolor="#399de5ff"] ;
9 -> 13 ;
14 [label=<frame_num &le; 1.5<br/>gini = 0.483<br/>samples = 14<br/>value = [9, 13]>, fillcolor="#399de54e"] ;
6 -> 14 ;
15 [label=<gini = 0.0<br/>samples = 2<br/>value = [4, 0]>, fillcolor="#e58139ff"] ;
14 -> 15 ;
16 [label=<horse_weight &le; 494.0<br/>gini = 0.401<br/>samples = 12<br/>value = [5, 13]>, fillcolor="#399de59d"] ;
14 -> 16 ;
17 [label=<age &le; 6.0<br/>gini = 0.153<br/>samples = 7<br/>value = [1, 11]>, fillcolor="#399de5e8"] ;
16 -> 17 ;
18 [label=<gini = 0.0<br/>samples = 6<br/>value = [0, 11]>, fillcolor="#399de5ff"] ;
17 -> 18 ;
19 [label=<gini = 0.0<br/>samples = 1<br/>value = [1, 0]>, fillcolor="#e58139ff"] ;
17 -> 19 ;
20 [label=<frame_num &le; 7.0<br/>gini = 0.444<br/>samples = 5<br/>value = [4, 2]>, fillcolor="#e581397f"] ;
16 -> 20 ;
21 [label=<gini = 0.0<br/>samples = 4<br/>value = [4, 0]>, fillcolor="#e58139ff"] ;
20 -> 21 ;
22 [label=<gini = 0.0<br/>samples = 1<br/>value = [0, 2]>, fillcolor="#399de5ff"] ;
20 -> 22 ;
23 [label=<jockey &le; 0.34<br/>gini = 0.111<br/>samples = 10<br/>value = [16, 1]>, fillcolor="#e58139ef"] ;
3 -> 23 ;
24 [label=<gini = 0.0<br/>samples = 7<br/>value = [13, 0]>, fillcolor="#e58139ff"] ;
23 -> 24 ;
25 [label=<win3 &le; 0.5<br/>gini = 0.375<br/>samples = 3<br/>value = [3, 1]>, fillcolor="#e58139aa"] ;
23 -> 25 ;
26 [label=<gini = 0.0<br/>samples = 1<br/>value = [0, 1]>, fillcolor="#399de5ff"] ;
25 -> 26 ;
27 [label=<gini = 0.0<br/>samples = 2<br/>value = [3, 0]>, fillcolor="#e58139ff"] ;
25 -> 27 ;
28 [label=<past3_result &le; 9.5<br/>gini = 0.255<br/>samples = 88<br/>value = [119, 21]>, fillcolor="#e58139d2"] ;
2 -> 28 ;
29 [label=<umaban &le; 1.5<br/>gini = 0.283<br/>samples = 76<br/>value = [102, 21]>, fillcolor="#e58139ca"] ;
28 -> 29 ;
30 [label=<past2_result &le; 4.0<br/>gini = 0.5<br/>samples = 3<br/>value = [3, 3]>, fillcolor="#e5813900"] ;
29 -> 30 ;
31 [label=<weight &le; 56.0<br/>gini = 0.375<br/>samples = 2<br/>value = [1, 3]>, fillcolor="#399de5aa"] ;
30 -> 31 ;
32 [label=<gini = 0.0<br/>samples = 1<br/>value = [0, 3]>, fillcolor="#399de5ff"] ;
31 -> 32 ;
33 [label=<gini = 0.0<br/>samples = 1<br/>value = [1, 0]>, fillcolor="#e58139ff"] ;
31 -> 33 ;
34 [label=<gini = 0.0<br/>samples = 1<br/>value = [2, 0]>, fillcolor="#e58139ff"] ;
30 -> 34 ;
35 [label=<zougen &le; -13.0<br/>gini = 0.26<br/>samples = 73<br/>value = [99, 18]>, fillcolor="#e58139d1"] ;
29 -> 35 ;
36 [label=<total_game &le; 15.5<br/>gini = 0.5<br/>samples = 2<br/>value = [2, 2]>, fillcolor="#e5813900"] ;
35 -> 36 ;
37 [label=<gini = 0.0<br/>samples = 1<br/>value = [0, 2]>, fillcolor="#399de5ff"] ;
36 -> 37 ;
38 [label=<gini = 0.0<br/>samples = 1<br/>value = [2, 0]>, fillcolor="#e58139ff"] ;
36 -> 38 ;
39 [label=<age &le; 6.5<br/>gini = 0.243<br/>samples = 71<br/>value = [97, 16]>, fillcolor="#e58139d5"] ;
35 -> 39 ;
40 [label=<female &le; 0.5<br/>gini = 0.285<br/>samples = 59<br/>value = [77, 16]>, fillcolor="#e58139ca"] ;
39 -> 40 ;
41 [label=<distance &le; 2750.0<br/>gini = 0.348<br/>samples = 35<br/>value = [45, 13]>, fillcolor="#e58139b5"] ;
40 -> 41 ;
42 [label=<jockey &le; 0.332<br/>gini = 0.311<br/>samples = 31<br/>value = [42, 10]>, fillcolor="#e58139c2"] ;
41 -> 42 ;
43 [label=<zougen &le; -5.0<br/>gini = 0.077<br/>samples = 15<br/>value = [24, 1]>, fillcolor="#e58139f4"] ;
42 -> 43 ;
44 [label=<gelding &le; 0.5<br/>gini = 0.375<br/>samples = 3<br/>value = [3, 1]>, fillcolor="#e58139aa"] ;
43 -> 44 ;
45 [label=<gini = 0.0<br/>samples = 2<br/>value = [3, 0]>, fillcolor="#e58139ff"] ;
44 -> 45 ;
46 [label=<gini = 0.0<br/>samples = 1<br/>value = [0, 1]>, fillcolor="#399de5ff"] ;
44 -> 46 ;
47 [label=<gini = 0.0<br/>samples = 12<br/>value = [21, 0]>, fillcolor="#e58139ff"] ;
43 -> 47 ;
48 [label=<age &le; 4.5<br/>gini = 0.444<br/>samples = 16<br/>value = [18, 9]>, fillcolor="#e581397f"] ;
42 -> 48 ;
49 [label=<past3_result &le; 3.5<br/>gini = 0.497<br/>samples = 9<br/>value = [6, 7]>, fillcolor="#399de524"] ;
48 -> 49 ;
50 [label=<gini = 0.0<br/>samples = 5<br/>value = [6, 0]>, fillcolor="#e58139ff"] ;
49 -> 50 ;
51 [label=<gini = 0.0<br/>samples = 4<br/>value = [0, 7]>, fillcolor="#399de5ff"] ;
49 -> 51 ;
52 [label=<past3_result &le; 3.0<br/>gini = 0.245<br/>samples = 7<br/>value = [12, 2]>, fillcolor="#e58139d4"] ;
48 -> 52 ;
53 [label=<gini = 0.0<br/>samples = 1<br/>value = [0, 2]>, fillcolor="#399de5ff"] ;
52 -> 53 ;
54 [label=<gini = 0.0<br/>samples = 6<br/>value = [12, 0]>, fillcolor="#e58139ff"] ;
52 -> 54 ;
55 [label=<past2_result &le; 3.5<br/>gini = 0.5<br/>samples = 4<br/>value = [3, 3]>, fillcolor="#e5813900"] ;
41 -> 55 ;
56 [label=<gini = 0.0<br/>samples = 2<br/>value = [3, 0]>, fillcolor="#e58139ff"] ;
55 -> 56 ;
57 [label=<gini = 0.0<br/>samples = 2<br/>value = [0, 3]>, fillcolor="#399de5ff"] ;
55 -> 57 ;
58 [label=<total_game &le; 3.5<br/>gini = 0.157<br/>samples = 24<br/>value = [32, 3]>, fillcolor="#e58139e7"] ;
40 -> 58 ;
59 [label=<gini = 0.0<br/>samples = 1<br/>value = [0, 1]>, fillcolor="#399de5ff"] ;
58 -> 59 ;
60 [label=<distance &le; 2100.0<br/>gini = 0.111<br/>samples = 23<br/>value = [32, 2]>, fillcolor="#e58139ef"] ;
58 -> 60 ;
61 [label=<horse_weight &le; 497.0<br/>gini = 0.067<br/>samples = 18<br/>value = [28, 1]>, fillcolor="#e58139f6"] ;
60 -> 61 ;
62 [label=<gini = 0.0<br/>samples = 15<br/>value = [24, 0]>, fillcolor="#e58139ff"] ;
61 -> 62 ;
63 [label=<weight &le; 56.5<br/>gini = 0.32<br/>samples = 3<br/>value = [4, 1]>, fillcolor="#e58139bf"] ;
61 -> 63 ;
64 [label=<gini = 0.0<br/>samples = 2<br/>value = [4, 0]>, fillcolor="#e58139ff"] ;
63 -> 64 ;
65 [label=<gini = 0.0<br/>samples = 1<br/>value = [0, 1]>, fillcolor="#399de5ff"] ;
63 -> 65 ;
66 [label=<win2 &le; 2.5<br/>gini = 0.32<br/>samples = 5<br/>value = [4, 1]>, fillcolor="#e58139bf"] ;
60 -> 66 ;
67 [label=<weight &le; 55.5<br/>gini = 0.5<br/>samples = 2<br/>value = [1, 1]>, fillcolor="#e5813900"] ;
66 -> 67 ;
68 [label=<gini = 0.0<br/>samples = 1<br/>value = [1, 0]>, fillcolor="#e58139ff"] ;
67 -> 68 ;
69 [label=<gini = 0.0<br/>samples = 1<br/>value = [0, 1]>, fillcolor="#399de5ff"] ;
67 -> 69 ;
70 [label=<gini = 0.0<br/>samples = 3<br/>value = [3, 0]>, fillcolor="#e58139ff"] ;
66 -> 70 ;
71 [label=<gini = 0.0<br/>samples = 12<br/>value = [20, 0]>, fillcolor="#e58139ff"] ;
39 -> 71 ;
72 [label=<gini = 0.0<br/>samples = 12<br/>value = [17, 0]>, fillcolor="#e58139ff"] ;
28 -> 72 ;
}