digraph Tree {
node [shape=box, style="filled", color="black"] ;
0 [label=<umaban &le; 12.5<br/>gini = 0.303<br/>samples = 145<br/>value = [188, 43]>, fillcolor="#e58139c5"] ;
1 [label=<age &le; 6.5<br/>gini = 0.361<br/>samples = 104<br/>value = [126, 39]>, fillcolor="#e58139b0"] ;
0 -> 1 [labeldistance=2.5, labelangle=45, headlabel="True"] ;
2 [label=<zougen &le; 7.0<br/>gini = 0.398<br/>samples = 92<br/>value = [103, 39]>, fillcolor="#e581399e"] ;
1 -> 2 ;
3 [label=<past3_result &le; 7.5<br/>gini = 0.361<br/>samples = 82<br/>value = [97, 30]>, fillcolor="#e58139b0"] ;
2 -> 3 ;
4 [label=<umaban &le; 7.5<br/>gini = 0.4<br/>samples = 71<br/>value = [76, 29]>, fillcolor="#e581399e"] ;
3 -> 4 ;
5 [label=<total_game &le; 27.5<br/>gini = 0.264<br/>samples = 44<br/>value = [54, 10]>, fillcolor="#e58139d0"] ;
4 -> 5 ;
6 [label=<jockey &le; 0.234<br/>gini = 0.225<br/>samples = 43<br/>value = [54, 8]>, fillcolor="#e58139d9"] ;
5 -> 6 ;
7 [label=<gini = 0.0<br/>samples = 10<br/>value = [19, 0]>, fillcolor="#e58139ff"] ;
6 -> 7 ;
8 [label=<jockey &le; 0.237<br/>gini = 0.303<br/>samples = 33<br/>value = [35, 8]>, fillcolor="#e58139c5"] ;
6 -> 8 ;
9 [label=<gini = 0.0<br/>samples = 1<br/>value = [0, 1]>, fillcolor="#399de5ff"] ;
8 -> 9 ;
10 [label=<jockey &le; 0.382<br/>gini = 0.278<br/>samples = 32<br/>value = [35, 7]>, fillcolor="#e58139cc"] ;
8 -> 10 ;
11 [label=<past2_result &le; 1.5<br/>gini = 0.204<br/>samples = 20<br/>value = [23, 3]>, fillcolor="#e58139de"] ;
10 -> 11 ;
12 [label=<horse_weight &le; 471.0<br/>gini = 0.42<br/>samples = 8<br/>value = [7, 3]>, fillcolor="#e5813992"] ;
11 -> 12 ;
13 [label=<win2 &le; 4.0<br/>gini = 0.245<br/>samples = 5<br/>value = [6, 1]>, fillcolor="#e58139d4"] ;
12 -> 13 ;
14 [label=<gini = 0.0<br/>samples = 4<br/>value = [6, 0]>, fillcolor="#e58139ff"] ;
13 -> 14 ;
15 [label=<gini = 0.0<br/>samples = 1<br/>value = [0, 1]>, fillcolor="#399de5ff"] ;
13 -> 15 ;
16 [label=<win1 &le; 4.5<br/>gini = 0.444<br/>samples = 3<br/>value = [1, 2]>, fillcolor="#399de57f"] ;
12 -> 16 ;
17 [label=<gini = 0.0<br/>samples = 2<br/>value = [0, 2]>, fillcolor="#399de5ff"] ;
16 -> 17 ;
18 [label=<gini = 0.0<br/>samples = 1<br/>value = [1, 0]>, fillcolor="#e58139ff"] ;
16 -> 18 ;
19 [label=<gini = 0.0<br/>samples = 12<br/>value = [16, 0]>, fillcolor="#e58139ff"] ;
11 -> 19 ;
20 [label=<win1 &le; 3.5<br/>gini = 0.375<br/>samples = 12<br/>value = [12, 4]>, fillcolor="#e58139aa"] ;
10 -> 20 ;
21 [label=<horse_weight &le; 491.0<br/>gini = 0.49<br/>samples = 6<br/>value = [4, 3]>, fillcolor="#e5813940"] ;
20 -> 21 ;
22 [label=<umaban &le; 2.5<br/>gini = 0.32<br/>samples = 4<br/>value = [4, 1]>, fillcolor="#e58139bf"] ;
21 -> 22 ;
23 [label=<gini = 0.0<br/>samples = 1<br/>value = [0, 1]>, fillcolor="#399de5ff"] ;
22 -> 23 ;
24 [label=<gini = 0.0<br/>samples = 3<br/>value = [4, 0]>, fillcolor="#e58139ff"] ;
22 -> 24 ;
25 [label=<gini = 0.0<br/>samples = 2<br/>value = [0, 2]>, fillcolor="#399de5ff"] ;
21 -> 25 ;
26 [label=<horse_weight &le; 488.0<br/>gini = 0.198<br/>samples = 6<br/>value = [8, 1]>, fillcolor="#e58139df"] ;
20 -> 26 ;
27 [label=<gini = 0.0<br/>samples = 1<br/>value = [0, 1]>, fillcolor="#399de5ff"] ;
26 -> 27 ;
28 [label=<gini = 0.0<br/>samples = 5<br/>value = [8, 0]>, fillcolor="#e58139ff"] ;
26 -> 28 ;
29 [label=<gini = 0.0<br/>samples = 1<br/>value = [0, 2]>, fillcolor="#399de5ff"] ;
5 -> 29 ;
30 [label=<zougen &le; -4.0<br/>gini = 0.497<br/>samples = 27<br/>value = [22, 19]>, fillcolor="#e5813923"] ;
4 -> 30 ;
31 [label=<gini = 0.0<br/>samples = 3<br/>value = [0, 5]>, fillcolor="#399de5ff"] ;
30 -> 31 ;
32 [label=<past2_result &le; 9.0<br/>gini = 0.475<br/>samples = 24<br/>value = [22, 14]>, fillcolor="#e581395d"] ;
30 -> 32 ;
33 [label=<umaban &le; 9.5<br/>gini = 0.492<br/>samples = 21<br/>value = [18, 14]>, fillcolor="#e5813939"] ;
32 -> 33 ;
34 [label=<zougen &le; -1.0<br/>gini = 0.375<br/>samples = 9<br/>value = [3, 9]>, fillcolor="#399de5aa"] ;
33 -> 34 ;
35 [label=<gini = 0.0<br/>samples = 2<br/>value = [2, 0]>, fillcolor="#e58139ff"] ;
34 -> 35 ;
36 [label=<past2_result &le; 5.5<br/>gini = 0.18<br/>samples = 7<br/>value = [1, 9]>, fillcolor="#399de5e3"] ;
34 -> 36 ;
37 [label=<gini = 0.0<br/>samples = 5<br/>value = [0, 8]>, fillcolor="#399de5ff"] ;
36 -> 37 ;
38 [label=<horse_weight &le; 453.0<br/>gini = 0.5<br/>samples = 2<br/>value = [1, 1]>, fillcolor="#e5813900"] ;
36 -> 38 ;
39 [label=<gini = 0.0<br/>samples = 1<br/>value = [0, 1]>, fillcolor="#399de5ff"] ;
38 -> 39 ;
40 [label=<gini = 0.0<br/>samples = 1<br/>value = [1, 0]>, fillcolor="#e58139ff"] ;
38 -> 40 ;
41 [label=<total_game &le; 3.5<br/>gini = 0.375<br/>samples = 12<br/>value = [15, 5]>, fillcolor="#e58139aa"] ;
33 -> 41 ;
42 [label=<gini = 0.0<br/>samples = 1<br/>value = [0, 2]>, fillcolor="#399de5ff"] ;
41 -> 42 ;
43 [label=<win3 &le; 3.5<br/>gini = 0.278<br/>samples = 11<br/>value = [15, 3]>, fillcolor="#e58139cc"] ;
41 -> 43 ;
44 [label=<horse_weight &le; 491.0<br/>gini = 0.124<br/>samples = 9<br/>value = [14, 1]>, fillcolor="#e58139ed"] ;
43 -> 44 ;
45 [label=<gini = 0.0<br/>samples = 7<br/>value = [11, 0]>, fillcolor="#e58139ff"] ;
44 -> 45 ;
46 [label=<jockey &le; 0.381<br/>gini = 0.375<br/>samples = 2<br/>value = [3, 1]>, fillcolor="#e58139aa"] ;
44 -> 46 ;
47 [label=<gini = 0.0<br/>samples = 1<br/>value = [0, 1]>, fillcolor="#399de5ff"] ;
46 -> 47 ;
48 [label=<gini = 0.0<br/>samples = 1<br/>value = [3, 0]>, fillcolor="#e58139ff"] ;
46 -> 48 ;
49 [label=<win3 &le; 4.5<br/>gini = 0.444<br/>samples = 2<br/>value = [1, 2]>, fillcolor="#399de57f"] ;
43 -> 49 ;
50 [label=<gini = 0.0<br/>samples = 1<br/>value = [0, 2]>, fillcolor="#399de5ff"] ;
49 -> 50 ;
51 [label=<gini = 0.0<br/>samples = 1<br/>value = [1, 0]>, fillcolor="#e58139ff"] ;
49 -> 51 ;
52 [label=<gini = 0.0<br/>samples = 3<br/>value = [4, 0]>, fillcolor="#e58139ff"] ;
32 -> 52 ;
53 [label=<umaban &le; 9.5<br/>gini = 0.087<br/>samples = 11<br/>value = [21, 1]>, fillcolor="#e58139f3"] ;
3 -> 53 ;
54 [label=<gini = 0.0<br/>samples = 10<br/>value = [21, 0]>, fillcolor="#e58139ff"] ;
53 -> 54 ;
55 [label=<gini = 0.0<br/>samples = 1<br/>value = [0, 1]>, fillcolor="#399de5ff"] ;
53 -> 55 ;
56 [label=<win2 &le; 2.0<br/>gini = 0.48<br/>samples = 10<br/>value = [6, 9]>, fillcolor="#399de555"] ;
2 -> 56 ;
57 [label=<frame_num &le; 5.5<br/>gini = 0.278<br/>samples = 5<br/>value = [5, 1]>, fillcolor="#e58139cc"] ;
56 -> 57 ;
58 [label=<gini = 0.0<br/>samples = 4<br/>value = [5, 0]>, fillcolor="#e58139ff"] ;
57 -> 58 ;
59 [label=<gini = 0.0<br/>samples = 1<br/>value = [0, 1]>, fillcolor="#399de5ff"] ;
57 -> 59 ;
60 [label=<win1 &le; 6.0<br/>gini = 0.198<br/>samples = 5<br/>value = [1, 8]>, fillcolor="#399de5df"] ;
56 -> 60 ;
61 [label=<gini = 0.0<br/>samples = 4<br/>value = [0, 8]>, fillcolor="#399de5ff"] ;
60 -> 61 ;
62 [label=<gini = 0.0<br/>samples = 1<br/>value = [1, 0]>, fillcolor="#e58139ff"] ;
60 -> 62 ;
63 [label=<gini = 0.0<br/>samples = 12<br/>value = [23, 0]>, fillcolor="#e58139ff"] ;
1 -> 63 ;
64 [label=<zougen &le; -1.0<br/>gini = 0.114<br/>samples = 41<br/>value = [62, 4]>, fillcolor="#e58139ef"] ;
0 -> 64 [labeldistance=2.5, labelangle=-45, headlabel="False"] ;
65 [label=<horse_weight &le; 506.0<br/>gini = 0.202<br/>samples = 23<br/>value = [31, 4]>, fillcolor="#e58139de"] ;
64 -> 65 ;
66 [label=<win3 &le; 0.5<br/>gini = 0.124<br/>samples = 19<br/>value = [28, 2]>, fillcolor="#e58139ed"] ;
65 -> 66 ;
67 [label=<total_game &le; 2.5<br/>gini = 0.408<br/>samples = 5<br/>value = [5, 2]>, fillcolor="#e5813999"] ;
66 -> 67 ;
68 [label=<gini = 0.0<br/>samples = 1<br/>value = [2, 0]>, fillcolor="#e58139ff"] ;
67 -> 68 ;
69 [label=<past2_result &le; 4.5<br/>gini = 0.48<br/>samples = 4<br/>value = [3, 2]>, fillcolor="#e5813955"] ;
67 -> 69 ;
70 [label=<zougen &le; -5.0<br/>gini = 0.5<br/>samples = 3<br/>value = [2, 2]>, fillcolor="#e5813900"] ;
69 -> 70 ;
71 [label=<gini = 0.0<br/>samples = 1<br/>value = [2, 0]>, fillcolor="#e58139ff"] ;
70 -> 71 ;
72 [label=<gini = 0.0<br/>samples = 2<br/>value = [0, 2]>, fillcolor="#399de5ff"] ;
70 -> 72 ;
73 [label=<gini = 0.0<br/>samples = 1<br/>value = [1, 0]>, fillcolor="#e58139ff"] ;
69 -> 73 ;
74 [label=<gini = 0.0<br/>samples = 14<br/>value = [23, 0]>, fillcolor="#e58139ff"] ;
66 -> 74 ;
75 [label=<win2 &le; 1.5<br/>gini = 0.48<br/>samples = 4<br/>value = [3, 2]>, fillcolor="#e5813955"] ;
65 -> 75 ;
76 [label=<gini = 0.0<br/>samples = 2<br/>value = [3, 0]>, fillcolor="#e58139ff"] ;
75 -> 76 ;
77 [label=<gini = 0.0<br/>samples = 2<br/>value = [0, 2]>, fillcolor="#399de5ff"] ;
75 -> 77 ;
78 [label=<gini = 0.0<br/>samples = 18<br/>value = [31, 0]>, fillcolor="#e58139ff"] ;
64 -> 78 ;
}