digraph Tree {
node [shape=box, style="filled", color="black"] ;
0 [label=<condition &le; 1.5<br/>gini = 0.334<br/>samples = 148<br/>value = [182, 49]>, fillcolor="#e58139ba"] ;
1 [label=<past1_result &le; 5.5<br/>gini = 0.372<br/>samples = 117<br/>value = [137, 45]>, fillcolor="#e58139ab"] ;
0 -> 1 [labeldistance=2.5, labelangle=45, headlabel="True"] ;
2 [label=<weight &le; 55.5<br/>gini = 0.446<br/>samples = 81<br/>value = [83, 42]>, fillcolor="#e581397e"] ;
1 -> 2 ;
3 [label=<horse_weight &le; 487.0<br/>gini = 0.495<br/>samples = 22<br/>value = [14, 17]>, fillcolor="#399de52d"] ;
2 -> 3 ;
4 [label=<past1_result &le; 1.5<br/>gini = 0.432<br/>samples = 16<br/>value = [13, 6]>, fillcolor="#e5813989"] ;
3 -> 4 ;
5 [label=<past2_result &le; 1.5<br/>gini = 0.5<br/>samples = 10<br/>value = [6, 6]>, fillcolor="#e5813900"] ;
4 -> 5 ;
6 [label=<umaban &le; 8.0<br/>gini = 0.278<br/>samples = 5<br/>value = [1, 5]>, fillcolor="#399de5cc"] ;
5 -> 6 ;
7 [label=<gini = 0.0<br/>samples = 1<br/>value = [1, 0]>, fillcolor="#e58139ff"] ;
6 -> 7 ;
8 [label=<gini = 0.0<br/>samples = 4<br/>value = [0, 5]>, fillcolor="#399de5ff"] ;
6 -> 8 ;
9 [label=<frame_num &le; 1.5<br/>gini = 0.278<br/>samples = 5<br/>value = [5, 1]>, fillcolor="#e58139cc"] ;
5 -> 9 ;
10 [label=<gini = 0.0<br/>samples = 1<br/>value = [0, 1]>, fillcolor="#399de5ff"] ;
9 -> 10 ;
11 [label=<gini = 0.0<br/>samples = 4<br/>value = [5, 0]>, fillcolor="#e58139ff"] ;
9 -> 11 ;
12 [label=<gini = 0.0<br/>samples = 6<br/>value = [7, 0]>, fillcolor="#e58139ff"] ;
4 -> 12 ;
13 [label=<zougen &le; -11.0<br/>gini = 0.153<br/>samples = 6<br/>value = [1, 11]>, fillcolor="#399de5e8"] ;
3 -> 13 ;
14 [label=<gini = 0.0<br/>samples = 1<br/>value = [1, 0]>, fillcolor="#e58139ff"] ;
13 -> 14 ;
15 [label=<gini = 0.0<br/>samples = 5<br/>value = [0, 11]>, fillcolor="#399de5ff"] ;
13 -> 15 ;
16 [label=<jockey &le; 0.43<br/>gini = 0.39<br/>samples = 59<br/>value = [69, 25]>, fillcolor="#e58139a3"] ;
2 -> 16 ;
17 [label=<zougen &le; 1.0<br/>gini = 0.198<br/>samples = 43<br/>value = [56, 7]>, fillcolor="#e58139df"] ;
16 -> 17 ;
18 [label=<past1_result &le; 1.5<br/>gini = 0.26<br/>samples = 28<br/>value = [33, 6]>, fillcolor="#e58139d1"] ;
17 -> 18 ;
19 [label=<age &le; 5.5<br/>gini = 0.408<br/>samples = 8<br/>value = [10, 4]>, fillcolor="#e5813999"] ;
18 -> 19 ;
20 [label=<distance &le; 3100.0<br/>gini = 0.278<br/>samples = 7<br/>value = [10, 2]>, fillcolor="#e58139cc"] ;
19 -> 20 ;
21 [label=<past3_result &le; 1.5<br/>gini = 0.165<br/>samples = 6<br/>value = [10, 1]>, fillcolor="#e58139e6"] ;
20 -> 21 ;
22 [label=<gini = 0.0<br/>samples = 1<br/>value = [0, 1]>, fillcolor="#399de5ff"] ;
21 -> 22 ;
23 [label=<gini = 0.0<br/>samples = 5<br/>value = [10, 0]>, fillcolor="#e58139ff"] ;
21 -> 23 ;
24 [label=<gini = 0.0<br/>samples = 1<br/>value = [0, 1]>, fillcolor="#399de5ff"] ;
20 -> 24 ;
25 [label=<gini = 0.0<br/>samples = 1<br/>value = [0, 2]>, fillcolor="#399de5ff"] ;
19 -> 25 ;
26 [label=<frame_num &le; 3.5<br/>gini = 0.147<br/>samples = 20<br/>value = [23, 2]>, fillcolor="#e58139e9"] ;
18 -> 26 ;
27 [label=<umaban &le; 4.5<br/>gini = 0.346<br/>samples = 9<br/>value = [7, 2]>, fillcolor="#e58139b6"] ;
26 -> 27 ;
28 [label=<jockey &le; 0.166<br/>gini = 0.219<br/>samples = 8<br/>value = [7, 1]>, fillcolor="#e58139db"] ;
27 -> 28 ;
29 [label=<gini = 0.0<br/>samples = 1<br/>value = [0, 1]>, fillcolor="#399de5ff"] ;
28 -> 29 ;
30 [label=<gini = 0.0<br/>samples = 7<br/>value = [7, 0]>, fillcolor="#e58139ff"] ;
28 -> 30 ;
31 [label=<gini = 0.0<br/>samples = 1<br/>value = [0, 1]>, fillcolor="#399de5ff"] ;
27 -> 31 ;
32 [label=<gini = 0.0<br/>samples = 11<br/>value = [16, 0]>, fillcolor="#e58139ff"] ;
26 -> 32 ;
33 [label=<win1 &le; 1.5<br/>gini = 0.08<br/>samples = 15<br/>value = [23, 1]>, fillcolor="#e58139f4"] ;
17 -> 33 ;
34 [label=<gini = 0.0<br/>samples = 1<br/>value = [0, 1]>, fillcolor="#399de5ff"] ;
33 -> 34 ;
35 [label=<gini = 0.0<br/>samples = 14<br/>value = [23, 0]>, fillcolor="#e58139ff"] ;
33 -> 35 ;
36 [label=<total_game &le; 15.5<br/>gini = 0.487<br/>samples = 16<br/>value = [13, 18]>, fillcolor="#399de547"] ;
16 -> 36 ;
37 [label=<zougen &le; -2.0<br/>gini = 0.426<br/>samples = 13<br/>value = [8, 18]>, fillcolor="#399de58e"] ;
36 -> 37 ;
38 [label=<gini = 0.0<br/>samples = 4<br/>value = [0, 8]>, fillcolor="#399de5ff"] ;
37 -> 38 ;
39 [label=<win1 &le; 3.5<br/>gini = 0.494<br/>samples = 9<br/>value = [8, 10]>, fillcolor="#399de533"] ;
37 -> 39 ;
40 [label=<gini = 0.0<br/>samples = 3<br/>value = [0, 5]>, fillcolor="#399de5ff"] ;
39 -> 40 ;
41 [label=<total_game &le; 12.5<br/>gini = 0.473<br/>samples = 6<br/>value = [8, 5]>, fillcolor="#e5813960"] ;
39 -> 41 ;
42 [label=<gini = 0.0<br/>samples = 4<br/>value = [8, 0]>, fillcolor="#e58139ff"] ;
41 -> 42 ;
43 [label=<gini = 0.0<br/>samples = 2<br/>value = [0, 5]>, fillcolor="#399de5ff"] ;
41 -> 43 ;
44 [label=<gini = 0.0<br/>samples = 3<br/>value = [5, 0]>, fillcolor="#e58139ff"] ;
36 -> 44 ;
45 [label=<past3_result &le; 1.5<br/>gini = 0.1<br/>samples = 36<br/>value = [54, 3]>, fillcolor="#e58139f1"] ;
1 -> 45 ;
46 [label=<win2 &le; 2.5<br/>gini = 0.198<br/>samples = 16<br/>value = [24, 3]>, fillcolor="#e58139df"] ;
45 -> 46 ;
47 [label=<gini = 0.0<br/>samples = 12<br/>value = [21, 0]>, fillcolor="#e58139ff"] ;
46 -> 47 ;
48 [label=<zougen &le; 4.5<br/>gini = 0.5<br/>samples = 4<br/>value = [3, 3]>, fillcolor="#e5813900"] ;
46 -> 48 ;
49 [label=<weight &le; 56.0<br/>gini = 0.375<br/>samples = 3<br/>value = [3, 1]>, fillcolor="#e58139aa"] ;
48 -> 49 ;
50 [label=<gini = 0.0<br/>samples = 1<br/>value = [2, 0]>, fillcolor="#e58139ff"] ;
49 -> 50 ;
51 [label=<distance &le; 2300.0<br/>gini = 0.5<br/>samples = 2<br/>value = [1, 1]>, fillcolor="#e5813900"] ;
49 -> 51 ;
52 [label=<gini = 0.0<br/>samples = 1<br/>value = [1, 0]>, fillcolor="#e58139ff"] ;
51 -> 52 ;
53 [label=<gini = 0.0<br/>samples = 1<br/>value = [0, 1]>, fillcolor="#399de5ff"] ;
51 -> 53 ;
54 [label=<gini = 0.0<br/>samples = 1<br/>value = [0, 2]>, fillcolor="#399de5ff"] ;
48 -> 54 ;
55 [label=<gini = 0.0<br/>samples = 20<br/>value = [30, 0]>, fillcolor="#e58139ff"] ;
45 -> 55 ;
56 [label=<horse_weight &le; 533.0<br/>gini = 0.15<br/>samples = 31<br/>value = [45, 4]>, fillcolor="#e58139e8"] ;
0 -> 56 [labeldistance=2.5, labelangle=-45, headlabel="False"] ;
57 [label=<win3 &le; 5.5<br/>gini = 0.117<br/>samples = 30<br/>value = [45, 3]>, fillcolor="#e58139ee"] ;
56 -> 57 ;
58 [label=<horse_weight &le; 441.0<br/>gini = 0.085<br/>samples = 28<br/>value = [43, 2]>, fillcolor="#e58139f3"] ;
57 -> 58 ;
59 [label=<jockey &le; 0.404<br/>gini = 0.32<br/>samples = 2<br/>value = [4, 1]>, fillcolor="#e58139bf"] ;
58 -> 59 ;
60 [label=<gini = 0.0<br/>samples = 1<br/>value = [0, 1]>, fillcolor="#399de5ff"] ;
59 -> 60 ;
61 [label=<gini = 0.0<br/>samples = 1<br/>value = [4, 0]>, fillcolor="#e58139ff"] ;
59 -> 61 ;
62 [label=<zougen &le; 3.0<br/>gini = 0.049<br/>samples = 26<br/>value = [39, 1]>, fillcolor="#e58139f8"] ;
58 -> 62 ;
63 [label=<gini = 0.0<br/>samples = 17<br/>value = [25, 0]>, fillcolor="#e58139ff"] ;
62 -> 63 ;
64 [label=<past3_result &le; 1.5<br/>gini = 0.124<br/>samples = 9<br/>value = [14, 1]>, fillcolor="#e58139ed"] ;
62 -> 64 ;
65 [label=<zougen &le; 6.0<br/>gini = 0.375<br/>samples = 3<br/>value = [3, 1]>, fillcolor="#e58139aa"] ;
64 -> 65 ;
66 [label=<gini = 0.0<br/>samples = 1<br/>value = [0, 1]>, fillcolor="#399de5ff"] ;
65 -> 66 ;
67 [label=<gini = 0.0<br/>samples = 2<br/>value = [3, 0]>, fillcolor="#e58139ff"] ;
65 -> 67 ;
68 [label=<gini = 0.0<br/>samples = 6<br/>value = [11, 0]>, fillcolor="#e58139ff"] ;
64 -> 68 ;
69 [label=<past1_result &le; 7.5<br/>gini = 0.444<br/>samples = 2<br/>value = [2, 1]>, fillcolor="#e581397f"] ;
57 -> 69 ;
70 [label=<gini = 0.0<br/>samples = 1<br/>value = [0, 1]>, fillcolor="#399de5ff"] ;
69 -> 70 ;
71 [label=<gini = 0.0<br/>samples = 1<br/>value = [2, 0]>, fillcolor="#e58139ff"] ;
69 -> 71 ;
72 [label=<gini = 0.0<br/>samples = 1<br/>value = [0, 1]>, fillcolor="#399de5ff"] ;
56 -> 72 ;
}