digraph Tree {
node [shape=box, style="filled", color="black"] ;
0 [label=<past2_result &le; 2.5<br/>gini = 0.329<br/>samples = 139<br/>value = [183, 48]>, fillcolor="#e58139bc"] ;
1 [label=<total_game &le; 13.5<br/>gini = 0.432<br/>samples = 59<br/>value = [65, 30]>, fillcolor="#e5813989"] ;
0 -> 1 [labeldistance=2.5, labelangle=45, headlabel="True"] ;
2 [label=<jockey &le; 0.288<br/>gini = 0.491<br/>samples = 37<br/>value = [34, 26]>, fillcolor="#e581393c"] ;
1 -> 2 ;
3 [label=<win2 &le; 4.5<br/>gini = 0.255<br/>samples = 14<br/>value = [17, 3]>, fillcolor="#e58139d2"] ;
2 -> 3 ;
4 [label=<win1 &le; 3.5<br/>gini = 0.188<br/>samples = 13<br/>value = [17, 2]>, fillcolor="#e58139e1"] ;
3 -> 4 ;
5 [label=<gini = 0.0<br/>samples = 11<br/>value = [15, 0]>, fillcolor="#e58139ff"] ;
4 -> 5 ;
6 [label=<condition &le; 1.5<br/>gini = 0.5<br/>samples = 2<br/>value = [2, 2]>, fillcolor="#e5813900"] ;
4 -> 6 ;
7 [label=<gini = 0.0<br/>samples = 1<br/>value = [0, 2]>, fillcolor="#399de5ff"] ;
6 -> 7 ;
8 [label=<gini = 0.0<br/>samples = 1<br/>value = [2, 0]>, fillcolor="#e58139ff"] ;
6 -> 8 ;
9 [label=<gini = 0.0<br/>samples = 1<br/>value = [0, 1]>, fillcolor="#399de5ff"] ;
3 -> 9 ;
10 [label=<umaban &le; 14.0<br/>gini = 0.489<br/>samples = 23<br/>value = [17, 23]>, fillcolor="#399de543"] ;
2 -> 10 ;
11 [label=<frame_num &le; 4.5<br/>gini = 0.457<br/>samples = 19<br/>value = [12, 22]>, fillcolor="#399de574"] ;
10 -> 11 ;
12 [label=<horse_weight &le; 504.0<br/>gini = 0.484<br/>samples = 10<br/>value = [10, 7]>, fillcolor="#e581394d"] ;
11 -> 12 ;
13 [label=<zougen &le; 1.0<br/>gini = 0.165<br/>samples = 8<br/>value = [10, 1]>, fillcolor="#e58139e6"] ;
12 -> 13 ;
14 [label=<umaban &le; 6.5<br/>gini = 0.375<br/>samples = 4<br/>value = [3, 1]>, fillcolor="#e58139aa"] ;
13 -> 14 ;
15 [label=<gini = 0.0<br/>samples = 3<br/>value = [3, 0]>, fillcolor="#e58139ff"] ;
14 -> 15 ;
16 [label=<gini = 0.0<br/>samples = 1<br/>value = [0, 1]>, fillcolor="#399de5ff"] ;
14 -> 16 ;
17 [label=<gini = 0.0<br/>samples = 4<br/>value = [7, 0]>, fillcolor="#e58139ff"] ;
13 -> 17 ;
18 [label=<gini = 0.0<br/>samples = 2<br/>value = [0, 6]>, fillcolor="#399de5ff"] ;
12 -> 18 ;
19 [label=<age &le; 4.5<br/>gini = 0.208<br/>samples = 9<br/>value = [2, 15]>, fillcolor="#399de5dd"] ;
11 -> 19 ;
20 [label=<gini = 0.0<br/>samples = 8<br/>value = [0, 15]>, fillcolor="#399de5ff"] ;
19 -> 20 ;
21 [label=<gini = 0.0<br/>samples = 1<br/>value = [2, 0]>, fillcolor="#e58139ff"] ;
19 -> 21 ;
22 [label=<win1 &le; 2.0<br/>gini = 0.278<br/>samples = 4<br/>value = [5, 1]>, fillcolor="#e58139cc"] ;
10 -> 22 ;
23 [label=<female &le; 0.5<br/>gini = 0.5<br/>samples = 2<br/>value = [1, 1]>, fillcolor="#e5813900"] ;
22 -> 23 ;
24 [label=<gini = 0.0<br/>samples = 1<br/>value = [0, 1]>, fillcolor="#399de5ff"] ;
23 -> 24 ;
25 [label=<gini = 0.0<br/>samples = 1<br/>value = [1, 0]>, fillcolor="#e58139ff"] ;
23 -> 25 ;
26 [label=<gini = 0.0<br/>samples = 2<br/>value = [4, 0]>, fillcolor="#e58139ff"] ;
22 -> 26 ;
27 [label=<umaban &le; 2.5<br/>gini = 0.202<br/>samples = 22<br/>value = [31, 4]>, fillcolor="#e58139de"] ;
1 -> 27 ;
28 [label=<gini = 0.0<br/>samples = 1<br/>value = [0, 2]>, fillcolor="#399de5ff"] ;
27 -> 28 ;
29 [label=<win1 &le; 10.5<br/>gini = 0.114<br/>samples = 21<br/>value = [31, 2]>, fillcolor="#e58139ef"] ;
27 -> 29 ;
30 [label=<win1 &le; 4.5<br/>gini = 0.061<br/>samples = 20<br/>value = [31, 1]>, fillcolor="#e58139f7"] ;
29 -> 30 ;
31 [label=<distance &le; 1800.0<br/>gini = 0.5<br/>samples = 2<br/>value = [1, 1]>, fillcolor="#e5813900"] ;
30 -> 31 ;
32 [label=<gini = 0.0<br/>samples = 1<br/>value = [0, 1]>, fillcolor="#399de5ff"] ;
31 -> 32 ;
33 [label=<gini = 0.0<br/>samples = 1<br/>value = [1, 0]>, fillcolor="#e58139ff"] ;
31 -> 33 ;
34 [label=<gini = 0.0<br/>samples = 18<br/>value = [30, 0]>, fillcolor="#e58139ff"] ;
30 -> 34 ;
35 [label=<gini = 0.0<br/>samples = 1<br/>value = [0, 1]>, fillcolor="#399de5ff"] ;
29 -> 35 ;
36 [label=<jockey &le; 0.43<br/>gini = 0.23<br/>samples = 80<br/>value = [118, 18]>, fillcolor="#e58139d8"] ;
0 -> 36 [labeldistance=2.5, labelangle=-45, headlabel="False"] ;
37 [label=<past1_result &le; 5.5<br/>gini = 0.142<br/>samples = 66<br/>value = [108, 9]>, fillcolor="#e58139ea"] ;
36 -> 37 ;
38 [label=<win2 &le; 7.5<br/>gini = 0.227<br/>samples = 42<br/>value = [60, 9]>, fillcolor="#e58139d9"] ;
37 -> 38 ;
39 [label=<horse_weight &le; 438.0<br/>gini = 0.187<br/>samples = 41<br/>value = [60, 7]>, fillcolor="#e58139e1"] ;
38 -> 39 ;
40 [label=<past3_result &le; 4.5<br/>gini = 0.49<br/>samples = 5<br/>value = [4, 3]>, fillcolor="#e5813940"] ;
39 -> 40 ;
41 [label=<win3 &le; 0.5<br/>gini = 0.32<br/>samples = 4<br/>value = [4, 1]>, fillcolor="#e58139bf"] ;
40 -> 41 ;
42 [label=<win2 &le; 1.5<br/>gini = 0.5<br/>samples = 2<br/>value = [1, 1]>, fillcolor="#e5813900"] ;
41 -> 42 ;
43 [label=<gini = 0.0<br/>samples = 1<br/>value = [1, 0]>, fillcolor="#e58139ff"] ;
42 -> 43 ;
44 [label=<gini = 0.0<br/>samples = 1<br/>value = [0, 1]>, fillcolor="#399de5ff"] ;
42 -> 44 ;
45 [label=<gini = 0.0<br/>samples = 2<br/>value = [3, 0]>, fillcolor="#e58139ff"] ;
41 -> 45 ;
46 [label=<gini = 0.0<br/>samples = 1<br/>value = [0, 2]>, fillcolor="#399de5ff"] ;
40 -> 46 ;
47 [label=<condition &le; 1.5<br/>gini = 0.124<br/>samples = 36<br/>value = [56, 4]>, fillcolor="#e58139ed"] ;
39 -> 47 ;
48 [label=<umaban &le; 7.5<br/>gini = 0.077<br/>samples = 30<br/>value = [48, 2]>, fillcolor="#e58139f4"] ;
47 -> 48 ;
49 [label=<gini = 0.0<br/>samples = 14<br/>value = [25, 0]>, fillcolor="#e58139ff"] ;
48 -> 49 ;
50 [label=<age &le; 4.0<br/>gini = 0.147<br/>samples = 16<br/>value = [23, 2]>, fillcolor="#e58139e9"] ;
48 -> 50 ;
51 [label=<gini = 0.0<br/>samples = 8<br/>value = [15, 0]>, fillcolor="#e58139ff"] ;
50 -> 51 ;
52 [label=<past2_result &le; 5.0<br/>gini = 0.32<br/>samples = 8<br/>value = [8, 2]>, fillcolor="#e58139bf"] ;
50 -> 52 ;
53 [label=<gini = 0.0<br/>samples = 3<br/>value = [5, 0]>, fillcolor="#e58139ff"] ;
52 -> 53 ;
54 [label=<female &le; 0.5<br/>gini = 0.48<br/>samples = 5<br/>value = [3, 2]>, fillcolor="#e5813955"] ;
52 -> 54 ;
55 [label=<distance &le; 2600.0<br/>gini = 0.375<br/>samples = 4<br/>value = [3, 1]>, fillcolor="#e58139aa"] ;
54 -> 55 ;
56 [label=<gini = 0.0<br/>samples = 3<br/>value = [3, 0]>, fillcolor="#e58139ff"] ;
55 -> 56 ;
57 [label=<gini = 0.0<br/>samples = 1<br/>value = [0, 1]>, fillcolor="#399de5ff"] ;
55 -> 57 ;
58 [label=<gini = 0.0<br/>samples = 1<br/>value = [0, 1]>, fillcolor="#399de5ff"] ;
54 -> 58 ;
59 [label=<past1_result &le; 2.5<br/>gini = 0.32<br/>samples = 6<br/>value = [8, 2]>, fillcolor="#e58139bf"] ;
47 -> 59 ;
60 [label=<gini = 0.0<br/>samples = 3<br/>value = [4, 0]>, fillcolor="#e58139ff"] ;
59 -> 60 ;
61 [label=<age &le; 4.5<br/>gini = 0.444<br/>samples = 3<br/>value = [4, 2]>, fillcolor="#e581397f"] ;
59 -> 61 ;
62 [label=<gini = 0.0<br/>samples = 1<br/>value = [0, 1]>, fillcolor="#399de5ff"] ;
61 -> 62 ;
63 [label=<frame_num &le; 6.0<br/>gini = 0.32<br/>samples = 2<br/>value = [4, 1]>, fillcolor="#e58139bf"] ;
61 -> 63 ;
64 [label=<gini = 0.0<br/>samples = 1<br/>value = [4, 0]>, fillcolor="#e58139ff"] ;
63 -> 64 ;
65 [label=<gini = 0.0<br/>samples = 1<br/>value = [0, 1]>, fillcolor="#399de5ff"] ;
63 -> 65 ;
66 [label=<gini = 0.0<br/>samples = 1<br/>value = [0, 2]>, fillcolor="#399de5ff"] ;
38 -> 66 ;
67 [label=<gini = 0.0<br/>samples = 24<br/>value = [48, 0]>, fillcolor="#e58139ff"] ;
37 -> 67 ;
68 [label=<distance &le; 2450.0<br/>gini = 0.499<br/>samples = 14<br/>value = [10, 9]>, fillcolor="#e5813919"] ;
36 -> 68 ;
69 [label=<past1_result &le; 6.0<br/>gini = 0.459<br/>samples = 12<br/>value = [5, 9]>, fillcolor="#399de571"] ;
68 -> 69 ;
70 [label=<weight &le; 54.5<br/>gini = 0.32<br/>samples = 9<br/>value = [2, 8]>, fillcolor="#399de5bf"] ;
69 -> 70 ;
71 [label=<gini = 0.0<br/>samples = 1<br/>value = [1, 0]>, fillcolor="#e58139ff"] ;
70 -> 71 ;
72 [label=<past2_result &le; 8.5<br/>gini = 0.198<br/>samples = 8<br/>value = [1, 8]>, fillcolor="#399de5df"] ;
70 -> 72 ;
73 [label=<gini = 0.0<br/>samples = 7<br/>value = [0, 8]>, fillcolor="#399de5ff"] ;
72 -> 73 ;
74 [label=<gini = 0.0<br/>samples = 1<br/>value = [1, 0]>, fillcolor="#e58139ff"] ;
72 -> 74 ;
75 [label=<condition &le; 1.5<br/>gini = 0.375<br/>samples = 3<br/>value = [3, 1]>, fillcolor="#e58139aa"] ;
69 -> 75 ;
76 [label=<gini = 0.0<br/>samples = 1<br/>value = [0, 1]>, fillcolor="#399de5ff"] ;
75 -> 76 ;
77 [label=<gini = 0.0<br/>samples = 2<br/>value = [3, 0]>, fillcolor="#e58139ff"] ;
75 -> 77 ;
78 [label=<gini = 0.0<br/>samples = 2<br/>value = [5, 0]>, fillcolor="#e58139ff"] ;
68 -> 78 ;
}