digraph Tree {
node [shape=box, style="filled", color="black"] ;
0 [label=<jockey &le; 0.43<br/>gini = 0.275<br/>samples = 152<br/>value = [193, 38]>, fillcolor="#e58139cd"] ;
1 [label=<win3 &le; 5.5<br/>gini = 0.175<br/>samples = 121<br/>value = [168, 18]>, fillcolor="#e58139e4"] ;
0 -> 1 [labeldistance=2.5, labelangle=45, headlabel="True"] ;
2 [label=<distance &le; 3100.0<br/>gini = 0.147<br/>samples = 113<br/>value = [161, 14]>, fillcolor="#e58139e9"] ;
1 -> 2 ;
3 [label=<past3_result &le; 1.5<br/>gini = 0.131<br/>samples = 110<br/>value = [159, 12]>, fillcolor="#e58139ec"] ;
2 -> 3 ;
4 [label=<win2 &le; 6.5<br/>gini = 0.231<br/>samples = 33<br/>value = [39, 6]>, fillcolor="#e58139d8"] ;
3 -> 4 ;
5 [label=<frame_num &le; 6.5<br/>gini = 0.201<br/>samples = 32<br/>value = [39, 5]>, fillcolor="#e58139de"] ;
4 -> 5 ;
6 [label=<umaban &le; 9.5<br/>gini = 0.32<br/>samples = 19<br/>value = [20, 5]>, fillcolor="#e58139bf"] ;
5 -> 6 ;
7 [label=<past2_result &le; 10.0<br/>gini = 0.245<br/>samples = 15<br/>value = [18, 3]>, fillcolor="#e58139d4"] ;
6 -> 7 ;
8 [label=<frame_num &le; 1.5<br/>gini = 0.18<br/>samples = 14<br/>value = [18, 2]>, fillcolor="#e58139e3"] ;
7 -> 8 ;
9 [label=<total_game &le; 6.0<br/>gini = 0.444<br/>samples = 4<br/>value = [4, 2]>, fillcolor="#e581397f"] ;
8 -> 9 ;
10 [label=<gini = 0.0<br/>samples = 1<br/>value = [0, 2]>, fillcolor="#399de5ff"] ;
9 -> 10 ;
11 [label=<gini = 0.0<br/>samples = 3<br/>value = [4, 0]>, fillcolor="#e58139ff"] ;
9 -> 11 ;
12 [label=<gini = 0.0<br/>samples = 10<br/>value = [14, 0]>, fillcolor="#e58139ff"] ;
8 -> 12 ;
13 [label=<gini = 0.0<br/>samples = 1<br/>value = [0, 1]>, fillcolor="#399de5ff"] ;
7 -> 13 ;
14 [label=<win1 &le; 2.5<br/>gini = 0.5<br/>samples = 4<br/>value = [2, 2]>, fillcolor="#e5813900"] ;
6 -> 14 ;
15 [label=<gini = 0.0<br/>samples = 1<br/>value = [1, 0]>, fillcolor="#e58139ff"] ;
14 -> 15 ;
16 [label=<distance &le; 1800.0<br/>gini = 0.444<br/>samples = 3<br/>value = [1, 2]>, fillcolor="#399de57f"] ;
14 -> 16 ;
17 [label=<gini = 0.0<br/>samples = 1<br/>value = [1, 0]>, fillcolor="#e58139ff"] ;
16 -> 17 ;
18 [label=<gini = 0.0<br/>samples = 2<br/>value = [0, 2]>, fillcolor="#399de5ff"] ;
16 -> 18 ;
19 [label=<gini = 0.0<br/>samples = 13<br/>value = [19, 0]>, fillcolor="#e58139ff"] ;
5 -> 19 ;
20 [label=<gini = 0.0<br/>samples = 1<br/>value = [0, 1]>, fillcolor="#399de5ff"] ;
4 -> 20 ;
21 [label=<gelding &le; 0.5<br/>gini = 0.091<br/>samples = 77<br/>value = [120, 6]>, fillcolor="#e58139f2"] ;
3 -> 21 ;
22 [label=<jockey &le; 0.288<br/>gini = 0.078<br/>samples = 74<br/>value = [118, 5]>, fillcolor="#e58139f4"] ;
21 -> 22 ;
23 [label=<gini = 0.0<br/>samples = 39<br/>value = [65, 0]>, fillcolor="#e58139ff"] ;
22 -> 23 ;
24 [label=<past3_result &le; 4.5<br/>gini = 0.158<br/>samples = 35<br/>value = [53, 5]>, fillcolor="#e58139e7"] ;
22 -> 24 ;
25 [label=<gini = 0.0<br/>samples = 19<br/>value = [34, 0]>, fillcolor="#e58139ff"] ;
24 -> 25 ;
26 [label=<umaban &le; 3.5<br/>gini = 0.33<br/>samples = 16<br/>value = [19, 5]>, fillcolor="#e58139bc"] ;
24 -> 26 ;
27 [label=<gini = 0.0<br/>samples = 4<br/>value = [8, 0]>, fillcolor="#e58139ff"] ;
26 -> 27 ;
28 [label=<male &le; 0.5<br/>gini = 0.43<br/>samples = 12<br/>value = [11, 5]>, fillcolor="#e581398b"] ;
26 -> 28 ;
29 [label=<past2_result &le; 11.0<br/>gini = 0.32<br/>samples = 4<br/>value = [1, 4]>, fillcolor="#399de5bf"] ;
28 -> 29 ;
30 [label=<gini = 0.0<br/>samples = 3<br/>value = [0, 4]>, fillcolor="#399de5ff"] ;
29 -> 30 ;
31 [label=<gini = 0.0<br/>samples = 1<br/>value = [1, 0]>, fillcolor="#e58139ff"] ;
29 -> 31 ;
32 [label=<jockey &le; 0.359<br/>gini = 0.165<br/>samples = 8<br/>value = [10, 1]>, fillcolor="#e58139e6"] ;
28 -> 32 ;
33 [label=<gini = 0.0<br/>samples = 5<br/>value = [6, 0]>, fillcolor="#e58139ff"] ;
32 -> 33 ;
34 [label=<frame_num &le; 4.0<br/>gini = 0.32<br/>samples = 3<br/>value = [4, 1]>, fillcolor="#e58139bf"] ;
32 -> 34 ;
35 [label=<gini = 0.0<br/>samples = 1<br/>value = [0, 1]>, fillcolor="#399de5ff"] ;
34 -> 35 ;
36 [label=<gini = 0.0<br/>samples = 2<br/>value = [4, 0]>, fillcolor="#e58139ff"] ;
34 -> 36 ;
37 [label=<zougen &le; -5.0<br/>gini = 0.444<br/>samples = 3<br/>value = [2, 1]>, fillcolor="#e581397f"] ;
21 -> 37 ;
38 [label=<gini = 0.0<br/>samples = 1<br/>value = [0, 1]>, fillcolor="#399de5ff"] ;
37 -> 38 ;
39 [label=<gini = 0.0<br/>samples = 2<br/>value = [2, 0]>, fillcolor="#e58139ff"] ;
37 -> 39 ;
40 [label=<past2_result &le; 7.5<br/>gini = 0.5<br/>samples = 3<br/>value = [2, 2]>, fillcolor="#e5813900"] ;
2 -> 40 ;
41 [label=<gini = 0.0<br/>samples = 2<br/>value = [2, 0]>, fillcolor="#e58139ff"] ;
40 -> 41 ;
42 [label=<gini = 0.0<br/>samples = 1<br/>value = [0, 2]>, fillcolor="#399de5ff"] ;
40 -> 42 ;
43 [label=<win3 &le; 7.5<br/>gini = 0.463<br/>samples = 8<br/>value = [7, 4]>, fillcolor="#e581396d"] ;
1 -> 43 ;
44 [label=<win2 &le; 4.0<br/>gini = 0.444<br/>samples = 5<br/>value = [2, 4]>, fillcolor="#399de57f"] ;
43 -> 44 ;
45 [label=<gini = 0.0<br/>samples = 2<br/>value = [2, 0]>, fillcolor="#e58139ff"] ;
44 -> 45 ;
46 [label=<gini = 0.0<br/>samples = 3<br/>value = [0, 4]>, fillcolor="#399de5ff"] ;
44 -> 46 ;
47 [label=<gini = 0.0<br/>samples = 3<br/>value = [5, 0]>, fillcolor="#e58139ff"] ;
43 -> 47 ;
48 [label=<past1_result &le; 3.5<br/>gini = 0.494<br/>samples = 31<br/>value = [25, 20]>, fillcolor="#e5813933"] ;
0 -> 48 [labeldistance=2.5, labelangle=-45, headlabel="False"] ;
49 [label=<past2_result &le; 3.5<br/>gini = 0.49<br/>samples = 24<br/>value = [15, 20]>, fillcolor="#399de540"] ;
48 -> 49 ;
50 [label=<win3 &le; 2.5<br/>gini = 0.472<br/>samples = 15<br/>value = [13, 8]>, fillcolor="#e5813962"] ;
49 -> 50 ;
51 [label=<horse_weight &le; 499.0<br/>gini = 0.5<br/>samples = 12<br/>value = [8, 8]>, fillcolor="#e5813900"] ;
50 -> 51 ;
52 [label=<total_game &le; 11.5<br/>gini = 0.42<br/>samples = 8<br/>value = [3, 7]>, fillcolor="#399de592"] ;
51 -> 52 ;
53 [label=<total_game &le; 5.5<br/>gini = 0.346<br/>samples = 7<br/>value = [2, 7]>, fillcolor="#399de5b6"] ;
52 -> 53 ;
54 [label=<past3_result &le; 2.5<br/>gini = 0.48<br/>samples = 5<br/>value = [2, 3]>, fillcolor="#399de555"] ;
53 -> 54 ;
55 [label=<gini = 0.0<br/>samples = 3<br/>value = [0, 3]>, fillcolor="#399de5ff"] ;
54 -> 55 ;
56 [label=<gini = 0.0<br/>samples = 2<br/>value = [2, 0]>, fillcolor="#e58139ff"] ;
54 -> 56 ;
57 [label=<gini = 0.0<br/>samples = 2<br/>value = [0, 4]>, fillcolor="#399de5ff"] ;
53 -> 57 ;
58 [label=<gini = 0.0<br/>samples = 1<br/>value = [1, 0]>, fillcolor="#e58139ff"] ;
52 -> 58 ;
59 [label=<distance &le; 1800.0<br/>gini = 0.278<br/>samples = 4<br/>value = [5, 1]>, fillcolor="#e58139cc"] ;
51 -> 59 ;
60 [label=<past2_result &le; 1.5<br/>gini = 0.444<br/>samples = 2<br/>value = [2, 1]>, fillcolor="#e581397f"] ;
59 -> 60 ;
61 [label=<gini = 0.0<br/>samples = 1<br/>value = [0, 1]>, fillcolor="#399de5ff"] ;
60 -> 61 ;
62 [label=<gini = 0.0<br/>samples = 1<br/>value = [2, 0]>, fillcolor="#e58139ff"] ;
60 -> 62 ;
63 [label=<gini = 0.0<br/>samples = 2<br/>value = [3, 0]>, fillcolor="#e58139ff"] ;
59 -> 63 ;
64 [label=<gini = 0.0<br/>samples = 3<br/>value = [5, 0]>, fillcolor="#e58139ff"] ;
50 -> 64 ;
65 [label=<frame_num &le; 3.5<br/>gini = 0.245<br/>samples = 9<br/>value = [2, 12]>, fillcolor="#399de5d4"] ;
49 -> 65 ;
66 [label=<frame_num &le; 2.0<br/>gini = 0.444<br/>samples = 2<br/>value = [2, 1]>, fillcolor="#e581397f"] ;
65 -> 66 ;
67 [label=<gini = 0.0<br/>samples = 1<br/>value = [0, 1]>, fillcolor="#399de5ff"] ;
66 -> 67 ;
68 [label=<gini = 0.0<br/>samples = 1<br/>value = [2, 0]>, fillcolor="#e58139ff"] ;
66 -> 68 ;
69 [label=<gini = 0.0<br/>samples = 7<br/>value = [0, 11]>, fillcolor="#399de5ff"] ;
65 -> 69 ;
70 [label=<gini = 0.0<br/>samples = 7<br/>value = [10, 0]>, fillcolor="#e58139ff"] ;
48 -> 70 ;
}