digraph Tree {
node [shape=box, style="filled", color="black"] ;
0 [label=<jockey &le; 0.403<br/>gini = 0.324<br/>samples = 148<br/>value = [184, 47]>, fillcolor="#e58139be"] ;
1 [label=<jockey &le; 0.234<br/>gini = 0.204<br/>samples = 108<br/>value = [146, 19]>, fillcolor="#e58139de"] ;
0 -> 1 [labeldistance=2.5, labelangle=45, headlabel="True"] ;
2 [label=<past1_result &le; 2.5<br/>gini = 0.033<br/>samples = 42<br/>value = [59, 1]>, fillcolor="#e58139fb"] ;
1 -> 2 ;
3 [label=<total_game &le; 27.5<br/>gini = 0.111<br/>samples = 13<br/>value = [16, 1]>, fillcolor="#e58139ef"] ;
2 -> 3 ;
4 [label=<gini = 0.0<br/>samples = 11<br/>value = [15, 0]>, fillcolor="#e58139ff"] ;
3 -> 4 ;
5 [label=<age &le; 6.5<br/>gini = 0.5<br/>samples = 2<br/>value = [1, 1]>, fillcolor="#e5813900"] ;
3 -> 5 ;
6 [label=<gini = 0.0<br/>samples = 1<br/>value = [0, 1]>, fillcolor="#399de5ff"] ;
5 -> 6 ;
7 [label=<gini = 0.0<br/>samples = 1<br/>value = [1, 0]>, fillcolor="#e58139ff"] ;
5 -> 7 ;
8 [label=<gini = 0.0<br/>samples = 29<br/>value = [43, 0]>, fillcolor="#e58139ff"] ;
2 -> 8 ;
9 [label=<umaban &le; 16.5<br/>gini = 0.284<br/>samples = 66<br/>value = [87, 18]>, fillcolor="#e58139ca"] ;
1 -> 9 ;
10 [label=<win2 &le; 0.5<br/>gini = 0.205<br/>samples = 62<br/>value = [84, 11]>, fillcolor="#e58139de"] ;
9 -> 10 ;
11 [label=<past2_result &le; 3.0<br/>gini = 0.486<br/>samples = 10<br/>value = [7, 5]>, fillcolor="#e5813949"] ;
10 -> 11 ;
12 [label=<jockey &le; 0.292<br/>gini = 0.278<br/>samples = 4<br/>value = [1, 5]>, fillcolor="#399de5cc"] ;
11 -> 12 ;
13 [label=<gini = 0.0<br/>samples = 2<br/>value = [0, 3]>, fillcolor="#399de5ff"] ;
12 -> 13 ;
14 [label=<past1_result &le; 9.5<br/>gini = 0.444<br/>samples = 2<br/>value = [1, 2]>, fillcolor="#399de57f"] ;
12 -> 14 ;
15 [label=<gini = 0.0<br/>samples = 1<br/>value = [0, 2]>, fillcolor="#399de5ff"] ;
14 -> 15 ;
16 [label=<gini = 0.0<br/>samples = 1<br/>value = [1, 0]>, fillcolor="#e58139ff"] ;
14 -> 16 ;
17 [label=<gini = 0.0<br/>samples = 6<br/>value = [6, 0]>, fillcolor="#e58139ff"] ;
11 -> 17 ;
18 [label=<weight &le; 54.0<br/>gini = 0.134<br/>samples = 52<br/>value = [77, 6]>, fillcolor="#e58139eb"] ;
10 -> 18 ;
19 [label=<gini = 0.0<br/>samples = 1<br/>value = [0, 1]>, fillcolor="#399de5ff"] ;
18 -> 19 ;
20 [label=<total_game &le; 16.5<br/>gini = 0.115<br/>samples = 51<br/>value = [77, 5]>, fillcolor="#e58139ee"] ;
18 -> 20 ;
21 [label=<past2_result &le; 13.5<br/>gini = 0.039<br/>samples = 28<br/>value = [49, 1]>, fillcolor="#e58139fa"] ;
20 -> 21 ;
22 [label=<gini = 0.0<br/>samples = 27<br/>value = [49, 0]>, fillcolor="#e58139ff"] ;
21 -> 22 ;
23 [label=<gini = 0.0<br/>samples = 1<br/>value = [0, 1]>, fillcolor="#399de5ff"] ;
21 -> 23 ;
24 [label=<frame_num &le; 2.5<br/>gini = 0.219<br/>samples = 23<br/>value = [28, 4]>, fillcolor="#e58139db"] ;
20 -> 24 ;
25 [label=<gini = 0.0<br/>samples = 8<br/>value = [11, 0]>, fillcolor="#e58139ff"] ;
24 -> 25 ;
26 [label=<frame_num &le; 6.5<br/>gini = 0.308<br/>samples = 15<br/>value = [17, 4]>, fillcolor="#e58139c3"] ;
24 -> 26 ;
27 [label=<umaban &le; 10.5<br/>gini = 0.375<br/>samples = 11<br/>value = [12, 4]>, fillcolor="#e58139aa"] ;
26 -> 27 ;
28 [label=<weight &le; 56.0<br/>gini = 0.26<br/>samples = 8<br/>value = [11, 2]>, fillcolor="#e58139d1"] ;
27 -> 28 ;
29 [label=<total_game &le; 26.0<br/>gini = 0.444<br/>samples = 3<br/>value = [4, 2]>, fillcolor="#e581397f"] ;
28 -> 29 ;
30 [label=<gini = 0.0<br/>samples = 2<br/>value = [0, 2]>, fillcolor="#399de5ff"] ;
29 -> 30 ;
31 [label=<gini = 0.0<br/>samples = 1<br/>value = [4, 0]>, fillcolor="#e58139ff"] ;
29 -> 31 ;
32 [label=<gini = 0.0<br/>samples = 5<br/>value = [7, 0]>, fillcolor="#e58139ff"] ;
28 -> 32 ;
33 [label=<horse_weight &le; 446.0<br/>gini = 0.444<br/>samples = 3<br/>value = [1, 2]>, fillcolor="#399de57f"] ;
27 -> 33 ;
34 [label=<gini = 0.0<br/>samples = 1<br/>value = [1, 0]>, fillcolor="#e58139ff"] ;
33 -> 34 ;
35 [label=<gini = 0.0<br/>samples = 2<br/>value = [0, 2]>, fillcolor="#399de5ff"] ;
33 -> 35 ;
36 [label=<gini = 0.0<br/>samples = 4<br/>value = [5, 0]>, fillcolor="#e58139ff"] ;
26 -> 36 ;
37 [label=<weight &le; 56.0<br/>gini = 0.42<br/>samples = 4<br/>value = [3, 7]>, fillcolor="#399de592"] ;
9 -> 37 ;
38 [label=<gini = 0.0<br/>samples = 2<br/>value = [3, 0]>, fillcolor="#e58139ff"] ;
37 -> 38 ;
39 [label=<gini = 0.0<br/>samples = 2<br/>value = [0, 7]>, fillcolor="#399de5ff"] ;
37 -> 39 ;
40 [label=<age &le; 4.5<br/>gini = 0.489<br/>samples = 40<br/>value = [38, 28]>, fillcolor="#e5813943"] ;
0 -> 40 [labeldistance=2.5, labelangle=-45, headlabel="False"] ;
41 [label=<win2 &le; 0.5<br/>gini = 0.497<br/>samples = 30<br/>value = [22, 26]>, fillcolor="#399de527"] ;
40 -> 41 ;
42 [label=<gini = 0.0<br/>samples = 6<br/>value = [10, 0]>, fillcolor="#e58139ff"] ;
41 -> 42 ;
43 [label=<zougen &le; 5.0<br/>gini = 0.432<br/>samples = 24<br/>value = [12, 26]>, fillcolor="#399de589"] ;
41 -> 43 ;
44 [label=<win1 &le; 3.5<br/>gini = 0.48<br/>samples = 19<br/>value = [12, 18]>, fillcolor="#399de555"] ;
43 -> 44 ;
45 [label=<win2 &le; 1.5<br/>gini = 0.337<br/>samples = 9<br/>value = [3, 11]>, fillcolor="#399de5b9"] ;
44 -> 45 ;
46 [label=<distance &le; 1800.0<br/>gini = 0.278<br/>samples = 7<br/>value = [2, 10]>, fillcolor="#399de5cc"] ;
45 -> 46 ;
47 [label=<gini = 0.0<br/>samples = 1<br/>value = [2, 0]>, fillcolor="#e58139ff"] ;
46 -> 47 ;
48 [label=<gini = 0.0<br/>samples = 6<br/>value = [0, 10]>, fillcolor="#399de5ff"] ;
46 -> 48 ;
49 [label=<horse_weight &le; 481.0<br/>gini = 0.5<br/>samples = 2<br/>value = [1, 1]>, fillcolor="#e5813900"] ;
45 -> 49 ;
50 [label=<gini = 0.0<br/>samples = 1<br/>value = [1, 0]>, fillcolor="#e58139ff"] ;
49 -> 50 ;
51 [label=<gini = 0.0<br/>samples = 1<br/>value = [0, 1]>, fillcolor="#399de5ff"] ;
49 -> 51 ;
52 [label=<condition &le; 1.5<br/>gini = 0.492<br/>samples = 10<br/>value = [9, 7]>, fillcolor="#e5813939"] ;
44 -> 52 ;
53 [label=<age &le; 3.5<br/>gini = 0.5<br/>samples = 9<br/>value = [7, 7]>, fillcolor="#e5813900"] ;
52 -> 53 ;
54 [label=<gini = 0.0<br/>samples = 1<br/>value = [1, 0]>, fillcolor="#e58139ff"] ;
53 -> 54 ;
55 [label=<zougen &le; 1.0<br/>gini = 0.497<br/>samples = 8<br/>value = [6, 7]>, fillcolor="#399de524"] ;
53 -> 55 ;
56 [label=<win3 &le; 1.5<br/>gini = 0.346<br/>samples = 6<br/>value = [2, 7]>, fillcolor="#399de5b6"] ;
55 -> 56 ;
57 [label=<gini = 0.0<br/>samples = 4<br/>value = [0, 6]>, fillcolor="#399de5ff"] ;
56 -> 57 ;
58 [label=<zougen &le; -7.0<br/>gini = 0.444<br/>samples = 2<br/>value = [2, 1]>, fillcolor="#e581397f"] ;
56 -> 58 ;
59 [label=<gini = 0.0<br/>samples = 1<br/>value = [0, 1]>, fillcolor="#399de5ff"] ;
58 -> 59 ;
60 [label=<gini = 0.0<br/>samples = 1<br/>value = [2, 0]>, fillcolor="#e58139ff"] ;
58 -> 60 ;
61 [label=<gini = 0.0<br/>samples = 2<br/>value = [4, 0]>, fillcolor="#e58139ff"] ;
55 -> 61 ;
62 [label=<gini = 0.0<br/>samples = 1<br/>value = [2, 0]>, fillcolor="#e58139ff"] ;
52 -> 62 ;
63 [label=<gini = 0.0<br/>samples = 5<br/>value = [0, 8]>, fillcolor="#399de5ff"] ;
43 -> 63 ;
64 [label=<zougen &le; -11.0<br/>gini = 0.198<br/>samples = 10<br/>value = [16, 2]>, fillcolor="#e58139df"] ;
40 -> 64 ;
65 [label=<gini = 0.0<br/>samples = 1<br/>value = [0, 1]>, fillcolor="#399de5ff"] ;
64 -> 65 ;
66 [label=<umaban &le; 9.0<br/>gini = 0.111<br/>samples = 9<br/>value = [16, 1]>, fillcolor="#e58139ef"] ;
64 -> 66 ;
67 [label=<horse_weight &le; 471.0<br/>gini = 0.444<br/>samples = 3<br/>value = [2, 1]>, fillcolor="#e581397f"] ;
66 -> 67 ;
68 [label=<gini = 0.0<br/>samples = 1<br/>value = [0, 1]>, fillcolor="#399de5ff"] ;
67 -> 68 ;
69 [label=<gini = 0.0<br/>samples = 2<br/>value = [2, 0]>, fillcolor="#e58139ff"] ;
67 -> 69 ;
70 [label=<gini = 0.0<br/>samples = 6<br/>value = [14, 0]>, fillcolor="#e58139ff"] ;
66 -> 70 ;
}