digraph Tree {
node [shape=box, style="filled", color="black"] ;
0 [label=<jockey &le; 0.403<br/>gini = 0.257<br/>samples = 141<br/>value = [196, 35]>, fillcolor="#e58139d1"] ;
1 [label=<horse_weight &le; 437.0<br/>gini = 0.137<br/>samples = 107<br/>value = [163, 13]>, fillcolor="#e58139eb"] ;
0 -> 1 [labeldistance=2.5, labelangle=45, headlabel="True"] ;
2 [label=<win3 &le; 0.5<br/>gini = 0.375<br/>samples = 7<br/>value = [9, 3]>, fillcolor="#e58139aa"] ;
1 -> 2 ;
3 [label=<gini = 0.0<br/>samples = 4<br/>value = [8, 0]>, fillcolor="#e58139ff"] ;
2 -> 3 ;
4 [label=<total_game &le; 11.0<br/>gini = 0.375<br/>samples = 3<br/>value = [1, 3]>, fillcolor="#399de5aa"] ;
2 -> 4 ;
5 [label=<gini = 0.0<br/>samples = 1<br/>value = [1, 0]>, fillcolor="#e58139ff"] ;
4 -> 5 ;
6 [label=<gini = 0.0<br/>samples = 2<br/>value = [0, 3]>, fillcolor="#399de5ff"] ;
4 -> 6 ;
7 [label=<weight &le; 57.5<br/>gini = 0.115<br/>samples = 100<br/>value = [154, 10]>, fillcolor="#e58139ee"] ;
1 -> 7 ;
8 [label=<past3_result &le; 4.5<br/>gini = 0.079<br/>samples = 88<br/>value = [140, 6]>, fillcolor="#e58139f4"] ;
7 -> 8 ;
9 [label=<gelding &le; 0.5<br/>gini = 0.12<br/>samples = 62<br/>value = [88, 6]>, fillcolor="#e58139ee"] ;
8 -> 9 ;
10 [label=<win1 &le; 1.5<br/>gini = 0.086<br/>samples = 60<br/>value = [85, 4]>, fillcolor="#e58139f3"] ;
9 -> 10 ;
11 [label=<win2 &le; 2.5<br/>gini = 0.32<br/>samples = 5<br/>value = [4, 1]>, fillcolor="#e58139bf"] ;
10 -> 11 ;
12 [label=<gini = 0.0<br/>samples = 4<br/>value = [4, 0]>, fillcolor="#e58139ff"] ;
11 -> 12 ;
13 [label=<gini = 0.0<br/>samples = 1<br/>value = [0, 1]>, fillcolor="#399de5ff"] ;
11 -> 13 ;
14 [label=<total_game &le; 24.5<br/>gini = 0.069<br/>samples = 55<br/>value = [81, 3]>, fillcolor="#e58139f6"] ;
10 -> 14 ;
15 [label=<total_game &le; 4.5<br/>gini = 0.03<br/>samples = 44<br/>value = [64, 1]>, fillcolor="#e58139fb"] ;
14 -> 15 ;
16 [label=<past1_result &le; 1.5<br/>gini = 0.095<br/>samples = 11<br/>value = [19, 1]>, fillcolor="#e58139f2"] ;
15 -> 16 ;
17 [label=<win1 &le; 2.5<br/>gini = 0.18<br/>samples = 6<br/>value = [9, 1]>, fillcolor="#e58139e3"] ;
16 -> 17 ;
18 [label=<gini = 0.0<br/>samples = 3<br/>value = [7, 0]>, fillcolor="#e58139ff"] ;
17 -> 18 ;
19 [label=<jockey &le; 0.308<br/>gini = 0.444<br/>samples = 3<br/>value = [2, 1]>, fillcolor="#e581397f"] ;
17 -> 19 ;
20 [label=<gini = 0.0<br/>samples = 2<br/>value = [2, 0]>, fillcolor="#e58139ff"] ;
19 -> 20 ;
21 [label=<gini = 0.0<br/>samples = 1<br/>value = [0, 1]>, fillcolor="#399de5ff"] ;
19 -> 21 ;
22 [label=<gini = 0.0<br/>samples = 5<br/>value = [10, 0]>, fillcolor="#e58139ff"] ;
16 -> 22 ;
23 [label=<gini = 0.0<br/>samples = 33<br/>value = [45, 0]>, fillcolor="#e58139ff"] ;
15 -> 23 ;
24 [label=<jockey &le; 0.287<br/>gini = 0.188<br/>samples = 11<br/>value = [17, 2]>, fillcolor="#e58139e1"] ;
14 -> 24 ;
25 [label=<gini = 0.0<br/>samples = 8<br/>value = [13, 0]>, fillcolor="#e58139ff"] ;
24 -> 25 ;
26 [label=<frame_num &le; 4.5<br/>gini = 0.444<br/>samples = 3<br/>value = [4, 2]>, fillcolor="#e581397f"] ;
24 -> 26 ;
27 [label=<gini = 0.0<br/>samples = 1<br/>value = [0, 2]>, fillcolor="#399de5ff"] ;
26 -> 27 ;
28 [label=<gini = 0.0<br/>samples = 2<br/>value = [4, 0]>, fillcolor="#e58139ff"] ;
26 -> 28 ;
29 [label=<past1_result &le; 1.5<br/>gini = 0.48<br/>samples = 2<br/>value = [3, 2]>, fillcolor="#e5813955"] ;
9 -> 29 ;
30 [label=<gini = 0.0<br/>samples = 1<br/>value = [0, 2]>, fillcolor="#399de5ff"] ;
29 -> 30 ;
31 [label=<gini = 0.0<br/>samples = 1<br/>value = [3, 0]>, fillcolor="#e58139ff"] ;
29 -> 31 ;
32 [label=<gini = 0.0<br/>samples = 26<br/>value = [52, 0]>, fillcolor="#e58139ff"] ;
8 -> 32 ;
33 [label=<win2 &le; 5.5<br/>gini = 0.346<br/>samples = 12<br/>value = [14, 4]>, fillcolor="#e58139b6"] ;
7 -> 33 ;
34 [label=<win2 &le; 3.5<br/>gini = 0.153<br/>samples = 9<br/>value = [11, 1]>, fillcolor="#e58139e8"] ;
33 -> 34 ;
35 [label=<past2_result &le; 7.0<br/>gini = 0.219<br/>samples = 6<br/>value = [7, 1]>, fillcolor="#e58139db"] ;
34 -> 35 ;
36 [label=<gini = 0.0<br/>samples = 4<br/>value = [6, 0]>, fillcolor="#e58139ff"] ;
35 -> 36 ;
37 [label=<age &le; 5.5<br/>gini = 0.5<br/>samples = 2<br/>value = [1, 1]>, fillcolor="#e5813900"] ;
35 -> 37 ;
38 [label=<gini = 0.0<br/>samples = 1<br/>value = [0, 1]>, fillcolor="#399de5ff"] ;
37 -> 38 ;
39 [label=<gini = 0.0<br/>samples = 1<br/>value = [1, 0]>, fillcolor="#e58139ff"] ;
37 -> 39 ;
40 [label=<gini = 0.0<br/>samples = 3<br/>value = [4, 0]>, fillcolor="#e58139ff"] ;
34 -> 40 ;
41 [label=<frame_num &le; 2.0<br/>gini = 0.5<br/>samples = 3<br/>value = [3, 3]>, fillcolor="#e5813900"] ;
33 -> 41 ;
42 [label=<gini = 0.0<br/>samples = 1<br/>value = [0, 3]>, fillcolor="#399de5ff"] ;
41 -> 42 ;
43 [label=<gini = 0.0<br/>samples = 2<br/>value = [3, 0]>, fillcolor="#e58139ff"] ;
41 -> 43 ;
44 [label=<horse_weight &le; 507.0<br/>gini = 0.48<br/>samples = 34<br/>value = [33, 22]>, fillcolor="#e5813955"] ;
0 -> 44 [labeldistance=2.5, labelangle=-45, headlabel="False"] ;
45 [label=<age &le; 5.5<br/>gini = 0.497<br/>samples = 23<br/>value = [17, 20]>, fillcolor="#399de526"] ;
44 -> 45 ;
46 [label=<umaban &le; 13.5<br/>gini = 0.484<br/>samples = 21<br/>value = [14, 20]>, fillcolor="#399de54d"] ;
45 -> 46 ;
47 [label=<jockey &le; 0.44<br/>gini = 0.355<br/>samples = 18<br/>value = [6, 20]>, fillcolor="#399de5b3"] ;
46 -> 47 ;
48 [label=<zougen &le; -1.0<br/>gini = 0.496<br/>samples = 9<br/>value = [5, 6]>, fillcolor="#399de52a"] ;
47 -> 48 ;
49 [label=<gini = 0.0<br/>samples = 4<br/>value = [0, 5]>, fillcolor="#399de5ff"] ;
48 -> 49 ;
50 [label=<total_game &le; 5.5<br/>gini = 0.278<br/>samples = 5<br/>value = [5, 1]>, fillcolor="#e58139cc"] ;
48 -> 50 ;
51 [label=<win3 &le; 0.5<br/>gini = 0.444<br/>samples = 2<br/>value = [2, 1]>, fillcolor="#e581397f"] ;
50 -> 51 ;
52 [label=<gini = 0.0<br/>samples = 1<br/>value = [2, 0]>, fillcolor="#e58139ff"] ;
51 -> 52 ;
53 [label=<gini = 0.0<br/>samples = 1<br/>value = [0, 1]>, fillcolor="#399de5ff"] ;
51 -> 53 ;
54 [label=<gini = 0.0<br/>samples = 3<br/>value = [3, 0]>, fillcolor="#e58139ff"] ;
50 -> 54 ;
55 [label=<horse_weight &le; 457.0<br/>gini = 0.124<br/>samples = 9<br/>value = [1, 14]>, fillcolor="#399de5ed"] ;
47 -> 55 ;
56 [label=<gini = 0.0<br/>samples = 1<br/>value = [1, 0]>, fillcolor="#e58139ff"] ;
55 -> 56 ;
57 [label=<gini = 0.0<br/>samples = 8<br/>value = [0, 14]>, fillcolor="#399de5ff"] ;
55 -> 57 ;
58 [label=<gini = 0.0<br/>samples = 3<br/>value = [8, 0]>, fillcolor="#e58139ff"] ;
46 -> 58 ;
59 [label=<gini = 0.0<br/>samples = 2<br/>value = [3, 0]>, fillcolor="#e58139ff"] ;
45 -> 59 ;
60 [label=<past1_result &le; 3.5<br/>gini = 0.198<br/>samples = 11<br/>value = [16, 2]>, fillcolor="#e58139df"] ;
44 -> 60 ;
61 [label=<gini = 0.0<br/>samples = 8<br/>value = [15, 0]>, fillcolor="#e58139ff"] ;
60 -> 61 ;
62 [label=<win3 &le; 2.0<br/>gini = 0.444<br/>samples = 3<br/>value = [1, 2]>, fillcolor="#399de57f"] ;
60 -> 62 ;
63 [label=<gini = 0.0<br/>samples = 2<br/>value = [0, 2]>, fillcolor="#399de5ff"] ;
62 -> 63 ;
64 [label=<gini = 0.0<br/>samples = 1<br/>value = [1, 0]>, fillcolor="#e58139ff"] ;
62 -> 64 ;
}