digraph Tree {
node [shape=box, style="filled", color="black"] ;
0 [label=<frame_num &le; 1.5<br/>gini = 0.329<br/>samples = 147<br/>value = [183, 48]>, fillcolor="#e58139bc"] ;
1 [label=<zougen &le; 3.0<br/>gini = 0.487<br/>samples = 18<br/>value = [18, 13]>, fillcolor="#e5813947"] ;
0 -> 1 [labeldistance=2.5, labelangle=45, headlabel="True"] ;
2 [label=<zougen &le; 1.0<br/>gini = 0.403<br/>samples = 15<br/>value = [18, 7]>, fillcolor="#e581399c"] ;
1 -> 2 ;
3 [label=<total_game &le; 6.5<br/>gini = 0.475<br/>samples = 10<br/>value = [11, 7]>, fillcolor="#e581395d"] ;
2 -> 3 ;
4 [label=<gini = 0.0<br/>samples = 3<br/>value = [0, 6]>, fillcolor="#399de5ff"] ;
3 -> 4 ;
5 [label=<distance &le; 1800.0<br/>gini = 0.153<br/>samples = 7<br/>value = [11, 1]>, fillcolor="#e58139e8"] ;
3 -> 5 ;
6 [label=<jockey &le; 0.456<br/>gini = 0.32<br/>samples = 4<br/>value = [4, 1]>, fillcolor="#e58139bf"] ;
5 -> 6 ;
7 [label=<gini = 0.0<br/>samples = 3<br/>value = [4, 0]>, fillcolor="#e58139ff"] ;
6 -> 7 ;
8 [label=<gini = 0.0<br/>samples = 1<br/>value = [0, 1]>, fillcolor="#399de5ff"] ;
6 -> 8 ;
9 [label=<gini = 0.0<br/>samples = 3<br/>value = [7, 0]>, fillcolor="#e58139ff"] ;
5 -> 9 ;
10 [label=<gini = 0.0<br/>samples = 5<br/>value = [7, 0]>, fillcolor="#e58139ff"] ;
2 -> 10 ;
11 [label=<gini = 0.0<br/>samples = 3<br/>value = [0, 6]>, fillcolor="#399de5ff"] ;
1 -> 11 ;
12 [label=<jockey &le; 0.43<br/>gini = 0.289<br/>samples = 129<br/>value = [165, 35]>, fillcolor="#e58139c9"] ;
0 -> 12 [labeldistance=2.5, labelangle=-45, headlabel="False"] ;
13 [label=<win1 &le; 10.5<br/>gini = 0.164<br/>samples = 99<br/>value = [141, 14]>, fillcolor="#e58139e6"] ;
12 -> 13 ;
14 [label=<weight &le; 54.0<br/>gini = 0.134<br/>samples = 98<br/>value = [141, 11]>, fillcolor="#e58139eb"] ;
13 -> 14 ;
15 [label=<gini = 0.0<br/>samples = 1<br/>value = [0, 1]>, fillcolor="#399de5ff"] ;
14 -> 15 ;
16 [label=<condition &le; 1.5<br/>gini = 0.124<br/>samples = 97<br/>value = [141, 10]>, fillcolor="#e58139ed"] ;
14 -> 16 ;
17 [label=<jockey &le; 0.359<br/>gini = 0.061<br/>samples = 78<br/>value = [122, 4]>, fillcolor="#e58139f7"] ;
16 -> 17 ;
18 [label=<weight &le; 57.5<br/>gini = 0.021<br/>samples = 60<br/>value = [95, 1]>, fillcolor="#e58139fc"] ;
17 -> 18 ;
19 [label=<gini = 0.0<br/>samples = 53<br/>value = [84, 0]>, fillcolor="#e58139ff"] ;
18 -> 19 ;
20 [label=<jockey &le; 0.288<br/>gini = 0.153<br/>samples = 7<br/>value = [11, 1]>, fillcolor="#e58139e8"] ;
18 -> 20 ;
21 [label=<gini = 0.0<br/>samples = 6<br/>value = [11, 0]>, fillcolor="#e58139ff"] ;
20 -> 21 ;
22 [label=<gini = 0.0<br/>samples = 1<br/>value = [0, 1]>, fillcolor="#399de5ff"] ;
20 -> 22 ;
23 [label=<jockey &le; 0.382<br/>gini = 0.18<br/>samples = 18<br/>value = [27, 3]>, fillcolor="#e58139e3"] ;
17 -> 23 ;
24 [label=<past1_result &le; 4.5<br/>gini = 0.408<br/>samples = 6<br/>value = [5, 2]>, fillcolor="#e5813999"] ;
23 -> 24 ;
25 [label=<gini = 0.0<br/>samples = 4<br/>value = [5, 0]>, fillcolor="#e58139ff"] ;
24 -> 25 ;
26 [label=<gini = 0.0<br/>samples = 2<br/>value = [0, 2]>, fillcolor="#399de5ff"] ;
24 -> 26 ;
27 [label=<umaban &le; 4.5<br/>gini = 0.083<br/>samples = 12<br/>value = [22, 1]>, fillcolor="#e58139f3"] ;
23 -> 27 ;
28 [label=<win1 &le; 2.0<br/>gini = 0.5<br/>samples = 2<br/>value = [1, 1]>, fillcolor="#e5813900"] ;
27 -> 28 ;
29 [label=<gini = 0.0<br/>samples = 1<br/>value = [1, 0]>, fillcolor="#e58139ff"] ;
28 -> 29 ;
30 [label=<gini = 0.0<br/>samples = 1<br/>value = [0, 1]>, fillcolor="#399de5ff"] ;
28 -> 30 ;
31 [label=<gini = 0.0<br/>samples = 10<br/>value = [21, 0]>, fillcolor="#e58139ff"] ;
27 -> 31 ;
32 [label=<jockey &le; 0.276<br/>gini = 0.365<br/>samples = 19<br/>value = [19, 6]>, fillcolor="#e58139ae"] ;
16 -> 32 ;
33 [label=<gini = 0.0<br/>samples = 10<br/>value = [14, 0]>, fillcolor="#e58139ff"] ;
32 -> 33 ;
34 [label=<past2_result &le; 1.5<br/>gini = 0.496<br/>samples = 9<br/>value = [5, 6]>, fillcolor="#399de52a"] ;
32 -> 34 ;
35 [label=<umaban &le; 6.5<br/>gini = 0.245<br/>samples = 5<br/>value = [1, 6]>, fillcolor="#399de5d4"] ;
34 -> 35 ;
36 [label=<female &le; 0.5<br/>gini = 0.5<br/>samples = 2<br/>value = [1, 1]>, fillcolor="#e5813900"] ;
35 -> 36 ;
37 [label=<gini = 0.0<br/>samples = 1<br/>value = [1, 0]>, fillcolor="#e58139ff"] ;
36 -> 37 ;
38 [label=<gini = 0.0<br/>samples = 1<br/>value = [0, 1]>, fillcolor="#399de5ff"] ;
36 -> 38 ;
39 [label=<gini = 0.0<br/>samples = 3<br/>value = [0, 5]>, fillcolor="#399de5ff"] ;
35 -> 39 ;
40 [label=<gini = 0.0<br/>samples = 4<br/>value = [4, 0]>, fillcolor="#e58139ff"] ;
34 -> 40 ;
41 [label=<gini = 0.0<br/>samples = 1<br/>value = [0, 3]>, fillcolor="#399de5ff"] ;
13 -> 41 ;
42 [label=<frame_num &le; 3.5<br/>gini = 0.498<br/>samples = 30<br/>value = [24, 21]>, fillcolor="#e5813920"] ;
12 -> 42 ;
43 [label=<gini = 0.0<br/>samples = 4<br/>value = [8, 0]>, fillcolor="#e58139ff"] ;
42 -> 43 ;
44 [label=<distance &le; 3100.0<br/>gini = 0.491<br/>samples = 26<br/>value = [16, 21]>, fillcolor="#399de53d"] ;
42 -> 44 ;
45 [label=<umaban &le; 13.5<br/>gini = 0.472<br/>samples = 24<br/>value = [13, 21]>, fillcolor="#399de561"] ;
44 -> 45 ;
46 [label=<male &le; 0.5<br/>gini = 0.355<br/>samples = 18<br/>value = [6, 20]>, fillcolor="#399de5b3"] ;
45 -> 46 ;
47 [label=<win1 &le; 4.5<br/>gini = 0.496<br/>samples = 8<br/>value = [5, 6]>, fillcolor="#399de52a"] ;
46 -> 47 ;
48 [label=<past3_result &le; 2.5<br/>gini = 0.245<br/>samples = 5<br/>value = [1, 6]>, fillcolor="#399de5d4"] ;
47 -> 48 ;
49 [label=<gini = 0.0<br/>samples = 4<br/>value = [0, 6]>, fillcolor="#399de5ff"] ;
48 -> 49 ;
50 [label=<gini = 0.0<br/>samples = 1<br/>value = [1, 0]>, fillcolor="#e58139ff"] ;
48 -> 50 ;
51 [label=<gini = 0.0<br/>samples = 3<br/>value = [4, 0]>, fillcolor="#e58139ff"] ;
47 -> 51 ;
52 [label=<past2_result &le; 1.5<br/>gini = 0.124<br/>samples = 10<br/>value = [1, 14]>, fillcolor="#399de5ed"] ;
46 -> 52 ;
53 [label=<umaban &le; 7.0<br/>gini = 0.278<br/>samples = 4<br/>value = [1, 5]>, fillcolor="#399de5cc"] ;
52 -> 53 ;
54 [label=<gini = 0.0<br/>samples = 1<br/>value = [1, 0]>, fillcolor="#e58139ff"] ;
53 -> 54 ;
55 [label=<gini = 0.0<br/>samples = 3<br/>value = [0, 5]>, fillcolor="#399de5ff"] ;
53 -> 55 ;
56 [label=<gini = 0.0<br/>samples = 6<br/>value = [0, 9]>, fillcolor="#399de5ff"] ;
52 -> 56 ;
57 [label=<total_game &le; 12.5<br/>gini = 0.219<br/>samples = 6<br/>value = [7, 1]>, fillcolor="#e58139db"] ;
45 -> 57 ;
58 [label=<gini = 0.0<br/>samples = 5<br/>value = [7, 0]>, fillcolor="#e58139ff"] ;
57 -> 58 ;
59 [label=<gini = 0.0<br/>samples = 1<br/>value = [0, 1]>, fillcolor="#399de5ff"] ;
57 -> 59 ;
60 [label=<gini = 0.0<br/>samples = 2<br/>value = [3, 0]>, fillcolor="#e58139ff"] ;
44 -> 60 ;
}