digraph Tree {
node [shape=box, style="filled", color="black"] ;
0 [label=<past3_result &le; 9.5<br/>gini = 0.308<br/>samples = 147<br/>value = [187, 44]>, fillcolor="#e58139c3"] ;
1 [label=<past3_result &le; 8.5<br/>gini = 0.337<br/>samples = 133<br/>value = [161, 44]>, fillcolor="#e58139b9"] ;
0 -> 1 [labeldistance=2.5, labelangle=45, headlabel="True"] ;
2 [label=<zougen &le; 1.0<br/>gini = 0.322<br/>samples = 130<br/>value = [158, 40]>, fillcolor="#e58139be"] ;
1 -> 2 ;
3 [label=<jockey &le; 0.539<br/>gini = 0.248<br/>samples = 81<br/>value = [106, 18]>, fillcolor="#e58139d4"] ;
2 -> 3 ;
4 [label=<past1_result &le; 1.5<br/>gini = 0.209<br/>samples = 76<br/>value = [104, 14]>, fillcolor="#e58139dd"] ;
3 -> 4 ;
5 [label=<zougen &le; -5.0<br/>gini = 0.422<br/>samples = 21<br/>value = [23, 10]>, fillcolor="#e5813990"] ;
4 -> 5 ;
6 [label=<gini = 0.0<br/>samples = 2<br/>value = [0, 5]>, fillcolor="#399de5ff"] ;
5 -> 6 ;
7 [label=<distance &le; 3100.0<br/>gini = 0.293<br/>samples = 19<br/>value = [23, 5]>, fillcolor="#e58139c8"] ;
5 -> 7 ;
8 [label=<zougen &le; -1.0<br/>gini = 0.204<br/>samples = 18<br/>value = [23, 3]>, fillcolor="#e58139de"] ;
7 -> 8 ;
9 [label=<gini = 0.0<br/>samples = 11<br/>value = [18, 0]>, fillcolor="#e58139ff"] ;
8 -> 9 ;
10 [label=<frame_num &le; 3.5<br/>gini = 0.469<br/>samples = 7<br/>value = [5, 3]>, fillcolor="#e5813966"] ;
8 -> 10 ;
11 [label=<weight &le; 56.0<br/>gini = 0.278<br/>samples = 5<br/>value = [5, 1]>, fillcolor="#e58139cc"] ;
10 -> 11 ;
12 [label=<gini = 0.0<br/>samples = 1<br/>value = [0, 1]>, fillcolor="#399de5ff"] ;
11 -> 12 ;
13 [label=<gini = 0.0<br/>samples = 4<br/>value = [5, 0]>, fillcolor="#e58139ff"] ;
11 -> 13 ;
14 [label=<gini = 0.0<br/>samples = 2<br/>value = [0, 2]>, fillcolor="#399de5ff"] ;
10 -> 14 ;
15 [label=<gini = 0.0<br/>samples = 1<br/>value = [0, 2]>, fillcolor="#399de5ff"] ;
7 -> 15 ;
16 [label=<win2 &le; 7.5<br/>gini = 0.09<br/>samples = 55<br/>value = [81, 4]>, fillcolor="#e58139f2"] ;
4 -> 16 ;
17 [label=<jockey &le; 0.403<br/>gini = 0.071<br/>samples = 53<br/>value = [78, 3]>, fillcolor="#e58139f5"] ;
16 -> 17 ;
18 [label=<past3_result &le; 1.5<br/>gini = 0.027<br/>samples = 45<br/>value = [72, 1]>, fillcolor="#e58139fb"] ;
17 -> 18 ;
19 [label=<past2_result &le; 3.0<br/>gini = 0.087<br/>samples = 14<br/>value = [21, 1]>, fillcolor="#e58139f3"] ;
18 -> 19 ;
20 [label=<distance &le; 2000.0<br/>gini = 0.375<br/>samples = 4<br/>value = [3, 1]>, fillcolor="#e58139aa"] ;
19 -> 20 ;
21 [label=<gini = 0.0<br/>samples = 3<br/>value = [3, 0]>, fillcolor="#e58139ff"] ;
20 -> 21 ;
22 [label=<gini = 0.0<br/>samples = 1<br/>value = [0, 1]>, fillcolor="#399de5ff"] ;
20 -> 22 ;
23 [label=<gini = 0.0<br/>samples = 10<br/>value = [18, 0]>, fillcolor="#e58139ff"] ;
19 -> 23 ;
24 [label=<gini = 0.0<br/>samples = 31<br/>value = [51, 0]>, fillcolor="#e58139ff"] ;
18 -> 24 ;
25 [label=<umaban &le; 2.0<br/>gini = 0.375<br/>samples = 8<br/>value = [6, 2]>, fillcolor="#e58139aa"] ;
17 -> 25 ;
26 [label=<gini = 0.0<br/>samples = 1<br/>value = [0, 1]>, fillcolor="#399de5ff"] ;
25 -> 26 ;
27 [label=<age &le; 3.5<br/>gini = 0.245<br/>samples = 7<br/>value = [6, 1]>, fillcolor="#e58139d4"] ;
25 -> 27 ;
28 [label=<distance &le; 1800.0<br/>gini = 0.5<br/>samples = 2<br/>value = [1, 1]>, fillcolor="#e5813900"] ;
27 -> 28 ;
29 [label=<gini = 0.0<br/>samples = 1<br/>value = [1, 0]>, fillcolor="#e58139ff"] ;
28 -> 29 ;
30 [label=<gini = 0.0<br/>samples = 1<br/>value = [0, 1]>, fillcolor="#399de5ff"] ;
28 -> 30 ;
31 [label=<gini = 0.0<br/>samples = 5<br/>value = [5, 0]>, fillcolor="#e58139ff"] ;
27 -> 31 ;
32 [label=<jockey &le; 0.234<br/>gini = 0.375<br/>samples = 2<br/>value = [3, 1]>, fillcolor="#e58139aa"] ;
16 -> 32 ;
33 [label=<gini = 0.0<br/>samples = 1<br/>value = [3, 0]>, fillcolor="#e58139ff"] ;
32 -> 33 ;
34 [label=<gini = 0.0<br/>samples = 1<br/>value = [0, 1]>, fillcolor="#399de5ff"] ;
32 -> 34 ;
35 [label=<age &le; 3.5<br/>gini = 0.444<br/>samples = 5<br/>value = [2, 4]>, fillcolor="#399de57f"] ;
3 -> 35 ;
36 [label=<gini = 0.0<br/>samples = 1<br/>value = [2, 0]>, fillcolor="#e58139ff"] ;
35 -> 36 ;
37 [label=<gini = 0.0<br/>samples = 4<br/>value = [0, 4]>, fillcolor="#399de5ff"] ;
35 -> 37 ;
38 [label=<jockey &le; 0.234<br/>gini = 0.418<br/>samples = 49<br/>value = [52, 22]>, fillcolor="#e5813993"] ;
2 -> 38 ;
39 [label=<gini = 0.0<br/>samples = 10<br/>value = [17, 0]>, fillcolor="#e58139ff"] ;
38 -> 39 ;
40 [label=<age &le; 5.5<br/>gini = 0.474<br/>samples = 39<br/>value = [35, 22]>, fillcolor="#e581395f"] ;
38 -> 40 ;
41 [label=<win1 &le; 1.5<br/>gini = 0.44<br/>samples = 36<br/>value = [35, 17]>, fillcolor="#e5813983"] ;
40 -> 41 ;
42 [label=<gini = 0.0<br/>samples = 2<br/>value = [0, 2]>, fillcolor="#399de5ff"] ;
41 -> 42 ;
43 [label=<weight &le; 53.5<br/>gini = 0.42<br/>samples = 34<br/>value = [35, 15]>, fillcolor="#e5813992"] ;
41 -> 43 ;
44 [label=<gini = 0.0<br/>samples = 1<br/>value = [0, 1]>, fillcolor="#399de5ff"] ;
43 -> 44 ;
45 [label=<horse_weight &le; 437.0<br/>gini = 0.408<br/>samples = 33<br/>value = [35, 14]>, fillcolor="#e5813999"] ;
43 -> 45 ;
46 [label=<gini = 0.0<br/>samples = 1<br/>value = [0, 2]>, fillcolor="#399de5ff"] ;
45 -> 46 ;
47 [label=<jockey &le; 0.43<br/>gini = 0.38<br/>samples = 32<br/>value = [35, 12]>, fillcolor="#e58139a8"] ;
45 -> 47 ;
48 [label=<win2 &le; 4.0<br/>gini = 0.204<br/>samples = 18<br/>value = [23, 3]>, fillcolor="#e58139de"] ;
47 -> 48 ;
49 [label=<past3_result &le; 4.5<br/>gini = 0.08<br/>samples = 17<br/>value = [23, 1]>, fillcolor="#e58139f4"] ;
48 -> 49 ;
50 [label=<gini = 0.0<br/>samples = 14<br/>value = [21, 0]>, fillcolor="#e58139ff"] ;
49 -> 50 ;
51 [label=<horse_weight &le; 520.0<br/>gini = 0.444<br/>samples = 3<br/>value = [2, 1]>, fillcolor="#e581397f"] ;
49 -> 51 ;
52 [label=<gini = 0.0<br/>samples = 2<br/>value = [2, 0]>, fillcolor="#e58139ff"] ;
51 -> 52 ;
53 [label=<gini = 0.0<br/>samples = 1<br/>value = [0, 1]>, fillcolor="#399de5ff"] ;
51 -> 53 ;
54 [label=<gini = 0.0<br/>samples = 1<br/>value = [0, 2]>, fillcolor="#399de5ff"] ;
48 -> 54 ;
55 [label=<win2 &le; 0.5<br/>gini = 0.49<br/>samples = 14<br/>value = [12, 9]>, fillcolor="#e5813940"] ;
47 -> 55 ;
56 [label=<gini = 0.0<br/>samples = 3<br/>value = [5, 0]>, fillcolor="#e58139ff"] ;
55 -> 56 ;
57 [label=<win1 &le; 4.5<br/>gini = 0.492<br/>samples = 11<br/>value = [7, 9]>, fillcolor="#399de539"] ;
55 -> 57 ;
58 [label=<umaban &le; 14.0<br/>gini = 0.32<br/>samples = 7<br/>value = [2, 8]>, fillcolor="#399de5bf"] ;
57 -> 58 ;
59 [label=<jockey &le; 0.484<br/>gini = 0.198<br/>samples = 6<br/>value = [1, 8]>, fillcolor="#399de5df"] ;
58 -> 59 ;
60 [label=<female &le; 0.5<br/>gini = 0.444<br/>samples = 3<br/>value = [1, 2]>, fillcolor="#399de57f"] ;
59 -> 60 ;
61 [label=<weight &le; 57.5<br/>gini = 0.5<br/>samples = 2<br/>value = [1, 1]>, fillcolor="#e5813900"] ;
60 -> 61 ;
62 [label=<gini = 0.0<br/>samples = 1<br/>value = [0, 1]>, fillcolor="#399de5ff"] ;
61 -> 62 ;
63 [label=<gini = 0.0<br/>samples = 1<br/>value = [1, 0]>, fillcolor="#e58139ff"] ;
61 -> 63 ;
64 [label=<gini = 0.0<br/>samples = 1<br/>value = [0, 1]>, fillcolor="#399de5ff"] ;
60 -> 64 ;
65 [label=<gini = 0.0<br/>samples = 3<br/>value = [0, 6]>, fillcolor="#399de5ff"] ;
59 -> 65 ;
66 [label=<gini = 0.0<br/>samples = 1<br/>value = [1, 0]>, fillcolor="#e58139ff"] ;
58 -> 66 ;
67 [label=<win2 &le; 2.0<br/>gini = 0.278<br/>samples = 4<br/>value = [5, 1]>, fillcolor="#e58139cc"] ;
57 -> 67 ;
68 [label=<gini = 0.0<br/>samples = 1<br/>value = [0, 1]>, fillcolor="#399de5ff"] ;
67 -> 68 ;
69 [label=<gini = 0.0<br/>samples = 3<br/>value = [5, 0]>, fillcolor="#e58139ff"] ;
67 -> 69 ;
70 [label=<gini = 0.0<br/>samples = 3<br/>value = [0, 5]>, fillcolor="#399de5ff"] ;
40 -> 70 ;
71 [label=<win3 &le; 2.5<br/>gini = 0.49<br/>samples = 3<br/>value = [3, 4]>, fillcolor="#399de540"] ;
1 -> 71 ;
72 [label=<gini = 0.0<br/>samples = 2<br/>value = [3, 0]>, fillcolor="#e58139ff"] ;
71 -> 72 ;
73 [label=<gini = 0.0<br/>samples = 1<br/>value = [0, 4]>, fillcolor="#399de5ff"] ;
71 -> 73 ;
74 [label=<gini = 0.0<br/>samples = 14<br/>value = [26, 0]>, fillcolor="#e58139ff"] ;
0 -> 74 [labeldistance=2.5, labelangle=-45, headlabel="False"] ;
}