digraph Tree {
node [shape=box, style="filled", color="black"] ;
0 [label=<distance &le; 2100.0<br/>gini = 0.292<br/>samples = 141<br/>value = [190, 41]>, fillcolor="#e58139c8"] ;
1 [label=<past1_result &le; 1.5<br/>gini = 0.357<br/>samples = 78<br/>value = [99, 30]>, fillcolor="#e58139b2"] ;
0 -> 1 [labeldistance=2.5, labelangle=45, headlabel="True"] ;
2 [label=<win2 &le; 4.5<br/>gini = 0.499<br/>samples = 19<br/>value = [15, 16]>, fillcolor="#399de510"] ;
1 -> 2 ;
3 [label=<condition &le; 1.5<br/>gini = 0.423<br/>samples = 15<br/>value = [7, 16]>, fillcolor="#399de58f"] ;
2 -> 3 ;
4 [label=<past3_result &le; 4.5<br/>gini = 0.291<br/>samples = 10<br/>value = [3, 14]>, fillcolor="#399de5c8"] ;
3 -> 4 ;
5 [label=<past2_result &le; 2.5<br/>gini = 0.124<br/>samples = 9<br/>value = [1, 14]>, fillcolor="#399de5ed"] ;
4 -> 5 ;
6 [label=<gini = 0.0<br/>samples = 5<br/>value = [0, 8]>, fillcolor="#399de5ff"] ;
5 -> 6 ;
7 [label=<win1 &le; 2.5<br/>gini = 0.245<br/>samples = 4<br/>value = [1, 6]>, fillcolor="#399de5d4"] ;
5 -> 7 ;
8 [label=<gini = 0.0<br/>samples = 1<br/>value = [1, 0]>, fillcolor="#e58139ff"] ;
7 -> 8 ;
9 [label=<gini = 0.0<br/>samples = 3<br/>value = [0, 6]>, fillcolor="#399de5ff"] ;
7 -> 9 ;
10 [label=<gini = 0.0<br/>samples = 1<br/>value = [2, 0]>, fillcolor="#e58139ff"] ;
4 -> 10 ;
11 [label=<zougen &le; 1.0<br/>gini = 0.444<br/>samples = 5<br/>value = [4, 2]>, fillcolor="#e581397f"] ;
3 -> 11 ;
12 [label=<jockey &le; 0.307<br/>gini = 0.444<br/>samples = 3<br/>value = [1, 2]>, fillcolor="#399de57f"] ;
11 -> 12 ;
13 [label=<gini = 0.0<br/>samples = 1<br/>value = [1, 0]>, fillcolor="#e58139ff"] ;
12 -> 13 ;
14 [label=<gini = 0.0<br/>samples = 2<br/>value = [0, 2]>, fillcolor="#399de5ff"] ;
12 -> 14 ;
15 [label=<gini = 0.0<br/>samples = 2<br/>value = [3, 0]>, fillcolor="#e58139ff"] ;
11 -> 15 ;
16 [label=<gini = 0.0<br/>samples = 4<br/>value = [8, 0]>, fillcolor="#e58139ff"] ;
2 -> 16 ;
17 [label=<win2 &le; 2.5<br/>gini = 0.245<br/>samples = 59<br/>value = [84, 14]>, fillcolor="#e58139d4"] ;
1 -> 17 ;
18 [label=<gini = 0.0<br/>samples = 30<br/>value = [50, 0]>, fillcolor="#e58139ff"] ;
17 -> 18 ;
19 [label=<jockey &le; 0.234<br/>gini = 0.413<br/>samples = 29<br/>value = [34, 14]>, fillcolor="#e5813996"] ;
17 -> 19 ;
20 [label=<gini = 0.0<br/>samples = 8<br/>value = [12, 0]>, fillcolor="#e58139ff"] ;
19 -> 20 ;
21 [label=<age &le; 3.5<br/>gini = 0.475<br/>samples = 21<br/>value = [22, 14]>, fillcolor="#e581395d"] ;
19 -> 21 ;
22 [label=<distance &le; 1800.0<br/>gini = 0.245<br/>samples = 4<br/>value = [1, 6]>, fillcolor="#399de5d4"] ;
21 -> 22 ;
23 [label=<gini = 0.0<br/>samples = 3<br/>value = [0, 6]>, fillcolor="#399de5ff"] ;
22 -> 23 ;
24 [label=<gini = 0.0<br/>samples = 1<br/>value = [1, 0]>, fillcolor="#e58139ff"] ;
22 -> 24 ;
25 [label=<zougen &le; 3.0<br/>gini = 0.4<br/>samples = 17<br/>value = [21, 8]>, fillcolor="#e581399e"] ;
21 -> 25 ;
26 [label=<horse_weight &le; 498.0<br/>gini = 0.231<br/>samples = 10<br/>value = [13, 2]>, fillcolor="#e58139d8"] ;
25 -> 26 ;
27 [label=<gini = 0.0<br/>samples = 7<br/>value = [11, 0]>, fillcolor="#e58139ff"] ;
26 -> 27 ;
28 [label=<age &le; 5.5<br/>gini = 0.5<br/>samples = 3<br/>value = [2, 2]>, fillcolor="#e5813900"] ;
26 -> 28 ;
29 [label=<gini = 0.0<br/>samples = 1<br/>value = [0, 2]>, fillcolor="#399de5ff"] ;
28 -> 29 ;
30 [label=<gini = 0.0<br/>samples = 2<br/>value = [2, 0]>, fillcolor="#e58139ff"] ;
28 -> 30 ;
31 [label=<female &le; 0.5<br/>gini = 0.49<br/>samples = 7<br/>value = [8, 6]>, fillcolor="#e5813940"] ;
25 -> 31 ;
32 [label=<zougen &le; 6.5<br/>gini = 0.32<br/>samples = 5<br/>value = [8, 2]>, fillcolor="#e58139bf"] ;
31 -> 32 ;
33 [label=<gini = 0.0<br/>samples = 1<br/>value = [0, 1]>, fillcolor="#399de5ff"] ;
32 -> 33 ;
34 [label=<past2_result &le; 5.5<br/>gini = 0.198<br/>samples = 4<br/>value = [8, 1]>, fillcolor="#e58139df"] ;
32 -> 34 ;
35 [label=<gini = 0.0<br/>samples = 2<br/>value = [7, 0]>, fillcolor="#e58139ff"] ;
34 -> 35 ;
36 [label=<win1 &le; 6.0<br/>gini = 0.5<br/>samples = 2<br/>value = [1, 1]>, fillcolor="#e5813900"] ;
34 -> 36 ;
37 [label=<gini = 0.0<br/>samples = 1<br/>value = [0, 1]>, fillcolor="#399de5ff"] ;
36 -> 37 ;
38 [label=<gini = 0.0<br/>samples = 1<br/>value = [1, 0]>, fillcolor="#e58139ff"] ;
36 -> 38 ;
39 [label=<gini = 0.0<br/>samples = 2<br/>value = [0, 4]>, fillcolor="#399de5ff"] ;
31 -> 39 ;
40 [label=<past1_result &le; 2.5<br/>gini = 0.192<br/>samples = 63<br/>value = [91, 11]>, fillcolor="#e58139e0"] ;
0 -> 40 [labeldistance=2.5, labelangle=-45, headlabel="False"] ;
41 [label=<win1 &le; 1.5<br/>gini = 0.366<br/>samples = 22<br/>value = [22, 7]>, fillcolor="#e58139ae"] ;
40 -> 41 ;
42 [label=<gini = 0.0<br/>samples = 1<br/>value = [0, 2]>, fillcolor="#399de5ff"] ;
41 -> 42 ;
43 [label=<win2 &le; 0.5<br/>gini = 0.302<br/>samples = 21<br/>value = [22, 5]>, fillcolor="#e58139c5"] ;
41 -> 43 ;
44 [label=<gini = 0.0<br/>samples = 8<br/>value = [11, 0]>, fillcolor="#e58139ff"] ;
43 -> 44 ;
45 [label=<umaban &le; 11.0<br/>gini = 0.43<br/>samples = 13<br/>value = [11, 5]>, fillcolor="#e581398b"] ;
43 -> 45 ;
46 [label=<gini = 0.0<br/>samples = 8<br/>value = [10, 0]>, fillcolor="#e58139ff"] ;
45 -> 46 ;
47 [label=<horse_weight &le; 498.0<br/>gini = 0.278<br/>samples = 5<br/>value = [1, 5]>, fillcolor="#399de5cc"] ;
45 -> 47 ;
48 [label=<gini = 0.0<br/>samples = 4<br/>value = [0, 5]>, fillcolor="#399de5ff"] ;
47 -> 48 ;
49 [label=<gini = 0.0<br/>samples = 1<br/>value = [1, 0]>, fillcolor="#e58139ff"] ;
47 -> 49 ;
50 [label=<past3_result &le; 1.5<br/>gini = 0.104<br/>samples = 41<br/>value = [69, 4]>, fillcolor="#e58139f0"] ;
40 -> 50 ;
51 [label=<win1 &le; 4.5<br/>gini = 0.198<br/>samples = 11<br/>value = [16, 2]>, fillcolor="#e58139df"] ;
50 -> 51 ;
52 [label=<total_game &le; 5.5<br/>gini = 0.117<br/>samples = 9<br/>value = [15, 1]>, fillcolor="#e58139ee"] ;
51 -> 52 ;
53 [label=<jockey &le; 0.34<br/>gini = 0.444<br/>samples = 3<br/>value = [2, 1]>, fillcolor="#e581397f"] ;
52 -> 53 ;
54 [label=<gini = 0.0<br/>samples = 2<br/>value = [2, 0]>, fillcolor="#e58139ff"] ;
53 -> 54 ;
55 [label=<gini = 0.0<br/>samples = 1<br/>value = [0, 1]>, fillcolor="#399de5ff"] ;
53 -> 55 ;
56 [label=<gini = 0.0<br/>samples = 6<br/>value = [13, 0]>, fillcolor="#e58139ff"] ;
52 -> 56 ;
57 [label=<horse_weight &le; 495.0<br/>gini = 0.5<br/>samples = 2<br/>value = [1, 1]>, fillcolor="#e5813900"] ;
51 -> 57 ;
58 [label=<gini = 0.0<br/>samples = 1<br/>value = [1, 0]>, fillcolor="#e58139ff"] ;
57 -> 58 ;
59 [label=<gini = 0.0<br/>samples = 1<br/>value = [0, 1]>, fillcolor="#399de5ff"] ;
57 -> 59 ;
60 [label=<weight &le; 56.5<br/>gini = 0.07<br/>samples = 30<br/>value = [53, 2]>, fillcolor="#e58139f5"] ;
50 -> 60 ;
61 [label=<jockey &le; 0.27<br/>gini = 0.165<br/>samples = 11<br/>value = [20, 2]>, fillcolor="#e58139e6"] ;
60 -> 61 ;
62 [label=<gini = 0.0<br/>samples = 6<br/>value = [15, 0]>, fillcolor="#e58139ff"] ;
61 -> 62 ;
63 [label=<female &le; 0.5<br/>gini = 0.408<br/>samples = 5<br/>value = [5, 2]>, fillcolor="#e5813999"] ;
61 -> 63 ;
64 [label=<gini = 0.0<br/>samples = 1<br/>value = [0, 1]>, fillcolor="#399de5ff"] ;
63 -> 64 ;
65 [label=<past1_result &le; 4.5<br/>gini = 0.278<br/>samples = 4<br/>value = [5, 1]>, fillcolor="#e58139cc"] ;
63 -> 65 ;
66 [label=<gini = 0.0<br/>samples = 3<br/>value = [5, 0]>, fillcolor="#e58139ff"] ;
65 -> 66 ;
67 [label=<gini = 0.0<br/>samples = 1<br/>value = [0, 1]>, fillcolor="#399de5ff"] ;
65 -> 67 ;
68 [label=<gini = 0.0<br/>samples = 19<br/>value = [33, 0]>, fillcolor="#e58139ff"] ;
60 -> 68 ;
}