digraph Tree {
node [shape=box, style="filled", color="black"] ;
0 [label=<past3_result &le; 7.5<br/>gini = 0.314<br/>samples = 152<br/>value = [186, 45]>, fillcolor="#e58139c1"] ;
1 [label=<umaban &le; 12.5<br/>gini = 0.354<br/>samples = 131<br/>value = [151, 45]>, fillcolor="#e58139b3"] ;
0 -> 1 [labeldistance=2.5, labelangle=45, headlabel="True"] ;
2 [label=<jockey &le; 0.265<br/>gini = 0.415<br/>samples = 93<br/>value = [96, 40]>, fillcolor="#e5813995"] ;
1 -> 2 ;
3 [label=<gini = 0.0<br/>samples = 19<br/>value = [29, 0]>, fillcolor="#e58139ff"] ;
2 -> 3 ;
4 [label=<win2 &le; 0.5<br/>gini = 0.468<br/>samples = 74<br/>value = [67, 40]>, fillcolor="#e5813967"] ;
2 -> 4 ;
5 [label=<distance &le; 1800.0<br/>gini = 0.153<br/>samples = 9<br/>value = [11, 1]>, fillcolor="#e58139e8"] ;
4 -> 5 ;
6 [label=<past1_result &le; 5.5<br/>gini = 0.375<br/>samples = 2<br/>value = [3, 1]>, fillcolor="#e58139aa"] ;
5 -> 6 ;
7 [label=<gini = 0.0<br/>samples = 1<br/>value = [0, 1]>, fillcolor="#399de5ff"] ;
6 -> 7 ;
8 [label=<gini = 0.0<br/>samples = 1<br/>value = [3, 0]>, fillcolor="#e58139ff"] ;
6 -> 8 ;
9 [label=<gini = 0.0<br/>samples = 7<br/>value = [8, 0]>, fillcolor="#e58139ff"] ;
5 -> 9 ;
10 [label=<win2 &le; 5.5<br/>gini = 0.484<br/>samples = 65<br/>value = [56, 39]>, fillcolor="#e581394d"] ;
4 -> 10 ;
11 [label=<past2_result &le; 7.0<br/>gini = 0.495<br/>samples = 58<br/>value = [46, 38]>, fillcolor="#e581392c"] ;
10 -> 11 ;
12 [label=<frame_num &le; 4.5<br/>gini = 0.48<br/>samples = 46<br/>value = [39, 26]>, fillcolor="#e5813955"] ;
11 -> 12 ;
13 [label=<total_game &le; 25.5<br/>gini = 0.397<br/>samples = 32<br/>value = [32, 12]>, fillcolor="#e581399f"] ;
12 -> 13 ;
14 [label=<past3_result &le; 3.5<br/>gini = 0.381<br/>samples = 31<br/>value = [32, 11]>, fillcolor="#e58139a7"] ;
13 -> 14 ;
15 [label=<frame_num &le; 1.5<br/>gini = 0.225<br/>samples = 22<br/>value = [27, 4]>, fillcolor="#e58139d9"] ;
14 -> 15 ;
16 [label=<jockey &le; 0.409<br/>gini = 0.49<br/>samples = 7<br/>value = [4, 3]>, fillcolor="#e5813940"] ;
15 -> 16 ;
17 [label=<jockey &le; 0.269<br/>gini = 0.32<br/>samples = 5<br/>value = [4, 1]>, fillcolor="#e58139bf"] ;
16 -> 17 ;
18 [label=<gini = 0.0<br/>samples = 1<br/>value = [0, 1]>, fillcolor="#399de5ff"] ;
17 -> 18 ;
19 [label=<gini = 0.0<br/>samples = 4<br/>value = [4, 0]>, fillcolor="#e58139ff"] ;
17 -> 19 ;
20 [label=<gini = 0.0<br/>samples = 2<br/>value = [0, 2]>, fillcolor="#399de5ff"] ;
16 -> 20 ;
21 [label=<zougen &le; 1.0<br/>gini = 0.08<br/>samples = 15<br/>value = [23, 1]>, fillcolor="#e58139f4"] ;
15 -> 21 ;
22 [label=<total_game &le; 5.0<br/>gini = 0.198<br/>samples = 6<br/>value = [8, 1]>, fillcolor="#e58139df"] ;
21 -> 22 ;
23 [label=<umaban &le; 6.0<br/>gini = 0.5<br/>samples = 2<br/>value = [1, 1]>, fillcolor="#e5813900"] ;
22 -> 23 ;
24 [label=<gini = 0.0<br/>samples = 1<br/>value = [1, 0]>, fillcolor="#e58139ff"] ;
23 -> 24 ;
25 [label=<gini = 0.0<br/>samples = 1<br/>value = [0, 1]>, fillcolor="#399de5ff"] ;
23 -> 25 ;
26 [label=<gini = 0.0<br/>samples = 4<br/>value = [7, 0]>, fillcolor="#e58139ff"] ;
22 -> 26 ;
27 [label=<gini = 0.0<br/>samples = 9<br/>value = [15, 0]>, fillcolor="#e58139ff"] ;
21 -> 27 ;
28 [label=<win3 &le; 2.0<br/>gini = 0.486<br/>samples = 9<br/>value = [5, 7]>, fillcolor="#399de549"] ;
14 -> 28 ;
29 [label=<distance &le; 2100.0<br/>gini = 0.346<br/>samples = 7<br/>value = [2, 7]>, fillcolor="#399de5b6"] ;
28 -> 29 ;
30 [label=<gini = 0.0<br/>samples = 5<br/>value = [0, 7]>, fillcolor="#399de5ff"] ;
29 -> 30 ;
31 [label=<gini = 0.0<br/>samples = 2<br/>value = [2, 0]>, fillcolor="#e58139ff"] ;
29 -> 31 ;
32 [label=<gini = 0.0<br/>samples = 2<br/>value = [3, 0]>, fillcolor="#e58139ff"] ;
28 -> 32 ;
33 [label=<gini = 0.0<br/>samples = 1<br/>value = [0, 1]>, fillcolor="#399de5ff"] ;
13 -> 33 ;
34 [label=<win3 &le; 0.5<br/>gini = 0.444<br/>samples = 14<br/>value = [7, 14]>, fillcolor="#399de57f"] ;
12 -> 34 ;
35 [label=<gini = 0.0<br/>samples = 5<br/>value = [0, 7]>, fillcolor="#399de5ff"] ;
34 -> 35 ;
36 [label=<win1 &le; 6.5<br/>gini = 0.5<br/>samples = 9<br/>value = [7, 7]>, fillcolor="#e5813900"] ;
34 -> 36 ;
37 [label=<past3_result &le; 1.5<br/>gini = 0.42<br/>samples = 6<br/>value = [7, 3]>, fillcolor="#e5813992"] ;
36 -> 37 ;
38 [label=<win1 &le; 2.5<br/>gini = 0.375<br/>samples = 3<br/>value = [1, 3]>, fillcolor="#399de5aa"] ;
37 -> 38 ;
39 [label=<gini = 0.0<br/>samples = 1<br/>value = [1, 0]>, fillcolor="#e58139ff"] ;
38 -> 39 ;
40 [label=<gini = 0.0<br/>samples = 2<br/>value = [0, 3]>, fillcolor="#399de5ff"] ;
38 -> 40 ;
41 [label=<gini = 0.0<br/>samples = 3<br/>value = [6, 0]>, fillcolor="#e58139ff"] ;
37 -> 41 ;
42 [label=<gini = 0.0<br/>samples = 3<br/>value = [0, 4]>, fillcolor="#399de5ff"] ;
36 -> 42 ;
43 [label=<distance &le; 1400.0<br/>gini = 0.465<br/>samples = 12<br/>value = [7, 12]>, fillcolor="#399de56a"] ;
11 -> 43 ;
44 [label=<gini = 0.0<br/>samples = 1<br/>value = [1, 0]>, fillcolor="#e58139ff"] ;
43 -> 44 ;
45 [label=<jockey &le; 0.403<br/>gini = 0.444<br/>samples = 11<br/>value = [6, 12]>, fillcolor="#399de57f"] ;
43 -> 45 ;
46 [label=<win3 &le; 0.5<br/>gini = 0.165<br/>samples = 6<br/>value = [1, 10]>, fillcolor="#399de5e6"] ;
45 -> 46 ;
47 [label=<past2_result &le; 10.5<br/>gini = 0.444<br/>samples = 2<br/>value = [1, 2]>, fillcolor="#399de57f"] ;
46 -> 47 ;
48 [label=<gini = 0.0<br/>samples = 1<br/>value = [1, 0]>, fillcolor="#e58139ff"] ;
47 -> 48 ;
49 [label=<gini = 0.0<br/>samples = 1<br/>value = [0, 2]>, fillcolor="#399de5ff"] ;
47 -> 49 ;
50 [label=<gini = 0.0<br/>samples = 4<br/>value = [0, 8]>, fillcolor="#399de5ff"] ;
46 -> 50 ;
51 [label=<umaban &le; 1.5<br/>gini = 0.408<br/>samples = 5<br/>value = [5, 2]>, fillcolor="#e5813999"] ;
45 -> 51 ;
52 [label=<gini = 0.0<br/>samples = 1<br/>value = [0, 2]>, fillcolor="#399de5ff"] ;
51 -> 52 ;
53 [label=<gini = 0.0<br/>samples = 4<br/>value = [5, 0]>, fillcolor="#e58139ff"] ;
51 -> 53 ;
54 [label=<win3 &le; 3.0<br/>gini = 0.165<br/>samples = 7<br/>value = [10, 1]>, fillcolor="#e58139e6"] ;
10 -> 54 ;
55 [label=<horse_weight &le; 454.0<br/>gini = 0.375<br/>samples = 3<br/>value = [3, 1]>, fillcolor="#e58139aa"] ;
54 -> 55 ;
56 [label=<gini = 0.0<br/>samples = 1<br/>value = [0, 1]>, fillcolor="#399de5ff"] ;
55 -> 56 ;
57 [label=<gini = 0.0<br/>samples = 2<br/>value = [3, 0]>, fillcolor="#e58139ff"] ;
55 -> 57 ;
58 [label=<gini = 0.0<br/>samples = 4<br/>value = [7, 0]>, fillcolor="#e58139ff"] ;
54 -> 58 ;
59 [label=<jockey &le; 0.288<br/>gini = 0.153<br/>samples = 38<br/>value = [55, 5]>, fillcolor="#e58139e8"] ;
1 -> 59 ;
60 [label=<gini = 0.0<br/>samples = 17<br/>value = [27, 0]>, fillcolor="#e58139ff"] ;
59 -> 60 ;
61 [label=<win2 &le; 5.5<br/>gini = 0.257<br/>samples = 21<br/>value = [28, 5]>, fillcolor="#e58139d1"] ;
59 -> 61 ;
62 [label=<past3_result &le; 1.5<br/>gini = 0.219<br/>samples = 20<br/>value = [28, 4]>, fillcolor="#e58139db"] ;
61 -> 62 ;
63 [label=<jockey &le; 0.43<br/>gini = 0.444<br/>samples = 7<br/>value = [6, 3]>, fillcolor="#e581397f"] ;
62 -> 63 ;
64 [label=<gini = 0.0<br/>samples = 5<br/>value = [6, 0]>, fillcolor="#e58139ff"] ;
63 -> 64 ;
65 [label=<gini = 0.0<br/>samples = 2<br/>value = [0, 3]>, fillcolor="#399de5ff"] ;
63 -> 65 ;
66 [label=<distance &le; 1800.0<br/>gini = 0.083<br/>samples = 13<br/>value = [22, 1]>, fillcolor="#e58139f3"] ;
62 -> 66 ;
67 [label=<horse_weight &le; 475.0<br/>gini = 0.198<br/>samples = 5<br/>value = [8, 1]>, fillcolor="#e58139df"] ;
66 -> 67 ;
68 [label=<past2_result &le; 3.0<br/>gini = 0.5<br/>samples = 2<br/>value = [1, 1]>, fillcolor="#e5813900"] ;
67 -> 68 ;
69 [label=<gini = 0.0<br/>samples = 1<br/>value = [0, 1]>, fillcolor="#399de5ff"] ;
68 -> 69 ;
70 [label=<gini = 0.0<br/>samples = 1<br/>value = [1, 0]>, fillcolor="#e58139ff"] ;
68 -> 70 ;
71 [label=<gini = 0.0<br/>samples = 3<br/>value = [7, 0]>, fillcolor="#e58139ff"] ;
67 -> 71 ;
72 [label=<gini = 0.0<br/>samples = 8<br/>value = [14, 0]>, fillcolor="#e58139ff"] ;
66 -> 72 ;
73 [label=<gini = 0.0<br/>samples = 1<br/>value = [0, 1]>, fillcolor="#399de5ff"] ;
61 -> 73 ;
74 [label=<gini = 0.0<br/>samples = 21<br/>value = [35, 0]>, fillcolor="#e58139ff"] ;
0 -> 74 [labeldistance=2.5, labelangle=-45, headlabel="False"] ;
}