digraph Tree {
node [shape=box, style="filled", color="black"] ;
0 [label=<horse_weight &le; 469.0<br/>gini = 0.324<br/>samples = 151<br/>value = [184, 47]>, fillcolor="#e58139be"] ;
1 [label=<jockey &le; 0.288<br/>gini = 0.159<br/>samples = 48<br/>value = [63, 6]>, fillcolor="#e58139e7"] ;
0 -> 1 [labeldistance=2.5, labelangle=45, headlabel="True"] ;
2 [label=<horse_weight &le; 438.0<br/>gini = 0.043<br/>samples = 31<br/>value = [45, 1]>, fillcolor="#e58139f9"] ;
1 -> 2 ;
3 [label=<distance &le; 1400.0<br/>gini = 0.165<br/>samples = 8<br/>value = [10, 1]>, fillcolor="#e58139e6"] ;
2 -> 3 ;
4 [label=<gini = 0.0<br/>samples = 1<br/>value = [0, 1]>, fillcolor="#399de5ff"] ;
3 -> 4 ;
5 [label=<gini = 0.0<br/>samples = 7<br/>value = [10, 0]>, fillcolor="#e58139ff"] ;
3 -> 5 ;
6 [label=<gini = 0.0<br/>samples = 23<br/>value = [35, 0]>, fillcolor="#e58139ff"] ;
2 -> 6 ;
7 [label=<jockey &le; 0.312<br/>gini = 0.34<br/>samples = 17<br/>value = [18, 5]>, fillcolor="#e58139b8"] ;
1 -> 7 ;
8 [label=<past3_result &le; 3.5<br/>gini = 0.444<br/>samples = 3<br/>value = [1, 2]>, fillcolor="#399de57f"] ;
7 -> 8 ;
9 [label=<gini = 0.0<br/>samples = 1<br/>value = [1, 0]>, fillcolor="#e58139ff"] ;
8 -> 9 ;
10 [label=<gini = 0.0<br/>samples = 2<br/>value = [0, 2]>, fillcolor="#399de5ff"] ;
8 -> 10 ;
11 [label=<condition &le; 1.5<br/>gini = 0.255<br/>samples = 14<br/>value = [17, 3]>, fillcolor="#e58139d2"] ;
7 -> 11 ;
12 [label=<win1 &le; 2.5<br/>gini = 0.32<br/>samples = 11<br/>value = [12, 3]>, fillcolor="#e58139bf"] ;
11 -> 12 ;
13 [label=<gini = 0.0<br/>samples = 5<br/>value = [9, 0]>, fillcolor="#e58139ff"] ;
12 -> 13 ;
14 [label=<win1 &le; 3.5<br/>gini = 0.5<br/>samples = 6<br/>value = [3, 3]>, fillcolor="#e5813900"] ;
12 -> 14 ;
15 [label=<female &le; 0.5<br/>gini = 0.375<br/>samples = 4<br/>value = [1, 3]>, fillcolor="#399de5aa"] ;
14 -> 15 ;
16 [label=<jockey &le; 0.465<br/>gini = 0.5<br/>samples = 2<br/>value = [1, 1]>, fillcolor="#e5813900"] ;
15 -> 16 ;
17 [label=<gini = 0.0<br/>samples = 1<br/>value = [0, 1]>, fillcolor="#399de5ff"] ;
16 -> 17 ;
18 [label=<gini = 0.0<br/>samples = 1<br/>value = [1, 0]>, fillcolor="#e58139ff"] ;
16 -> 18 ;
19 [label=<gini = 0.0<br/>samples = 2<br/>value = [0, 2]>, fillcolor="#399de5ff"] ;
15 -> 19 ;
20 [label=<gini = 0.0<br/>samples = 2<br/>value = [2, 0]>, fillcolor="#e58139ff"] ;
14 -> 20 ;
21 [label=<gini = 0.0<br/>samples = 3<br/>value = [5, 0]>, fillcolor="#e58139ff"] ;
11 -> 21 ;
22 [label=<win3 &le; 1.5<br/>gini = 0.378<br/>samples = 103<br/>value = [121, 41]>, fillcolor="#e58139a9"] ;
0 -> 22 [labeldistance=2.5, labelangle=-45, headlabel="False"] ;
23 [label=<horse_weight &le; 503.0<br/>gini = 0.428<br/>samples = 57<br/>value = [60, 27]>, fillcolor="#e581398c"] ;
22 -> 23 ;
24 [label=<past1_result &le; 2.5<br/>gini = 0.48<br/>samples = 36<br/>value = [33, 22]>, fillcolor="#e5813955"] ;
23 -> 24 ;
25 [label=<zougen &le; -9.0<br/>gini = 0.484<br/>samples = 20<br/>value = [14, 20]>, fillcolor="#399de54d"] ;
24 -> 25 ;
26 [label=<gini = 0.0<br/>samples = 2<br/>value = [5, 0]>, fillcolor="#e58139ff"] ;
25 -> 26 ;
27 [label=<horse_weight &le; 494.0<br/>gini = 0.428<br/>samples = 18<br/>value = [9, 20]>, fillcolor="#399de58c"] ;
25 -> 27 ;
28 [label=<jockey &le; 0.235<br/>gini = 0.298<br/>samples = 14<br/>value = [4, 18]>, fillcolor="#399de5c6"] ;
27 -> 28 ;
29 [label=<gini = 0.0<br/>samples = 2<br/>value = [2, 0]>, fillcolor="#e58139ff"] ;
28 -> 29 ;
30 [label=<zougen &le; 2.0<br/>gini = 0.18<br/>samples = 12<br/>value = [2, 18]>, fillcolor="#399de5e3"] ;
28 -> 30 ;
31 [label=<gini = 0.0<br/>samples = 4<br/>value = [0, 8]>, fillcolor="#399de5ff"] ;
30 -> 31 ;
32 [label=<past3_result &le; 3.0<br/>gini = 0.278<br/>samples = 8<br/>value = [2, 10]>, fillcolor="#399de5cc"] ;
30 -> 32 ;
33 [label=<jockey &le; 0.484<br/>gini = 0.408<br/>samples = 6<br/>value = [2, 5]>, fillcolor="#399de599"] ;
32 -> 33 ;
34 [label=<distance &le; 2000.0<br/>gini = 0.444<br/>samples = 3<br/>value = [2, 1]>, fillcolor="#e581397f"] ;
33 -> 34 ;
35 [label=<gini = 0.0<br/>samples = 2<br/>value = [2, 0]>, fillcolor="#e58139ff"] ;
34 -> 35 ;
36 [label=<gini = 0.0<br/>samples = 1<br/>value = [0, 1]>, fillcolor="#399de5ff"] ;
34 -> 36 ;
37 [label=<gini = 0.0<br/>samples = 3<br/>value = [0, 4]>, fillcolor="#399de5ff"] ;
33 -> 37 ;
38 [label=<gini = 0.0<br/>samples = 2<br/>value = [0, 5]>, fillcolor="#399de5ff"] ;
32 -> 38 ;
39 [label=<frame_num &le; 4.0<br/>gini = 0.408<br/>samples = 4<br/>value = [5, 2]>, fillcolor="#e5813999"] ;
27 -> 39 ;
40 [label=<gini = 0.0<br/>samples = 3<br/>value = [5, 0]>, fillcolor="#e58139ff"] ;
39 -> 40 ;
41 [label=<gini = 0.0<br/>samples = 1<br/>value = [0, 2]>, fillcolor="#399de5ff"] ;
39 -> 41 ;
42 [label=<jockey &le; 0.403<br/>gini = 0.172<br/>samples = 16<br/>value = [19, 2]>, fillcolor="#e58139e4"] ;
24 -> 42 ;
43 [label=<gini = 0.0<br/>samples = 13<br/>value = [18, 0]>, fillcolor="#e58139ff"] ;
42 -> 43 ;
44 [label=<weight &le; 57.5<br/>gini = 0.444<br/>samples = 3<br/>value = [1, 2]>, fillcolor="#399de57f"] ;
42 -> 44 ;
45 [label=<total_game &le; 8.0<br/>gini = 0.5<br/>samples = 2<br/>value = [1, 1]>, fillcolor="#e5813900"] ;
44 -> 45 ;
46 [label=<gini = 0.0<br/>samples = 1<br/>value = [1, 0]>, fillcolor="#e58139ff"] ;
45 -> 46 ;
47 [label=<gini = 0.0<br/>samples = 1<br/>value = [0, 1]>, fillcolor="#399de5ff"] ;
45 -> 47 ;
48 [label=<gini = 0.0<br/>samples = 1<br/>value = [0, 1]>, fillcolor="#399de5ff"] ;
44 -> 48 ;
49 [label=<past1_result &le; 3.5<br/>gini = 0.264<br/>samples = 21<br/>value = [27, 5]>, fillcolor="#e58139d0"] ;
23 -> 49 ;
50 [label=<past3_result &le; 6.0<br/>gini = 0.1<br/>samples = 13<br/>value = [18, 1]>, fillcolor="#e58139f1"] ;
49 -> 50 ;
51 [label=<gini = 0.0<br/>samples = 10<br/>value = [15, 0]>, fillcolor="#e58139ff"] ;
50 -> 51 ;
52 [label=<zougen &le; -10.0<br/>gini = 0.375<br/>samples = 3<br/>value = [3, 1]>, fillcolor="#e58139aa"] ;
50 -> 52 ;
53 [label=<gini = 0.0<br/>samples = 1<br/>value = [0, 1]>, fillcolor="#399de5ff"] ;
52 -> 53 ;
54 [label=<gini = 0.0<br/>samples = 2<br/>value = [3, 0]>, fillcolor="#e58139ff"] ;
52 -> 54 ;
55 [label=<age &le; 4.5<br/>gini = 0.426<br/>samples = 8<br/>value = [9, 4]>, fillcolor="#e581398e"] ;
49 -> 55 ;
56 [label=<male &le; 0.5<br/>gini = 0.444<br/>samples = 4<br/>value = [2, 4]>, fillcolor="#399de57f"] ;
55 -> 56 ;
57 [label=<gini = 0.0<br/>samples = 2<br/>value = [2, 0]>, fillcolor="#e58139ff"] ;
56 -> 57 ;
58 [label=<gini = 0.0<br/>samples = 2<br/>value = [0, 4]>, fillcolor="#399de5ff"] ;
56 -> 58 ;
59 [label=<gini = 0.0<br/>samples = 4<br/>value = [7, 0]>, fillcolor="#e58139ff"] ;
55 -> 59 ;
60 [label=<past1_result &le; 3.5<br/>gini = 0.304<br/>samples = 46<br/>value = [61, 14]>, fillcolor="#e58139c4"] ;
22 -> 60 ;
61 [label=<past3_result &le; 6.5<br/>gini = 0.431<br/>samples = 23<br/>value = [24, 11]>, fillcolor="#e581398a"] ;
60 -> 61 ;
62 [label=<jockey &le; 0.43<br/>gini = 0.337<br/>samples = 20<br/>value = [22, 6]>, fillcolor="#e58139b9"] ;
61 -> 62 ;
63 [label=<horse_weight &le; 519.0<br/>gini = 0.095<br/>samples = 15<br/>value = [19, 1]>, fillcolor="#e58139f2"] ;
62 -> 63 ;
64 [label=<gini = 0.0<br/>samples = 13<br/>value = [18, 0]>, fillcolor="#e58139ff"] ;
63 -> 64 ;
65 [label=<weight &le; 56.0<br/>gini = 0.5<br/>samples = 2<br/>value = [1, 1]>, fillcolor="#e5813900"] ;
63 -> 65 ;
66 [label=<gini = 0.0<br/>samples = 1<br/>value = [0, 1]>, fillcolor="#399de5ff"] ;
65 -> 66 ;
67 [label=<gini = 0.0<br/>samples = 1<br/>value = [1, 0]>, fillcolor="#e58139ff"] ;
65 -> 67 ;
68 [label=<frame_num &le; 3.5<br/>gini = 0.469<br/>samples = 5<br/>value = [3, 5]>, fillcolor="#399de566"] ;
62 -> 68 ;
69 [label=<age &le; 3.5<br/>gini = 0.375<br/>samples = 3<br/>value = [3, 1]>, fillcolor="#e58139aa"] ;
68 -> 69 ;
70 [label=<gini = 0.0<br/>samples = 1<br/>value = [0, 1]>, fillcolor="#399de5ff"] ;
69 -> 70 ;
71 [label=<gini = 0.0<br/>samples = 2<br/>value = [3, 0]>, fillcolor="#e58139ff"] ;
69 -> 71 ;
72 [label=<gini = 0.0<br/>samples = 2<br/>value = [0, 4]>, fillcolor="#399de5ff"] ;
68 -> 72 ;
73 [label=<total_game &le; 18.5<br/>gini = 0.408<br/>samples = 3<br/>value = [2, 5]>, fillcolor="#399de599"] ;
61 -> 73 ;
74 [label=<gini = 0.0<br/>samples = 1<br/>value = [0, 4]>, fillcolor="#399de5ff"] ;
73 -> 74 ;
75 [label=<age &le; 5.5<br/>gini = 0.444<br/>samples = 2<br/>value = [2, 1]>, fillcolor="#e581397f"] ;
73 -> 75 ;
76 [label=<gini = 0.0<br/>samples = 1<br/>value = [0, 1]>, fillcolor="#399de5ff"] ;
75 -> 76 ;
77 [label=<gini = 0.0<br/>samples = 1<br/>value = [2, 0]>, fillcolor="#e58139ff"] ;
75 -> 77 ;
78 [label=<win1 &le; 10.5<br/>gini = 0.139<br/>samples = 23<br/>value = [37, 3]>, fillcolor="#e58139ea"] ;
60 -> 78 ;
79 [label=<win3 &le; 5.5<br/>gini = 0.097<br/>samples = 22<br/>value = [37, 2]>, fillcolor="#e58139f1"] ;
78 -> 79 ;
80 [label=<gini = 0.0<br/>samples = 17<br/>value = [34, 0]>, fillcolor="#e58139ff"] ;
79 -> 80 ;
81 [label=<total_game &le; 28.5<br/>gini = 0.48<br/>samples = 5<br/>value = [3, 2]>, fillcolor="#e5813955"] ;
79 -> 81 ;
82 [label=<zougen &le; -3.0<br/>gini = 0.444<br/>samples = 3<br/>value = [1, 2]>, fillcolor="#399de57f"] ;
81 -> 82 ;
83 [label=<gini = 0.0<br/>samples = 1<br/>value = [1, 0]>, fillcolor="#e58139ff"] ;
82 -> 83 ;
84 [label=<gini = 0.0<br/>samples = 2<br/>value = [0, 2]>, fillcolor="#399de5ff"] ;
82 -> 84 ;
85 [label=<gini = 0.0<br/>samples = 2<br/>value = [2, 0]>, fillcolor="#e58139ff"] ;
81 -> 85 ;
86 [label=<gini = 0.0<br/>samples = 1<br/>value = [0, 1]>, fillcolor="#399de5ff"] ;
78 -> 86 ;
}