digraph Tree {
node [shape=box, style="filled", color="black"] ;
0 [label=<weight &le; 53.5<br/>gini = 0.281<br/>samples = 149<br/>value = [192, 39]>, fillcolor="#e58139cb"] ;
1 [label=<gini = 0.0<br/>samples = 1<br/>value = [0, 2]>, fillcolor="#399de5ff"] ;
0 -> 1 [labeldistance=2.5, labelangle=45, headlabel="True"] ;
2 [label=<jockey &le; 0.43<br/>gini = 0.271<br/>samples = 148<br/>value = [192, 37]>, fillcolor="#e58139ce"] ;
0 -> 2 [labeldistance=2.5, labelangle=-45, headlabel="False"] ;
3 [label=<past1_result &le; 5.5<br/>gini = 0.176<br/>samples = 121<br/>value = [167, 18]>, fillcolor="#e58139e4"] ;
2 -> 3 ;
4 [label=<jockey &le; 0.249<br/>gini = 0.245<br/>samples = 76<br/>value = [102, 17]>, fillcolor="#e58139d4"] ;
3 -> 4 ;
5 [label=<weight &le; 57.5<br/>gini = 0.091<br/>samples = 28<br/>value = [40, 2]>, fillcolor="#e58139f2"] ;
4 -> 5 ;
6 [label=<gini = 0.0<br/>samples = 25<br/>value = [36, 0]>, fillcolor="#e58139ff"] ;
5 -> 6 ;
7 [label=<past3_result &le; 7.5<br/>gini = 0.444<br/>samples = 3<br/>value = [4, 2]>, fillcolor="#e581397f"] ;
5 -> 7 ;
8 [label=<past3_result &le; 6.0<br/>gini = 0.444<br/>samples = 2<br/>value = [1, 2]>, fillcolor="#399de57f"] ;
7 -> 8 ;
9 [label=<gini = 0.0<br/>samples = 1<br/>value = [1, 0]>, fillcolor="#e58139ff"] ;
8 -> 9 ;
10 [label=<gini = 0.0<br/>samples = 1<br/>value = [0, 2]>, fillcolor="#399de5ff"] ;
8 -> 10 ;
11 [label=<gini = 0.0<br/>samples = 1<br/>value = [3, 0]>, fillcolor="#e58139ff"] ;
7 -> 11 ;
12 [label=<jockey &le; 0.273<br/>gini = 0.314<br/>samples = 48<br/>value = [62, 15]>, fillcolor="#e58139c1"] ;
4 -> 12 ;
13 [label=<umaban &le; 13.0<br/>gini = 0.494<br/>samples = 5<br/>value = [5, 4]>, fillcolor="#e5813933"] ;
12 -> 13 ;
14 [label=<past1_result &le; 1.5<br/>gini = 0.32<br/>samples = 3<br/>value = [1, 4]>, fillcolor="#399de5bf"] ;
13 -> 14 ;
15 [label=<gini = 0.0<br/>samples = 2<br/>value = [0, 4]>, fillcolor="#399de5ff"] ;
14 -> 15 ;
16 [label=<gini = 0.0<br/>samples = 1<br/>value = [1, 0]>, fillcolor="#e58139ff"] ;
14 -> 16 ;
17 [label=<gini = 0.0<br/>samples = 2<br/>value = [4, 0]>, fillcolor="#e58139ff"] ;
13 -> 17 ;
18 [label=<past1_result &le; 3.5<br/>gini = 0.271<br/>samples = 43<br/>value = [57, 11]>, fillcolor="#e58139ce"] ;
12 -> 18 ;
19 [label=<win2 &le; 2.5<br/>gini = 0.13<br/>samples = 28<br/>value = [40, 3]>, fillcolor="#e58139ec"] ;
18 -> 19 ;
20 [label=<condition &le; 1.5<br/>gini = 0.062<br/>samples = 19<br/>value = [30, 1]>, fillcolor="#e58139f6"] ;
19 -> 20 ;
21 [label=<gini = 0.0<br/>samples = 13<br/>value = [23, 0]>, fillcolor="#e58139ff"] ;
20 -> 21 ;
22 [label=<win2 &le; 0.5<br/>gini = 0.219<br/>samples = 6<br/>value = [7, 1]>, fillcolor="#e58139db"] ;
20 -> 22 ;
23 [label=<gini = 0.0<br/>samples = 1<br/>value = [0, 1]>, fillcolor="#399de5ff"] ;
22 -> 23 ;
24 [label=<gini = 0.0<br/>samples = 5<br/>value = [7, 0]>, fillcolor="#e58139ff"] ;
22 -> 24 ;
25 [label=<frame_num &le; 7.5<br/>gini = 0.278<br/>samples = 9<br/>value = [10, 2]>, fillcolor="#e58139cc"] ;
19 -> 25 ;
26 [label=<win2 &le; 3.5<br/>gini = 0.165<br/>samples = 8<br/>value = [10, 1]>, fillcolor="#e58139e6"] ;
25 -> 26 ;
27 [label=<gini = 0.0<br/>samples = 1<br/>value = [0, 1]>, fillcolor="#399de5ff"] ;
26 -> 27 ;
28 [label=<gini = 0.0<br/>samples = 7<br/>value = [10, 0]>, fillcolor="#e58139ff"] ;
26 -> 28 ;
29 [label=<gini = 0.0<br/>samples = 1<br/>value = [0, 1]>, fillcolor="#399de5ff"] ;
25 -> 29 ;
30 [label=<umaban &le; 14.5<br/>gini = 0.435<br/>samples = 15<br/>value = [17, 8]>, fillcolor="#e5813987"] ;
18 -> 30 ;
31 [label=<horse_weight &le; 481.0<br/>gini = 0.386<br/>samples = 14<br/>value = [17, 6]>, fillcolor="#e58139a5"] ;
30 -> 31 ;
32 [label=<gini = 0.0<br/>samples = 6<br/>value = [10, 0]>, fillcolor="#e58139ff"] ;
31 -> 32 ;
33 [label=<horse_weight &le; 483.0<br/>gini = 0.497<br/>samples = 8<br/>value = [7, 6]>, fillcolor="#e5813924"] ;
31 -> 33 ;
34 [label=<gini = 0.0<br/>samples = 1<br/>value = [0, 3]>, fillcolor="#399de5ff"] ;
33 -> 34 ;
35 [label=<distance &le; 1400.0<br/>gini = 0.42<br/>samples = 7<br/>value = [7, 3]>, fillcolor="#e5813992"] ;
33 -> 35 ;
36 [label=<gini = 0.0<br/>samples = 1<br/>value = [0, 2]>, fillcolor="#399de5ff"] ;
35 -> 36 ;
37 [label=<distance &le; 2250.0<br/>gini = 0.219<br/>samples = 6<br/>value = [7, 1]>, fillcolor="#e58139db"] ;
35 -> 37 ;
38 [label=<gini = 0.0<br/>samples = 4<br/>value = [6, 0]>, fillcolor="#e58139ff"] ;
37 -> 38 ;
39 [label=<jockey &le; 0.35<br/>gini = 0.5<br/>samples = 2<br/>value = [1, 1]>, fillcolor="#e5813900"] ;
37 -> 39 ;
40 [label=<gini = 0.0<br/>samples = 1<br/>value = [0, 1]>, fillcolor="#399de5ff"] ;
39 -> 40 ;
41 [label=<gini = 0.0<br/>samples = 1<br/>value = [1, 0]>, fillcolor="#e58139ff"] ;
39 -> 41 ;
42 [label=<gini = 0.0<br/>samples = 1<br/>value = [0, 2]>, fillcolor="#399de5ff"] ;
30 -> 42 ;
43 [label=<win1 &le; 6.5<br/>gini = 0.03<br/>samples = 45<br/>value = [65, 1]>, fillcolor="#e58139fb"] ;
3 -> 43 ;
44 [label=<gini = 0.0<br/>samples = 34<br/>value = [48, 0]>, fillcolor="#e58139ff"] ;
43 -> 44 ;
45 [label=<past3_result &le; 1.5<br/>gini = 0.105<br/>samples = 11<br/>value = [17, 1]>, fillcolor="#e58139f0"] ;
43 -> 45 ;
46 [label=<win2 &le; 3.5<br/>gini = 0.375<br/>samples = 2<br/>value = [3, 1]>, fillcolor="#e58139aa"] ;
45 -> 46 ;
47 [label=<gini = 0.0<br/>samples = 1<br/>value = [3, 0]>, fillcolor="#e58139ff"] ;
46 -> 47 ;
48 [label=<gini = 0.0<br/>samples = 1<br/>value = [0, 1]>, fillcolor="#399de5ff"] ;
46 -> 48 ;
49 [label=<gini = 0.0<br/>samples = 9<br/>value = [14, 0]>, fillcolor="#e58139ff"] ;
45 -> 49 ;
50 [label=<female &le; 0.5<br/>gini = 0.491<br/>samples = 27<br/>value = [25, 19]>, fillcolor="#e581393d"] ;
2 -> 50 ;
51 [label=<win2 &le; 0.5<br/>gini = 0.48<br/>samples = 19<br/>value = [12, 18]>, fillcolor="#399de555"] ;
50 -> 51 ;
52 [label=<gini = 0.0<br/>samples = 3<br/>value = [6, 0]>, fillcolor="#e58139ff"] ;
51 -> 52 ;
53 [label=<past2_result &le; 1.5<br/>gini = 0.375<br/>samples = 16<br/>value = [6, 18]>, fillcolor="#399de5aa"] ;
51 -> 53 ;
54 [label=<umaban &le; 8.5<br/>gini = 0.5<br/>samples = 6<br/>value = [4, 4]>, fillcolor="#e5813900"] ;
53 -> 54 ;
55 [label=<umaban &le; 3.0<br/>gini = 0.375<br/>samples = 3<br/>value = [3, 1]>, fillcolor="#e58139aa"] ;
54 -> 55 ;
56 [label=<gini = 0.0<br/>samples = 1<br/>value = [0, 1]>, fillcolor="#399de5ff"] ;
55 -> 56 ;
57 [label=<gini = 0.0<br/>samples = 2<br/>value = [3, 0]>, fillcolor="#e58139ff"] ;
55 -> 57 ;
58 [label=<horse_weight &le; 471.0<br/>gini = 0.375<br/>samples = 3<br/>value = [1, 3]>, fillcolor="#399de5aa"] ;
54 -> 58 ;
59 [label=<gini = 0.0<br/>samples = 1<br/>value = [1, 0]>, fillcolor="#e58139ff"] ;
58 -> 59 ;
60 [label=<gini = 0.0<br/>samples = 2<br/>value = [0, 3]>, fillcolor="#399de5ff"] ;
58 -> 60 ;
61 [label=<win1 &le; 9.5<br/>gini = 0.219<br/>samples = 10<br/>value = [2, 14]>, fillcolor="#399de5db"] ;
53 -> 61 ;
62 [label=<past3_result &le; 6.0<br/>gini = 0.124<br/>samples = 9<br/>value = [1, 14]>, fillcolor="#399de5ed"] ;
61 -> 62 ;
63 [label=<gini = 0.0<br/>samples = 7<br/>value = [0, 13]>, fillcolor="#399de5ff"] ;
62 -> 63 ;
64 [label=<distance &le; 1900.0<br/>gini = 0.5<br/>samples = 2<br/>value = [1, 1]>, fillcolor="#e5813900"] ;
62 -> 64 ;
65 [label=<gini = 0.0<br/>samples = 1<br/>value = [0, 1]>, fillcolor="#399de5ff"] ;
64 -> 65 ;
66 [label=<gini = 0.0<br/>samples = 1<br/>value = [1, 0]>, fillcolor="#e58139ff"] ;
64 -> 66 ;
67 [label=<gini = 0.0<br/>samples = 1<br/>value = [1, 0]>, fillcolor="#e58139ff"] ;
61 -> 67 ;
68 [label=<frame_num &le; 6.5<br/>gini = 0.133<br/>samples = 8<br/>value = [13, 1]>, fillcolor="#e58139eb"] ;
50 -> 68 ;
69 [label=<gini = 0.0<br/>samples = 5<br/>value = [9, 0]>, fillcolor="#e58139ff"] ;
68 -> 69 ;
70 [label=<past3_result &le; 2.0<br/>gini = 0.32<br/>samples = 3<br/>value = [4, 1]>, fillcolor="#e58139bf"] ;
68 -> 70 ;
71 [label=<past1_result &le; 1.5<br/>gini = 0.444<br/>samples = 2<br/>value = [2, 1]>, fillcolor="#e581397f"] ;
70 -> 71 ;
72 [label=<gini = 0.0<br/>samples = 1<br/>value = [0, 1]>, fillcolor="#399de5ff"] ;
71 -> 72 ;
73 [label=<gini = 0.0<br/>samples = 1<br/>value = [2, 0]>, fillcolor="#e58139ff"] ;
71 -> 73 ;
74 [label=<gini = 0.0<br/>samples = 1<br/>value = [2, 0]>, fillcolor="#e58139ff"] ;
70 -> 74 ;
}