digraph Tree {
node [shape=box, style="filled", color="black"] ;
0 [label=<jockey &le; 0.414<br/>gini = 0.354<br/>samples = 146<br/>value = [178, 53]>, fillcolor="#e58139b3"] ;
1 [label=<win1 &le; 10.0<br/>gini = 0.254<br/>samples = 113<br/>value = [154, 27]>, fillcolor="#e58139d2"] ;
0 -> 1 [labeldistance=2.5, labelangle=45, headlabel="True"] ;
2 [label=<past3_result &le; 7.5<br/>gini = 0.234<br/>samples = 111<br/>value = [153, 24]>, fillcolor="#e58139d7"] ;
1 -> 2 ;
3 [label=<horse_weight &le; 453.0<br/>gini = 0.276<br/>samples = 92<br/>value = [121, 24]>, fillcolor="#e58139cc"] ;
2 -> 3 ;
4 [label=<zougen &le; 3.0<br/>gini = 0.444<br/>samples = 22<br/>value = [24, 12]>, fillcolor="#e581397f"] ;
3 -> 4 ;
5 [label=<win3 &le; 3.5<br/>gini = 0.328<br/>samples = 19<br/>value = [23, 6]>, fillcolor="#e58139bc"] ;
4 -> 5 ;
6 [label=<win1 &le; 2.5<br/>gini = 0.252<br/>samples = 18<br/>value = [23, 4]>, fillcolor="#e58139d3"] ;
5 -> 6 ;
7 [label=<gini = 0.0<br/>samples = 8<br/>value = [11, 0]>, fillcolor="#e58139ff"] ;
6 -> 7 ;
8 [label=<past2_result &le; 8.5<br/>gini = 0.375<br/>samples = 10<br/>value = [12, 4]>, fillcolor="#e58139aa"] ;
6 -> 8 ;
9 [label=<frame_num &le; 7.5<br/>gini = 0.245<br/>samples = 8<br/>value = [12, 2]>, fillcolor="#e58139d4"] ;
8 -> 9 ;
10 [label=<gini = 0.0<br/>samples = 7<br/>value = [12, 0]>, fillcolor="#e58139ff"] ;
9 -> 10 ;
11 [label=<gini = 0.0<br/>samples = 1<br/>value = [0, 2]>, fillcolor="#399de5ff"] ;
9 -> 11 ;
12 [label=<gini = 0.0<br/>samples = 2<br/>value = [0, 2]>, fillcolor="#399de5ff"] ;
8 -> 12 ;
13 [label=<gini = 0.0<br/>samples = 1<br/>value = [0, 2]>, fillcolor="#399de5ff"] ;
5 -> 13 ;
14 [label=<male &le; 0.5<br/>gini = 0.245<br/>samples = 3<br/>value = [1, 6]>, fillcolor="#399de5d4"] ;
4 -> 14 ;
15 [label=<gini = 0.0<br/>samples = 2<br/>value = [0, 6]>, fillcolor="#399de5ff"] ;
14 -> 15 ;
16 [label=<gini = 0.0<br/>samples = 1<br/>value = [1, 0]>, fillcolor="#e58139ff"] ;
14 -> 16 ;
17 [label=<horse_weight &le; 533.0<br/>gini = 0.196<br/>samples = 70<br/>value = [97, 12]>, fillcolor="#e58139df"] ;
3 -> 17 ;
18 [label=<zougen &le; -1.0<br/>gini = 0.183<br/>samples = 69<br/>value = [97, 11]>, fillcolor="#e58139e2"] ;
17 -> 18 ;
19 [label=<gini = 0.0<br/>samples = 26<br/>value = [43, 0]>, fillcolor="#e58139ff"] ;
18 -> 19 ;
20 [label=<umaban &le; 16.5<br/>gini = 0.281<br/>samples = 43<br/>value = [54, 11]>, fillcolor="#e58139cb"] ;
18 -> 20 ;
21 [label=<win3 &le; 5.5<br/>gini = 0.264<br/>samples = 42<br/>value = [54, 10]>, fillcolor="#e58139d0"] ;
20 -> 21 ;
22 [label=<past3_result &le; 1.5<br/>gini = 0.18<br/>samples = 39<br/>value = [54, 6]>, fillcolor="#e58139e3"] ;
21 -> 22 ;
23 [label=<win1 &le; 1.5<br/>gini = 0.351<br/>samples = 15<br/>value = [17, 5]>, fillcolor="#e58139b4"] ;
22 -> 23 ;
24 [label=<gini = 0.0<br/>samples = 1<br/>value = [0, 2]>, fillcolor="#399de5ff"] ;
23 -> 24 ;
25 [label=<frame_num &le; 1.5<br/>gini = 0.255<br/>samples = 14<br/>value = [17, 3]>, fillcolor="#e58139d2"] ;
23 -> 25 ;
26 [label=<gini = 0.0<br/>samples = 1<br/>value = [0, 2]>, fillcolor="#399de5ff"] ;
25 -> 26 ;
27 [label=<jockey &le; 0.329<br/>gini = 0.105<br/>samples = 13<br/>value = [17, 1]>, fillcolor="#e58139f0"] ;
25 -> 27 ;
28 [label=<gini = 0.0<br/>samples = 12<br/>value = [17, 0]>, fillcolor="#e58139ff"] ;
27 -> 28 ;
29 [label=<gini = 0.0<br/>samples = 1<br/>value = [0, 1]>, fillcolor="#399de5ff"] ;
27 -> 29 ;
30 [label=<male &le; 0.5<br/>gini = 0.051<br/>samples = 24<br/>value = [37, 1]>, fillcolor="#e58139f8"] ;
22 -> 30 ;
31 [label=<jockey &le; 0.287<br/>gini = 0.245<br/>samples = 5<br/>value = [6, 1]>, fillcolor="#e58139d4"] ;
30 -> 31 ;
32 [label=<gini = 0.0<br/>samples = 3<br/>value = [4, 0]>, fillcolor="#e58139ff"] ;
31 -> 32 ;
33 [label=<win2 &le; 3.5<br/>gini = 0.444<br/>samples = 2<br/>value = [2, 1]>, fillcolor="#e581397f"] ;
31 -> 33 ;
34 [label=<gini = 0.0<br/>samples = 1<br/>value = [2, 0]>, fillcolor="#e58139ff"] ;
33 -> 34 ;
35 [label=<gini = 0.0<br/>samples = 1<br/>value = [0, 1]>, fillcolor="#399de5ff"] ;
33 -> 35 ;
36 [label=<gini = 0.0<br/>samples = 19<br/>value = [31, 0]>, fillcolor="#e58139ff"] ;
30 -> 36 ;
37 [label=<gini = 0.0<br/>samples = 3<br/>value = [0, 4]>, fillcolor="#399de5ff"] ;
21 -> 37 ;
38 [label=<gini = 0.0<br/>samples = 1<br/>value = [0, 1]>, fillcolor="#399de5ff"] ;
20 -> 38 ;
39 [label=<gini = 0.0<br/>samples = 1<br/>value = [0, 1]>, fillcolor="#399de5ff"] ;
17 -> 39 ;
40 [label=<gini = 0.0<br/>samples = 19<br/>value = [32, 0]>, fillcolor="#e58139ff"] ;
2 -> 40 ;
41 [label=<zougen &le; -0.5<br/>gini = 0.375<br/>samples = 2<br/>value = [1, 3]>, fillcolor="#399de5aa"] ;
1 -> 41 ;
42 [label=<gini = 0.0<br/>samples = 1<br/>value = [1, 0]>, fillcolor="#e58139ff"] ;
41 -> 42 ;
43 [label=<gini = 0.0<br/>samples = 1<br/>value = [0, 3]>, fillcolor="#399de5ff"] ;
41 -> 43 ;
44 [label=<age &le; 4.5<br/>gini = 0.499<br/>samples = 33<br/>value = [24, 26]>, fillcolor="#399de514"] ;
0 -> 44 [labeldistance=2.5, labelangle=-45, headlabel="False"] ;
45 [label=<female &le; 0.5<br/>gini = 0.464<br/>samples = 27<br/>value = [15, 26]>, fillcolor="#399de56c"] ;
44 -> 45 ;
46 [label=<umaban &le; 8.5<br/>gini = 0.34<br/>samples = 16<br/>value = [5, 18]>, fillcolor="#399de5b8"] ;
45 -> 46 ;
47 [label=<win2 &le; 3.5<br/>gini = 0.496<br/>samples = 8<br/>value = [5, 6]>, fillcolor="#399de52a"] ;
46 -> 47 ;
48 [label=<win2 &le; 0.5<br/>gini = 0.444<br/>samples = 7<br/>value = [3, 6]>, fillcolor="#399de57f"] ;
47 -> 48 ;
49 [label=<gini = 0.0<br/>samples = 1<br/>value = [1, 0]>, fillcolor="#e58139ff"] ;
48 -> 49 ;
50 [label=<umaban &le; 4.5<br/>gini = 0.375<br/>samples = 6<br/>value = [2, 6]>, fillcolor="#399de5aa"] ;
48 -> 50 ;
51 [label=<gini = 0.0<br/>samples = 3<br/>value = [0, 5]>, fillcolor="#399de5ff"] ;
50 -> 51 ;
52 [label=<win2 &le; 2.0<br/>gini = 0.444<br/>samples = 3<br/>value = [2, 1]>, fillcolor="#e581397f"] ;
50 -> 52 ;
53 [label=<gini = 0.0<br/>samples = 1<br/>value = [0, 1]>, fillcolor="#399de5ff"] ;
52 -> 53 ;
54 [label=<gini = 0.0<br/>samples = 2<br/>value = [2, 0]>, fillcolor="#e58139ff"] ;
52 -> 54 ;
55 [label=<gini = 0.0<br/>samples = 1<br/>value = [2, 0]>, fillcolor="#e58139ff"] ;
47 -> 55 ;
56 [label=<gini = 0.0<br/>samples = 8<br/>value = [0, 12]>, fillcolor="#399de5ff"] ;
46 -> 56 ;
57 [label=<weight &le; 56.5<br/>gini = 0.494<br/>samples = 11<br/>value = [10, 8]>, fillcolor="#e5813933"] ;
45 -> 57 ;
58 [label=<condition &le; 1.5<br/>gini = 0.444<br/>samples = 10<br/>value = [10, 5]>, fillcolor="#e581397f"] ;
57 -> 58 ;
59 [label=<jockey &le; 0.43<br/>gini = 0.496<br/>samples = 7<br/>value = [6, 5]>, fillcolor="#e581392a"] ;
58 -> 59 ;
60 [label=<gini = 0.0<br/>samples = 2<br/>value = [4, 0]>, fillcolor="#e58139ff"] ;
59 -> 60 ;
61 [label=<past3_result &le; 2.5<br/>gini = 0.408<br/>samples = 5<br/>value = [2, 5]>, fillcolor="#399de599"] ;
59 -> 61 ;
62 [label=<gini = 0.0<br/>samples = 3<br/>value = [0, 5]>, fillcolor="#399de5ff"] ;
61 -> 62 ;
63 [label=<gini = 0.0<br/>samples = 2<br/>value = [2, 0]>, fillcolor="#e58139ff"] ;
61 -> 63 ;
64 [label=<gini = 0.0<br/>samples = 3<br/>value = [4, 0]>, fillcolor="#e58139ff"] ;
58 -> 64 ;
65 [label=<gini = 0.0<br/>samples = 1<br/>value = [0, 3]>, fillcolor="#399de5ff"] ;
57 -> 65 ;
66 [label=<gini = 0.0<br/>samples = 6<br/>value = [9, 0]>, fillcolor="#e58139ff"] ;
44 -> 66 ;
}