digraph Tree {
node [shape=box, style="filled", color="black"] ;
0 [label=<umaban &le; 6.5<br/>gini = 0.257<br/>samples = 142<br/>value = [196, 35]>, fillcolor="#e58139d1"] ;
1 [label=<frame_num &le; 2.5<br/>gini = 0.134<br/>samples = 56<br/>value = [90, 7]>, fillcolor="#e58139eb"] ;
0 -> 1 [labeldistance=2.5, labelangle=45, headlabel="True"] ;
2 [label=<past1_result &le; 3.5<br/>gini = 0.212<br/>samples = 33<br/>value = [51, 7]>, fillcolor="#e58139dc"] ;
1 -> 2 ;
3 [label=<jockey &le; 0.43<br/>gini = 0.366<br/>samples = 17<br/>value = [22, 7]>, fillcolor="#e58139ae"] ;
2 -> 3 ;
4 [label=<weight &le; 57.5<br/>gini = 0.26<br/>samples = 14<br/>value = [22, 4]>, fillcolor="#e58139d1"] ;
3 -> 4 ;
5 [label=<horse_weight &le; 487.0<br/>gini = 0.211<br/>samples = 13<br/>value = [22, 3]>, fillcolor="#e58139dc"] ;
4 -> 5 ;
6 [label=<male &le; 0.5<br/>gini = 0.49<br/>samples = 5<br/>value = [4, 3]>, fillcolor="#e5813940"] ;
5 -> 6 ;
7 [label=<gini = 0.0<br/>samples = 2<br/>value = [2, 0]>, fillcolor="#e58139ff"] ;
6 -> 7 ;
8 [label=<zougen &le; 3.0<br/>gini = 0.48<br/>samples = 3<br/>value = [2, 3]>, fillcolor="#399de555"] ;
6 -> 8 ;
9 [label=<gini = 0.0<br/>samples = 2<br/>value = [2, 0]>, fillcolor="#e58139ff"] ;
8 -> 9 ;
10 [label=<gini = 0.0<br/>samples = 1<br/>value = [0, 3]>, fillcolor="#399de5ff"] ;
8 -> 10 ;
11 [label=<gini = 0.0<br/>samples = 8<br/>value = [18, 0]>, fillcolor="#e58139ff"] ;
5 -> 11 ;
12 [label=<gini = 0.0<br/>samples = 1<br/>value = [0, 1]>, fillcolor="#399de5ff"] ;
4 -> 12 ;
13 [label=<gini = 0.0<br/>samples = 3<br/>value = [0, 3]>, fillcolor="#399de5ff"] ;
3 -> 13 ;
14 [label=<gini = 0.0<br/>samples = 16<br/>value = [29, 0]>, fillcolor="#e58139ff"] ;
2 -> 14 ;
15 [label=<gini = 0.0<br/>samples = 23<br/>value = [39, 0]>, fillcolor="#e58139ff"] ;
1 -> 15 ;
16 [label=<weight &le; 53.5<br/>gini = 0.331<br/>samples = 86<br/>value = [106, 28]>, fillcolor="#e58139bc"] ;
0 -> 16 [labeldistance=2.5, labelangle=-45, headlabel="False"] ;
17 [label=<gini = 0.0<br/>samples = 1<br/>value = [0, 3]>, fillcolor="#399de5ff"] ;
16 -> 17 ;
18 [label=<past1_result &le; 3.5<br/>gini = 0.309<br/>samples = 85<br/>value = [106, 25]>, fillcolor="#e58139c3"] ;
16 -> 18 ;
19 [label=<jockey &le; 0.403<br/>gini = 0.404<br/>samples = 42<br/>value = [46, 18]>, fillcolor="#e581399b"] ;
18 -> 19 ;
20 [label=<past1_result &le; 2.5<br/>gini = 0.255<br/>samples = 25<br/>value = [34, 6]>, fillcolor="#e58139d2"] ;
19 -> 20 ;
21 [label=<frame_num &le; 6.5<br/>gini = 0.202<br/>samples = 21<br/>value = [31, 4]>, fillcolor="#e58139de"] ;
20 -> 21 ;
22 [label=<distance &le; 1800.0<br/>gini = 0.287<br/>samples = 13<br/>value = [19, 4]>, fillcolor="#e58139c9"] ;
21 -> 22 ;
23 [label=<age &le; 7.0<br/>gini = 0.375<br/>samples = 3<br/>value = [1, 3]>, fillcolor="#399de5aa"] ;
22 -> 23 ;
24 [label=<gini = 0.0<br/>samples = 2<br/>value = [0, 3]>, fillcolor="#399de5ff"] ;
23 -> 24 ;
25 [label=<gini = 0.0<br/>samples = 1<br/>value = [1, 0]>, fillcolor="#e58139ff"] ;
23 -> 25 ;
26 [label=<win1 &le; 4.5<br/>gini = 0.1<br/>samples = 10<br/>value = [18, 1]>, fillcolor="#e58139f1"] ;
22 -> 26 ;
27 [label=<gini = 0.0<br/>samples = 6<br/>value = [11, 0]>, fillcolor="#e58139ff"] ;
26 -> 27 ;
28 [label=<total_game &le; 23.0<br/>gini = 0.219<br/>samples = 4<br/>value = [7, 1]>, fillcolor="#e58139db"] ;
26 -> 28 ;
29 [label=<gini = 0.0<br/>samples = 1<br/>value = [0, 1]>, fillcolor="#399de5ff"] ;
28 -> 29 ;
30 [label=<gini = 0.0<br/>samples = 3<br/>value = [7, 0]>, fillcolor="#e58139ff"] ;
28 -> 30 ;
31 [label=<gini = 0.0<br/>samples = 8<br/>value = [12, 0]>, fillcolor="#e58139ff"] ;
21 -> 31 ;
32 [label=<past2_result &le; 1.5<br/>gini = 0.48<br/>samples = 4<br/>value = [3, 2]>, fillcolor="#e5813955"] ;
20 -> 32 ;
33 [label=<gini = 0.0<br/>samples = 1<br/>value = [0, 2]>, fillcolor="#399de5ff"] ;
32 -> 33 ;
34 [label=<gini = 0.0<br/>samples = 3<br/>value = [3, 0]>, fillcolor="#e58139ff"] ;
32 -> 34 ;
35 [label=<weight &le; 56.0<br/>gini = 0.5<br/>samples = 17<br/>value = [12, 12]>, fillcolor="#e5813900"] ;
19 -> 35 ;
36 [label=<win2 &le; 0.5<br/>gini = 0.219<br/>samples = 6<br/>value = [7, 1]>, fillcolor="#e58139db"] ;
35 -> 36 ;
37 [label=<gini = 0.0<br/>samples = 3<br/>value = [5, 0]>, fillcolor="#e58139ff"] ;
36 -> 37 ;
38 [label=<umaban &le; 13.5<br/>gini = 0.444<br/>samples = 3<br/>value = [2, 1]>, fillcolor="#e581397f"] ;
36 -> 38 ;
39 [label=<gini = 0.0<br/>samples = 1<br/>value = [0, 1]>, fillcolor="#399de5ff"] ;
38 -> 39 ;
40 [label=<gini = 0.0<br/>samples = 2<br/>value = [2, 0]>, fillcolor="#e58139ff"] ;
38 -> 40 ;
41 [label=<win2 &le; 3.5<br/>gini = 0.43<br/>samples = 11<br/>value = [5, 11]>, fillcolor="#399de58b"] ;
35 -> 41 ;
42 [label=<past1_result &le; 1.5<br/>gini = 0.391<br/>samples = 10<br/>value = [4, 11]>, fillcolor="#399de5a2"] ;
41 -> 42 ;
43 [label=<zougen &le; -1.0<br/>gini = 0.494<br/>samples = 6<br/>value = [4, 5]>, fillcolor="#399de533"] ;
42 -> 43 ;
44 [label=<gini = 0.0<br/>samples = 4<br/>value = [0, 5]>, fillcolor="#399de5ff"] ;
43 -> 44 ;
45 [label=<gini = 0.0<br/>samples = 2<br/>value = [4, 0]>, fillcolor="#e58139ff"] ;
43 -> 45 ;
46 [label=<gini = 0.0<br/>samples = 4<br/>value = [0, 6]>, fillcolor="#399de5ff"] ;
42 -> 46 ;
47 [label=<gini = 0.0<br/>samples = 1<br/>value = [1, 0]>, fillcolor="#e58139ff"] ;
41 -> 47 ;
48 [label=<zougen &le; 3.0<br/>gini = 0.187<br/>samples = 43<br/>value = [60, 7]>, fillcolor="#e58139e1"] ;
18 -> 48 ;
49 [label=<umaban &le; 16.5<br/>gini = 0.043<br/>samples = 27<br/>value = [45, 1]>, fillcolor="#e58139f9"] ;
48 -> 49 ;
50 [label=<gini = 0.0<br/>samples = 26<br/>value = [45, 0]>, fillcolor="#e58139ff"] ;
49 -> 50 ;
51 [label=<gini = 0.0<br/>samples = 1<br/>value = [0, 1]>, fillcolor="#399de5ff"] ;
49 -> 51 ;
52 [label=<distance &le; 2100.0<br/>gini = 0.408<br/>samples = 16<br/>value = [15, 6]>, fillcolor="#e5813999"] ;
48 -> 52 ;
53 [label=<total_game &le; 24.5<br/>gini = 0.153<br/>samples = 9<br/>value = [11, 1]>, fillcolor="#e58139e8"] ;
52 -> 53 ;
54 [label=<gini = 0.0<br/>samples = 7<br/>value = [9, 0]>, fillcolor="#e58139ff"] ;
53 -> 54 ;
55 [label=<age &le; 6.5<br/>gini = 0.444<br/>samples = 2<br/>value = [2, 1]>, fillcolor="#e581397f"] ;
53 -> 55 ;
56 [label=<gini = 0.0<br/>samples = 1<br/>value = [0, 1]>, fillcolor="#399de5ff"] ;
55 -> 56 ;
57 [label=<gini = 0.0<br/>samples = 1<br/>value = [2, 0]>, fillcolor="#e58139ff"] ;
55 -> 57 ;
58 [label=<total_game &le; 25.5<br/>gini = 0.494<br/>samples = 7<br/>value = [4, 5]>, fillcolor="#399de533"] ;
52 -> 58 ;
59 [label=<win3 &le; 1.5<br/>gini = 0.408<br/>samples = 5<br/>value = [2, 5]>, fillcolor="#399de599"] ;
58 -> 59 ;
60 [label=<male &le; 0.5<br/>gini = 0.444<br/>samples = 3<br/>value = [2, 1]>, fillcolor="#e581397f"] ;
59 -> 60 ;
61 [label=<gini = 0.0<br/>samples = 2<br/>value = [2, 0]>, fillcolor="#e58139ff"] ;
60 -> 61 ;
62 [label=<gini = 0.0<br/>samples = 1<br/>value = [0, 1]>, fillcolor="#399de5ff"] ;
60 -> 62 ;
63 [label=<gini = 0.0<br/>samples = 2<br/>value = [0, 4]>, fillcolor="#399de5ff"] ;
59 -> 63 ;
64 [label=<gini = 0.0<br/>samples = 2<br/>value = [2, 0]>, fillcolor="#e58139ff"] ;
58 -> 64 ;
}